{"learner":{"attributes":{"scikit_learn":"{\"_estimator_type\": \"classifier\"}"},"feature_names":["confidence","confidence_bucket","source_count","has_meta","has_msft","meta_conf","msft_age_days","msft_age_x_conf","has_phone","phone_count","has_website","website_count","has_social","has_brand","presence_score","presence_ratio","addr_completeness","addr_has_region","addr_has_locality","addr_has_postcode","addr_has_freeform","name_len","name_words","name_has_digit","name_has_hash","lat","lon","alt_cat_count","primary_cat_enc","addr_region_enc","cat_closure_rate"],"feature_types":["float","float","float","float","float","float","float","float","float","float","float","float","float","float","float","float","float","float","float","float","float","float","float","float","float","float","float","float","float","float","float"],"gradient_booster":{"model":{"cats":{"enc":[],"feature_segments":[],"sorted_idx":[]},"gbtree_model_param":{"num_parallel_tree":"1","num_trees":"600"},"iteration_indptr":[0,1,2,3,4,5,6,7,8,9,10,11,12,13,14,15,16,17,18,19,20,21,22,23,24,25,26,27,28,29,30,31,32,33,34,35,36,37,38,39,40,41,42,43,44,45,46,47,48,49,50,51,52,53,54,55,56,57,58,59,60,61,62,63,64,65,66,67,68,69,70,71,72,73,74,75,76,77,78,79,80,81,82,83,84,85,86,87,88,89,90,91,92,93,94,95,96,97,98,99,100,101,102,103,104,105,106,107,108,109,110,111,112,113,114,115,116,117,118,119,120,121,122,123,124,125,126,127,128,129,130,131,132,133,134,135,136,137,138,139,140,141,142,143,144,145,146,147,148,149,150,151,152,153,154,155,156,157,158,159,160,161,162,163,164,165,166,167,168,169,170,171,172,173,174,175,176,177,178,179,180,181,182,183,184,185,186,187,188,189,190,191,192,193,194,195,196,197,198,199,200,201,202,203,204,205,206,207,208,209,210,211,212,213,214,215,216,217,218,219,220,221,222,223,224,225,226,227,228,229,230,231,232,233,234,235,236,237,238,239,240,241,242,243,244,245,246,247,248,249,250,251,252,253,254,255,256,257,258,259,260,261,262,263,264,265,266,267,268,269,270,271,272,273,274,275,276,277,278,279,280,281,282,283,284,285,286,287,288,289,290,291,292,293,294,295,296,297,298,299,300,301,302,303,304,305,306,307,308,309,310,311,312,313,314,315,316,317,318,319,320,321,322,323,324,325,326,327,328,329,330,331,332,333,334,335,336,337,338,339,340,341,342,343,344,345,346,347,348,349,350,351,352,353,354,355,356,357,358,359,360,361,362,363,364,365,366,367,368,369,370,371,372,373,374,375,376,377,378,379,380,381,382,383,384,385,386,387,388,389,390,391,392,393,394,395,396,397,398,399,400,401,402,403,404,405,406,407,408,409,410,411,412,413,414,415,416,417,418,419,420,421,422,423,424,425,426,427,428,429,430,431,432,433,434,435,436,437,438,439,440,441,442,443,444,445,446,447,448,449,450,451,452,453,454,455,456,457,458,459,460,461,462,463,464,465,466,467,468,469,470,471,472,473,474,475,476,477,478,479,480,481,482,483,484,485,486,487,488,489,490,491,492,493,494,495,496,497,498,499,500,501,502,503,504,505,506,507,508,509,510,511,512,513,514,515,516,517,518,519,520,521,522,523,524,525,526,527,528,529,530,531,532,533,534,535,536,537,538,539,540,541,542,543,544,545,546,547,548,549,550,551,552,553,554,555,556,557,558,559,560,561,562,563,564,565,566,567,568,569,570,571,572,573,574,575,576,577,578,579,580,581,582,583,584,585,586,587,588,589,590,591,592,593,594,595,596,597,598,599,600],"tree_info":[0,0,0,0,0,0,0,0,0,0,0,0,0,0,0,0,0,0,0,0,0,0,0,0,0,0,0,0,0,0,0,0,0,0,0,0,0,0,0,0,0,0,0,0,0,0,0,0,0,0,0,0,0,0,0,0,0,0,0,0,0,0,0,0,0,0,0,0,0,0,0,0,0,0,0,0,0,0,0,0,0,0,0,0,0,0,0,0,0,0,0,0,0,0,0,0,0,0,0,0,0,0,0,0,0,0,0,0,0,0,0,0,0,0,0,0,0,0,0,0,0,0,0,0,0,0,0,0,0,0,0,0,0,0,0,0,0,0,0,0,0,0,0,0,0,0,0,0,0,0,0,0,0,0,0,0,0,0,0,0,0,0,0,0,0,0,0,0,0,0,0,0,0,0,0,0,0,0,0,0,0,0,0,0,0,0,0,0,0,0,0,0,0,0,0,0,0,0,0,0,0,0,0,0,0,0,0,0,0,0,0,0,0,0,0,0,0,0,0,0,0,0,0,0,0,0,0,0,0,0,0,0,0,0,0,0,0,0,0,0,0,0,0,0,0,0,0,0,0,0,0,0,0,0,0,0,0,0,0,0,0,0,0,0,0,0,0,0,0,0,0,0,0,0,0,0,0,0,0,0,0,0,0,0,0,0,0,0,0,0,0,0,0,0,0,0,0,0,0,0,0,0,0,0,0,0,0,0,0,0,0,0,0,0,0,0,0,0,0,0,0,0,0,0,0,0,0,0,0,0,0,0,0,0,0,0,0,0,0,0,0,0,0,0,0,0,0,0,0,0,0,0,0,0,0,0,0,0,0,0,0,0,0,0,0,0,0,0,0,0,0,0,0,0,0,0,0,0,0,0,0,0,0,0,0,0,0,0,0,0,0,0,0,0,0,0,0,0,0,0,0,0,0,0,0,0,0,0,0,0,0,0,0,0,0,0,0,0,0,0,0,0,0,0,0,0,0,0,0,0,0,0,0,0,0,0,0,0,0,0,0,0,0,0,0,0,0,0,0,0,0,0,0,0,0,0,0,0,0,0,0,0,0,0,0,0,0,0,0,0,0,0,0,0,0,0,0,0,0,0,0,0,0,0,0,0,0,0,0,0,0,0,0,0,0,0,0,0,0,0,0,0,0,0,0,0,0,0,0,0,0,0,0,0,0,0,0,0,0,0,0,0,0,0,0,0,0,0,0,0,0,0,0,0,0,0,0,0,0,0,0,0,0,0,0,0,0,0,0,0,0,0,0,0,0,0,0,0,0,0,0,0,0,0,0,0,0,0,0,0,0,0,0,0,0,0,0,0,0,0,0,0,0,0,0,0,0,0,0,0,0,0,0,0,0,0,0,0,0,0],"trees":[{"base_weights":[2.2245437E-2,-5.256628E-1,6.6536576E-1,-6.392143E-2,-3.8441136E-1,1.0650096E0,3.5302752E-1,-2.4456164E-1,-5.1471062E-2,8.58265E-3,1.1922312E0,6.5088385E-1,-2.9713923E-2,-5.534394E-1,1.0979804E-1,2.4493137E-2,5.1617797E-2,8.905963E-1,-1.824039E-2,-3.2905942E-1,2.5033398E-2,-2.685431E-2,1.6085324E-3,2.2984881E-2,-2.0772347E-2,7.7064782E-3,4.7422748E-2,-4.03515E-3,-2.8202476E-2],"categories":[],"categories_nodes":[],"categories_segments":[],"categories_sizes":[],"default_left":[0,0,0,0,0,0,0,0,0,0,0,0,0,0,0,0,0,0,0,0,0,0,0,0,0,0,0,0,0],"id":0,"left_children":[1,3,5,-1,7,9,11,13,-1,-1,15,17,19,21,23,-1,-1,25,-1,27,-1,-1,-1,-1,-1,-1,-1,-1,-1],"loss_changes":[4.4210663E1,9.437016E0,6.693136E0,0E0,7.2539616E0,2.2765827E0,3.9646487E0,6.0494637E0,0E0,0E0,2.2523499E-1,5.5827713E0,3.2603962E0,2.1434946E0,7.8999577E0,0E0,0E0,2.99257E0,0E0,8.39206E-1,0E0,0E0,0E0,0E0,0E0,0E0,0E0,0E0,0E0],"parents":[2147483647,0,0,1,1,2,2,4,4,5,5,6,6,7,7,10,10,11,11,12,12,13,13,14,14,17,17,19,19],"right_children":[2,4,6,-1,8,10,12,14,-1,-1,16,18,20,22,24,-1,-1,26,-1,28,-1,-1,-1,-1,-1,-1,-1,-1,-1],"split_conditions":[9.233926E-1,1E0,2.6994225E-1,-6.392143E-2,6.1589617E-1,9.359643E-1,-8.395872E1,8.770556E-1,-5.1471062E-2,8.58265E-3,2E0,4.494852E1,-7.5944275E1,-7.981422E1,1.5111E2,2.4493137E-2,5.1617797E-2,1.3E1,-1.824039E-2,2.3E1,2.5033398E-2,-2.685431E-2,1.6085324E-3,2.2984881E-2,-2.0772347E-2,7.7064782E-3,4.7422748E-2,-4.03515E-3,-2.8202476E-2],"split_indices":[0,20,30,0,30,0,26,5,0,0,27,25,26,26,7,0,0,21,0,29,0,0,0,0,0,0,0,0,0],"split_type":[0,0,0,0,0,0,0,0,0,0,0,0,0,0,0,0,0,0,0,0,0,0,0,0,0,0,0,0,0],"sum_hessian":[1.23434044E2,6.6665405E1,5.676864E1,6.476301E0,6.0189106E1,2.3706137E1,3.30625E1,5.3309044E1,6.880061E0,3.5367126E0,2.0169424E1,1.8345999E1,1.47165E1,2.8332985E1,2.497606E1,4.1164846E0,1.605294E1,1.531507E1,3.0309286E0,1.05497265E1,4.166774E0,2.3669104E1,4.663882E0,1.450466E1,1.0471401E1,5.141629E0,1.0173442E1,7.520244E0,3.0294826E0],"tree_param":{"num_deleted":"0","num_feature":"31","num_nodes":"29","size_leaf_vector":"1"}},{"base_weights":[3.832733E-3,-5.157032E-1,5.8684987E-1,-6.073732E-2,-3.042039E-1,8.6349726E-1,3.490193E-1,-9.906671E-2,-5.6017008E-2,3.042435E-1,1.1112329E0,1.7445718E-1,8.6600965E-1,5.3300884E-2,-5.785724E-1,-1.2819453E-2,2.7903514E-2,1.4512871E-2,5.018187E-2,-7.119503E-2,5.8837366E-1,5.492396E-2,-0E0,-9.7927665E-3,4.5249157E-2,-3.8751513E-2,8.710414E-4,-1.0474746E-2,9.662417E-3,4.2228033E-3,3.176726E-2],"categories":[],"categories_nodes":[],"categories_segments":[],"categories_sizes":[],"default_left":[0,0,0,0,0,0,0,0,0,0,0,0,0,0,0,0,0,0,0,0,0,0,0,0,0,0,0,0,0,0,0],"id":1,"left_children":[1,3,5,-1,7,9,11,13,-1,15,17,19,21,23,25,-1,-1,-1,-1,27,29,-1,-1,-1,-1,-1,-1,-1,-1,-1,-1],"loss_changes":[3.7972977E1,1.3393723E1,3.4691696E0,0E0,1.2303408E1,3.1878376E0,2.7843251E0,3.6138222E0,0E0,2.6270003E0,1.2969666E0,2.7957203E0,3.4354348E0,1.23928795E1,2.9023335E0,0E0,0E0,0E0,0E0,1.1039749E0,8.35449E-1,0E0,0E0,0E0,0E0,0E0,0E0,0E0,0E0,0E0,0E0],"parents":[2147483647,0,0,1,1,2,2,4,4,5,5,6,6,7,7,9,9,10,10,11,11,12,12,13,13,14,14,19,19,20,20],"right_children":[2,4,6,-1,8,10,12,14,-1,16,18,20,22,24,26,-1,-1,-1,-1,28,30,-1,-1,-1,-1,-1,-1,-1,-1,-1,-1],"split_conditions":[9.047849E-1,4E0,2.6994225E-1,-6.073732E-2,6.303832E-1,9.361702E-1,3.6958045E-1,1.5111E2,-5.6017008E-2,-9.797393E1,2E0,1.9E1,8.945743E0,1E0,1.9E1,-1.2819453E-2,2.7903514E-2,1.4512871E-2,5.018187E-2,4.0344524E-1,3.282884E-1,5.492396E-2,-0E0,-9.7927665E-3,4.5249157E-2,-3.8751513E-2,8.710414E-4,-1.0474746E-2,9.662417E-3,4.2228033E-3,3.176726E-2],"split_indices":[0,16,30,0,30,0,7,7,0,26,27,21,7,4,21,0,0,0,0,30,30,0,0,0,0,0,0,0,0,0,0],"split_type":[0,0,0,0,0,0,0,0,0,0,0,0,0,0,0,0,0,0,0,0,0,0,0,0,0,0,0,0,0,0,0],"sum_hessian":[1.2334279E2,6.519257E1,5.8150215E1,1.0196797E1,5.4995777E1,2.5470928E1,3.2679287E1,4.7321957E1,7.6738205E0,8.6271715E0,1.6843756E1,2.557481E1,7.1044765E0,3.6427162E1,1.0894792E1,3.306544E0,5.3206277E0,3.3867831E0,1.3456972E1,1.6417633E1,9.157176E0,4.045915E0,3.058561E0,2.9068003E1,7.359161E0,6.331981E0,4.5628104E0,1.0499177E1,5.9184566E0,3.3342414E0,5.8229346E0],"tree_param":{"num_deleted":"0","num_feature":"31","num_nodes":"31","size_leaf_vector":"1"}},{"base_weights":[2.5622344E-3,-5.810119E-2,1.9044217E-1,-1.6379058E-1,7.047721E-1,-7.259145E-3,-4.9724255E-2,1.073727E0,3.3584854E-1,-3.264095E-2,7.932502E-2,6.8020094E-3,1.2013211E0,-3.478141E-1,6.4059556E-1,9.779653E-3,-1.901871E-2,5.59208E-2,2.590688E-2,7.0402646E-3,-3.227908E-2,1.652878E-2,4.9083956E-2],"categories":[],"categories_nodes":[],"categories_segments":[],"categories_sizes":[],"default_left":[0,0,1,0,0,0,0,0,0,0,0,0,0,0,0,0,0,0,0,0,0,0,0],"id":2,"left_children":[1,-1,3,5,7,9,-1,11,13,-1,15,-1,17,19,21,-1,-1,-1,-1,-1,-1,-1,-1],"loss_changes":[3.437068E1,0E0,2.0539463E1,1.1168931E1,5.7464085E0,4.306052E0,0E0,2.236683E0,5.365382E0,0E0,5.09264E0,0E0,9.9515915E-1,2.1566796E0,1.6531358E0,0E0,0E0,0E0,0E0,0E0,0E0,0E0,0E0],"parents":[2147483647,0,0,2,2,3,3,4,4,5,5,7,7,8,8,10,10,12,12,13,13,14,14],"right_children":[2,-1,4,6,8,10,-1,12,14,-1,16,-1,18,20,22,-1,-1,-1,-1,-1,-1,-1,-1],"split_conditions":[4E0,-5.810119E-2,9.359643E-1,6.303832E-1,2.881752E-1,1E0,-4.9724255E-2,3E1,3.151916E-1,-3.264095E-2,1.1661E2,6.8020094E-3,-8.130996E1,-8.316359E1,3.032455E-1,9.779653E-3,-1.901871E-2,5.59208E-2,2.590688E-2,7.0402646E-3,-3.227908E-2,1.652878E-2,4.9083956E-2],"split_indices":[16,0,5,30,30,9,0,28,30,0,7,0,26,26,7,0,0,0,0,0,0,0,0],"split_type":[0,0,0,0,0,0,0,0,0,0,0,0,0,0,0,0,0,0,0,0,0,0,0],"sum_hessian":[1.2417353E2,1.3369105E1,1.1080442E2,6.590263E1,4.4901787E1,5.851559E1,7.3870454E0,2.1359241E1,2.3542543E1,4.9557047E0,5.3559887E1,3.0282607E0,1.833098E1,7.1139064E0,1.6428638E1,4.184257E1,1.1717315E1,1.2267055E1,6.063926E0,3.5093138E0,3.6045923E0,1.3190128E1,3.23851E0],"tree_param":{"num_deleted":"0","num_feature":"31","num_nodes":"23","size_leaf_vector":"1"}},{"base_weights":[-2.2492947E-2,-5.677137E-1,4.9213678E-1,-5.8646686E-2,-3.324515E-1,8.8403434E-1,1.9222707E-1,-1.9129175E-1,-4.805582E-2,1.110178E0,2.7935112E-1,4.172848E-1,-7.717643E-2,-6.1594206E-1,-5.687211E-3,6.741202E-1,5.315992E-2,-1.31063545E-2,3.570282E-2,6.3761705E-1,-2.5791056E-2,-3.0381463E-2,1.622712E-1,-3.0639987E-3,-3.0700408E-2,1.1691044E-2,-2.09601E-2,4.3452564E-3,3.9144367E-2,1.2137379E-2,4.404857E-2,-1.3156288E-2,1.7354308E-2],"categories":[],"categories_nodes":[],"categories_segments":[],"categories_sizes":[],"default_left":[0,0,0,0,0,0,0,0,0,0,0,0,0,0,0,0,0,0,0,0,0,0,0,0,0,0,0,0,0,0,0,0,0],"id":3,"left_children":[1,3,5,-1,7,9,11,13,-1,15,17,19,21,23,25,27,-1,-1,-1,29,-1,-1,31,-1,-1,-1,-1,-1,-1,-1,-1,-1,-1],"loss_changes":[3.6163406E1,1.2574022E1,7.5052605E0,0E0,5.889802E0,3.4186249E0,2.4268146E0,3.495595E0,0E0,8.244362E-1,3.756814E0,5.4581647E0,3.183238E0,9.660392E-1,5.2133126E0,1.3187737E0,0E0,0E0,0E0,2.3830962E0,0E0,0E0,2.0618782E0,0E0,0E0,0E0,0E0,0E0,0E0,0E0,0E0,0E0,0E0],"parents":[2147483647,0,0,1,1,2,2,4,4,5,5,6,6,7,7,9,9,10,10,11,11,12,12,13,13,14,14,15,15,19,19,22,22],"right_children":[2,4,6,-1,8,10,12,14,-1,16,18,20,22,24,26,28,-1,-1,-1,30,-1,-1,32,-1,-1,-1,-1,-1,-1,-1,-1,-1,-1],"split_conditions":[8.770556E-1,4E0,2.6994225E-1,-5.8646686E-2,6.303832E-1,4.1432957E1,-8.419014E1,5.185185E-1,-4.805582E-2,-9.551608E1,4.269395E1,5.8023584E-1,-8.270863E1,1.7516133E-1,5.09E2,9.361702E-1,5.315992E-2,-1.31063545E-2,3.570282E-2,3.785888E-1,-2.5791056E-2,-3.0381463E-2,9.361702E-1,-3.0639987E-3,-3.0700408E-2,1.1691044E-2,-2.09601E-2,4.3452564E-3,3.9144367E-2,1.2137379E-2,4.404857E-2,-1.3156288E-2,1.7354308E-2],"split_indices":[0,16,30,0,30,25,26,0,0,26,25,30,26,30,6,0,0,0,0,30,0,0,0,0,0,0,0,0,0,0,0,0,0],"split_type":[0,0,0,0,0,0,0,0,0,0,0,0,0,0,0,0,0,0,0,0,0,0,0,0,0,0,0,0,0,0,0,0,0],"sum_hessian":[1.2686224E2,6.1644547E1,6.52177E1,1.161819E1,5.0026356E1,2.7284039E1,3.793366E1,4.4183914E1,5.8424406E0,1.9128782E1,8.155256E0,2.0571037E1,1.7362623E1,1.2569172E1,3.1614744E1,7.907887E0,1.1220895E1,4.2504487E0,3.904808E0,1.7445616E1,3.1254208E0,4.05437E0,1.3308254E1,3.2323363E0,9.336835E0,2.0228931E1,1.1385813E1,3.3575397E0,4.5503473E0,1.1224613E1,6.2210026E0,4.5322237E0,8.77603E0],"tree_param":{"num_deleted":"0","num_feature":"31","num_nodes":"33","size_leaf_vector":"1"}},{"base_weights":[8.673368E-3,-4.2681956E-1,5.2642745E-1,-5.403025E-2,-2.4037701E-1,1.8041658E-1,9.0424836E-1,3.5213448E-2,-8.5820305E-1,5.2934E-1,-2.2049907E-1,4.954997E-2,4.1587225E-1,-2.6431385E-1,1.1627966E0,-5.2934926E-2,-2.3418447E-1,5.0286625E-2,4.1663133E-2,-2.9092886E-2,1.4634634E-3,-7.1149734E-3,6.442105E-1,-2.3666276E-2,-1.6442997E-3,1.9402798E-2,5.6538418E-2,-2.1038387E-2,5.2929465E-3,2.2249624E-2,-1.1213728E-2,1.245766E-2,-2.2070102E-2,1.1500482E-2,3.91533E-2],"categories":[],"categories_nodes":[],"categories_segments":[],"categories_sizes":[],"default_left":[0,0,0,0,0,0,0,0,0,0,0,0,0,0,0,0,0,0,0,0,0,0,0,0,0,0,0,0,0,0,0,0,0,0,0],"id":4,"left_children":[1,3,5,-1,7,9,11,13,15,17,19,-1,21,23,25,-1,27,29,-1,-1,31,-1,33,-1,-1,-1,-1,-1,-1,-1,-1,-1,-1,-1,-1],"loss_changes":[2.8375702E1,1.1270517E1,7.2545996E0,0E0,1.000242E1,4.545388E0,3.7518635E0,1.4250037E1,4.779194E0,4.0680146E0,1.7837563E0,0E0,1.8771236E0,2.334668E0,6.3033104E-1,0E0,1.0739211E0,1.8660992E0,0E0,0E0,2.1082988E0,0E0,7.233546E-1,0E0,0E0,0E0,0E0,0E0,0E0,0E0,0E0,0E0,0E0,0E0,0E0],"parents":[2147483647,0,0,1,1,2,2,4,4,5,5,6,6,7,7,8,8,9,9,10,10,12,12,13,13,14,14,16,16,17,17,20,20,22,22],"right_children":[2,4,6,-1,8,10,12,14,16,18,20,-1,22,24,26,-1,28,30,-1,-1,32,-1,34,-1,-1,-1,-1,-1,-1,-1,-1,-1,-1,-1,-1],"split_conditions":[9.233926E-1,4E0,1.8E1,-5.403025E-2,6.14E2,8.2E1,-8.395872E1,1E0,1.4E1,3.9E1,8.8E1,4.954997E-2,2.7E1,5.185185E-1,3.5190918E1,-5.2934926E-2,-9.537263E1,2.6E1,4.1663133E-2,-2.9092886E-2,4.168398E1,-7.1149734E-3,-7.715136E1,-2.3666276E-2,-1.6442997E-3,1.9402798E-2,5.6538418E-2,-2.1038387E-2,5.2929465E-3,2.2249624E-2,-1.1213728E-2,1.245766E-2,-2.2070102E-2,1.1500482E-2,3.91533E-2],"split_indices":[0,16,21,0,6,28,26,4,21,28,28,0,28,0,25,0,26,28,0,0,25,0,26,0,0,0,0,0,0,0,0,0,0,0,0],"split_type":[0,0,0,0,0,0,0,0,0,0,0,0,0,0,0,0,0,0,0,0,0,0,0,0,0,0,0,0,0,0,0,0,0,0,0],"sum_hessian":[1.2380605E2,6.723548E1,5.6570568E1,1.0150804E1,5.708468E1,3.0437708E1,2.613286E1,4.0016068E1,1.7068613E1,1.6236189E1,1.4201519E1,1.4476394E1,1.16564665E1,3.215218E1,7.8638864E0,9.045059E0,8.023553E0,9.058204E0,7.1779847E0,3.7690718E0,1.0432447E1,3.1773868E0,8.479079E0,1.218441E1,1.9967772E1,3.0234323E0,4.840454E0,4.376909E0,3.6466446E0,3.4297838E0,5.62842E0,7.082036E0,3.3504114E0,5.1487274E0,3.3303518E0],"tree_param":{"num_deleted":"0","num_feature":"31","num_nodes":"35","size_leaf_vector":"1"}},{"base_weights":[-2.5413273E-2,-5.103527E-1,5.594575E-1,-5.4574683E-2,-3.2265738E-1,7.6222533E-1,3.2829115E-1,-1.704943E-1,-4.8385397E-2,3.3267915E-1,9.770025E-1,5.3358835E-1,-1.0778625E-1,-2.7546793E-1,4.4951147E-1,-1.4877728E-2,3.117563E-2,4.9115396E-1,5.2224487E-2,6.3893604E-1,-9.3309645E-4,1.2622603E-2,-2.1413079E-2,-1.4080781E-2,2.1755546E-2,2.867553E-2,3.8146038E-5,3.1088492E-2,-2.8659096E-3,3.7097532E-2,1.3257842E-2],"categories":[],"categories_nodes":[],"categories_segments":[],"categories_sizes":[],"default_left":[0,0,0,0,0,0,0,0,0,0,0,0,0,0,0,0,0,0,0,0,0,0,0,0,0,0,0,0,0,0,0],"id":5,"left_children":[1,3,5,-1,7,9,11,13,-1,15,17,19,21,23,25,-1,-1,27,-1,29,-1,-1,-1,-1,-1,-1,-1,-1,-1,-1,-1],"loss_changes":[3.6510082E1,1.0683914E1,2.3727531E0,0E0,7.640634E0,2.3175297E0,2.716267E0,3.4751544E0,0E0,4.0110636E0,2.2716465E0,1.2611704E0,2.006317E0,2.9962509E0,8.554102E-1,0E0,0E0,1.6623225E0,0E0,1.0896168E0,0E0,0E0,0E0,0E0,0E0,0E0,0E0,0E0,0E0,0E0,0E0],"parents":[2147483647,0,0,1,1,2,2,4,4,5,5,6,6,7,7,9,9,10,10,11,11,12,12,13,13,14,14,17,17,19,19],"right_children":[2,4,6,-1,8,10,12,14,-1,16,18,20,22,24,26,-1,-1,28,-1,30,-1,-1,-1,-1,-1,-1,-1,-1,-1,-1,-1],"split_conditions":[9.047849E-1,4E0,2.9478368E-1,-5.4574683E-2,6.303832E-1,-9.551608E1,4E0,4.1300598E-1,-4.8385397E-2,9.361702E-1,1.3E1,1.22E2,-8.366516E1,1.11E2,9.5E1,-1.4877728E-2,3.117563E-2,3.458894E-1,5.2224487E-2,1.9E1,-9.3309645E-4,1.2622603E-2,-2.1413079E-2,-1.4080781E-2,2.1755546E-2,2.867553E-2,3.8146038E-5,3.1088492E-2,-2.8659096E-3,3.7097532E-2,1.3257842E-2],"split_indices":[0,16,30,0,30,26,14,30,0,0,29,28,26,28,28,0,0,7,0,29,0,0,0,0,0,0,0,0,0,0,0],"split_type":[0,0,0,0,0,0,0,0,0,0,0,0,0,0,0,0,0,0,0,0,0,0,0,0,0,0,0,0,0,0,0],"sum_hessian":[1.2673639E2,6.945057E1,5.7285816E1,1.1288051E1,5.816252E1,2.9063148E1,2.8222668E1,5.075956E1,7.40296E0,1.0692702E1,1.8370447E1,1.9192772E1,9.029896E0,4.4022984E1,6.7365746E0,4.126798E0,6.565904E0,8.541224E0,9.829224E0,1.6166885E1,3.0258858E0,4.5512514E0,4.4786444E0,4.089466E1,3.1283252E0,3.7062223E0,3.0303526E0,5.5281253E0,3.0130985E0,7.132989E0,9.033896E0],"tree_param":{"num_deleted":"0","num_feature":"31","num_nodes":"31","size_leaf_vector":"1"}},{"base_weights":[-3.6590606E-2,-4.9595475E-1,4.9152917E-1,-5.4161265E-2,-2.953023E-1,1.9237964E-1,6.0503024E-1,-9.0136655E-2,-7.489544E-1,2.2509117E-2,-1.5306772E-1,1.0114492E0,2.8724346E-1,-3.400296E-1,8.1634796E-1,-1.3030487E-2,-3.6451537E-2,-1.9113025E-2,6.298162E-3,1.1698349E0,6.0790316E-3,-1.6887462E-2,4.7765252E-1,-2.383918E-2,-1.6318788E-3,-0E0,4.8795264E-2,5.6875624E-2,2.3096986E-2,2.542012E-2,-0E0],"categories":[],"categories_nodes":[],"categories_segments":[],"categories_sizes":[],"default_left":[0,0,0,0,0,0,0,0,0,0,0,0,0,0,0,0,0,0,0,0,0,0,0,0,0,0,0,0,0,0,0],"id":6,"left_children":[1,3,5,-1,7,9,11,13,15,-1,17,19,21,23,25,-1,-1,-1,-1,27,-1,-1,29,-1,-1,-1,-1,-1,-1,-1,-1],"loss_changes":[3.1106329E1,1.1252459E1,1.826808E0,0E0,5.1538396E0,2.4422362E0,5.066511E0,9.412856E0,7.790594E-1,0E0,1.116649E0,2.1549416E0,3.6350486E0,2.4065297E0,2.8789706E0,0E0,0E0,0E0,0E0,1.2251282E0,0E0,0E0,1.4886432E0,0E0,0E0,0E0,0E0,0E0,0E0,0E0,0E0],"parents":[2147483647,0,0,1,1,2,2,4,4,5,5,6,6,7,7,8,8,10,10,11,11,12,12,13,13,14,14,19,19,22,22],"right_children":[2,4,6,-1,8,10,12,14,16,-1,18,20,22,24,26,-1,-1,-1,-1,28,-1,-1,30,-1,-1,-1,-1,-1,-1,-1,-1],"split_conditions":[9.047849E-1,4E0,3.9E1,-5.4161265E-2,6.14E2,2.5E1,7.9E1,1E0,2E0,2.2509117E-2,3E1,-7.494277E1,8.8E1,1.3E1,3.402236E1,-1.3030487E-2,-3.6451537E-2,-1.9113025E-2,6.298162E-3,2.4E1,6.0790316E-3,-1.6887462E-2,4.13771E1,-2.383918E-2,-1.6318788E-3,-0E0,4.8795264E-2,5.6875624E-2,2.3096986E-2,2.542012E-2,-0E0],"split_indices":[0,16,28,0,6,28,28,4,27,0,28,26,28,29,25,0,0,0,0,29,0,0,25,0,0,0,0,0,0,0,0],"split_type":[0,0,0,0,0,0,0,0,0,0,0,0,0,0,0,0,0,0,0,0,0,0,0,0,0,0,0,0,0,0,0],"sum_hessian":[1.2621434E2,6.763498E1,5.857936E1,1.16344595E1,5.6000523E1,1.709606E1,4.14833E1,3.9538315E1,1.6462208E1,8.086817E0,9.009244E0,1.7107267E1,2.4376034E1,3.1570423E1,7.9678907E0,5.5684476E0,1.089376E1,4.297733E0,4.7115107E0,1.4042102E1,3.0651646E0,4.7893457E0,1.9586687E1,1.6301222E1,1.5269202E1,3.0171335E0,4.9507575E0,8.75015E0,5.291952E0,1.4315885E1,5.2708025E0],"tree_param":{"num_deleted":"0","num_feature":"31","num_nodes":"31","size_leaf_vector":"1"}},{"base_weights":[-2.2434767E-2,-4.6760768E-1,4.7643793E-1,-5.1754102E-2,-2.9118258E-1,1.0781134E-1,6.279751E-1,-5.185805E-1,1.3670693E-1,5.337669E-1,-1.9088477E-1,1.1250576E0,2.6124063E-1,-2.8021443E-1,-9.7271156E-1,-2.0292599E-2,3.9048555E-1,2.7307862E-2,8.43673E-3,-2.0666813E-2,1.2986294E-2,1.9753693E-2,5.0894193E-2,4.2440125E-1,-2.733661E-2,-2.0340588E-2,3.8373794E-2,-4.666474E-2,-1.108392E-2,2.6616957E-2,-1.0074134E-2,2.517267E-2,1.7120403E-3],"categories":[],"categories_nodes":[],"categories_segments":[],"categories_sizes":[],"default_left":[0,0,0,0,0,0,0,0,0,0,0,0,0,0,0,0,0,0,0,0,0,0,0,0,0,0,0,0,0,0,0,0,0],"id":7,"left_children":[1,3,5,-1,7,9,11,13,15,17,19,21,23,25,27,-1,29,-1,-1,-1,-1,-1,-1,31,-1,-1,-1,-1,-1,-1,-1,-1,-1],"loss_changes":[2.8455536E1,9.346724E0,3.2292776E0,0E0,5.679894E0,2.5507376E0,7.2897453E0,3.6881733E0,3.5380297E0,1.6206479E-1,2.161072E0,8.282795E-1,4.2399025E0,7.8862066E0,1.2108278E0,0E0,2.9262865E0,0E0,0E0,0E0,0E0,0E0,0E0,1.6811194E0,0E0,0E0,0E0,0E0,0E0,0E0,0E0,0E0,0E0],"parents":[2147483647,0,0,1,1,2,2,4,4,5,5,6,6,7,7,8,8,9,9,10,10,11,11,12,12,13,13,14,14,16,16,23,23],"right_children":[2,4,6,-1,8,10,12,14,16,18,20,22,24,26,28,-1,30,-1,-1,-1,-1,-1,-1,32,-1,-1,-1,-1,-1,-1,-1,-1,-1],"split_conditions":[9.047849E-1,4E0,3.9E1,-5.1754102E-2,2.2E1,-8.784644E1,7.9E1,6.14E2,5.185185E-1,2.1E1,-8.031744E1,9.361702E-1,1.0219378E1,5.4E1,1.4E1,-2.0292599E-2,8.049327E-1,2.7307862E-2,8.43673E-3,-2.0666813E-2,1.2986294E-2,1.9753693E-2,5.0894193E-2,-8.342591E1,-2.733661E-2,-2.0340588E-2,3.8373794E-2,-4.666474E-2,-1.108392E-2,2.6616957E-2,-1.0074134E-2,2.517267E-2,1.7120403E-3],"split_indices":[0,16,28,0,21,26,28,6,0,21,26,0,7,6,21,0,0,0,0,0,0,0,0,26,0,0,0,0,0,0,0,0,0],"split_type":[0,0,0,0,0,0,0,0,0,0,0,0,0,0,0,0,0,0,0,0,0,0,0,0,0,0,0,0,0,0,0,0,0],"sum_hessian":[1.2613007E2,6.679139E1,5.9338688E1,1.0538113E1,5.6253277E1,1.7977736E1,4.136095E1,3.674646E1,1.9506815E1,7.223897E0,1.0753839E1,1.65662E1,2.4794752E1,2.5302711E1,1.144375E1,5.120153E0,1.4386662E1,3.9687655E0,3.2551315E0,6.707171E0,4.046668E0,4.0863767E0,1.2479823E1,2.1702839E1,3.0919132E0,2.1933472E1,3.3692396E0,8.307197E0,3.1365538E0,1.0158354E1,4.2283072E0,1.3527501E1,8.175338E0],"tree_param":{"num_deleted":"0","num_feature":"31","num_nodes":"33","size_leaf_vector":"1"}},{"base_weights":[2.6834456E-3,-2.9005024E-1,6.194855E-1,-4.6897728E-2,-1.352715E-1,4.8850868E-2,4.18814E-1,-1.5380029E-3,-4.695961E-2,1.19479105E-1,6.9279957E-1,-1.19645715E-1,4.908451E-1,3.11277E-1,-2.0984517E-2,3.3053482E-1,9.8935056E-1,-1.39106E-2,4.3819E-3,-8.281459E-4,4.052217E-2,3.4910727E-3,2.9296925E-2,-1.5462276E-3,2.1693379E-2,1.6975634E-2,5.4780472E-2],"categories":[],"categories_nodes":[],"categories_segments":[],"categories_sizes":[],"default_left":[1,0,0,0,0,0,0,0,0,0,0,0,0,0,0,0,0,0,0,0,0,0,0,0,0,0,0],"id":8,"left_children":[1,3,5,-1,7,-1,9,11,-1,13,15,17,19,21,-1,23,25,-1,-1,-1,-1,-1,-1,-1,-1,-1,-1],"loss_changes":[2.2678257E1,1.1312538E1,4.2122355E0,0E0,1.0090413E1,0E0,2.4603744E0,3.8715084E0,0E0,2.201931E0,1.2947159E0,2.9041367E0,3.5501654E0,1.1367254E0,0E0,7.7520007E-1,1.0269318E0,0E0,0E0,0E0,0E0,0E0,0E0,0E0,0E0,0E0,0E0],"parents":[2147483647,0,0,1,1,2,2,4,4,6,6,7,7,9,9,10,10,11,11,12,12,13,13,15,15,16,16],"right_children":[2,4,6,-1,8,-1,10,12,-1,14,16,18,20,22,-1,24,26,-1,-1,-1,-1,-1,-1,-1,-1,-1,-1],"split_conditions":[9.361702E-1,4E0,1.9449353E-1,-4.6897728E-2,6.303832E-1,4.8850868E-2,3.73504E1,3.8792813E-1,-4.695961E-2,3.5850487E1,1.8E1,9.1088027E-1,1.9E1,3.3812057E1,-2.0984517E-2,3.4E1,4.8E1,-1.39106E-2,4.3819E-3,-8.281459E-4,4.052217E-2,3.4910727E-3,2.9296925E-2,-1.5462276E-3,2.1693379E-2,1.6975634E-2,5.4780472E-2],"split_indices":[5,16,30,0,30,0,25,30,0,25,21,5,21,25,0,28,28,0,0,0,0,0,0,0,0,0,0],"split_type":[0,0,0,0,0,0,0,0,0,0,0,0,0,0,0,0,0,0,0,0,0,0,0,0,0,0,0],"sum_hessian":[1.23422844E2,8.3948555E1,3.9474285E1,1.1450165E1,7.249839E1,8.474918E0,3.0999365E1,6.5201546E1,7.2968493E0,1.5675078E1,1.5324287E1,5.336178E1,1.1839765E1,1.2596166E1,3.0789127E0,8.001507E0,7.3227806E0,2.6702936E1,2.6658844E1,6.369324E0,5.4704404E0,9.16575E0,3.4304166E0,3.0428407E0,4.9586654E0,3.9025583E0,3.4202223E0],"tree_param":{"num_deleted":"0","num_feature":"31","num_nodes":"27","size_leaf_vector":"1"}},{"base_weights":[2.6511822E-3,-6.440575E-1,2.901884E-1,-4.89184E-2,-3.894087E-1,4.2812806E-1,-7.210339E-1,-5.166003E-1,8.720365E-3,5.198929E-1,-2.0179954E-1,-4.3134145E-2,-9.853449E-4,-2.7824107E-1,-7.1473706E-1,3.9455009E-1,4.6005473E-2,-2.625539E-2,6.5785376E-3,-2.3659367E-2,4.9469084E-3,-1.0826043E-2,-4.2341076E-2,3.007042E-4,2.0310389E-2],"categories":[],"categories_nodes":[],"categories_segments":[],"categories_sizes":[],"default_left":[0,0,0,0,0,0,0,0,0,0,0,0,0,0,0,0,0,0,0,0,0,0,0,0,0],"id":9,"left_children":[1,3,5,-1,7,9,11,13,-1,15,17,-1,-1,19,21,23,-1,-1,-1,-1,-1,-1,-1,-1,-1],"loss_changes":[2.303024E1,4.9747877E0,1.2270386E1,0E0,2.3078265E0,4.5507374E0,2.5018811E0,8.167596E-1,0E0,4.6899643E0,1.8706028E0,0E0,0E0,1.7040367E0,1.4164586E0,2.468339E0,0E0,0E0,0E0,0E0,0E0,0E0,0E0,0E0,0E0],"parents":[2147483647,0,0,1,1,2,2,4,4,5,5,6,6,7,7,9,9,10,10,13,13,14,14,15,15],"right_children":[2,4,6,-1,8,10,12,14,-1,16,18,-1,-1,20,22,24,-1,-1,-1,-1,-1,-1,-1,-1,-1],"split_conditions":[8.770556E-1,4E0,5.8023584E-1,-4.89184E-2,-7.981422E1,1.1661E2,3E0,-8.812568E1,8.720365E-3,1.223406E1,3E0,-4.3134145E-2,-9.853449E-4,6.7E1,3.991917E1,3E1,4.6005473E-2,-2.625539E-2,6.5785376E-3,-2.3659367E-2,4.9469084E-3,-1.0826043E-2,-4.2341076E-2,3.007042E-4,2.0310389E-2],"split_indices":[5,16,30,0,26,7,22,26,0,7,22,0,0,28,25,28,0,0,0,0,0,0,0,0,0],"split_type":[0,0,0,0,0,0,0,0,0,0,0,0,0,0,0,0,0,0,0,0,0,0,0,0,0],"sum_hessian":[1.2203512E2,3.7070663E1,8.4964455E1,1.00434E1,2.7027266E1,7.536017E1,9.60428E0,2.260747E1,4.419797E0,6.6068985E1,9.291186E0,5.8900566E0,3.7142243E0,1.1582574E1,1.1024895E1,5.6597565E1,9.471418E0,3.9141169E0,5.377069E0,6.38409E0,5.1984844E0,5.71751E0,5.3073845E0,1.3249825E1,4.334774E1],"tree_param":{"num_deleted":"0","num_feature":"31","num_nodes":"25","size_leaf_vector":"1"}},{"base_weights":[-1.4130439E-3,-2.9224962E-1,5.355035E-1,-4.5863535E-2,-1.426563E-1,9.513575E-1,2.636039E-1,3.207849E-2,-6.770418E-1,1.1615425E-2,1.0701562E0,-1.9490363E-2,4.2171162E-1,-1.5659893E-1,9.7167844E-1,-4.1886672E-2,-2.3792006E-1,4.8818186E-2,2.0503286E-2,6.409062E-1,7.0158415E-2,-1.9320624E-2,-5.057423E-4,5.273423E-2,8.146173E-3,-2.1854311E-2,6.59434E-3,7.279039E-3,4.6716075E-2,-1.8150901E-2,2.1648709E-2],"categories":[],"categories_nodes":[],"categories_segments":[],"categories_sizes":[],"default_left":[0,0,0,0,0,0,0,0,0,0,0,0,0,0,0,0,0,0,0,0,0,0,0,0,0,0,0,0,0,0,0],"id":10,"left_children":[1,3,5,-1,7,9,11,13,15,-1,17,-1,19,21,23,-1,25,-1,-1,27,29,-1,-1,-1,-1,-1,-1,-1,-1,-1,-1],"loss_changes":[1.9302332E1,9.982589E0,4.531147E0,0E0,6.590718E0,8.5790825E-1,3.4933577E0,9.684247E0,2.4424205E0,0E0,3.394699E-1,0E0,1.700151E0,2.0666707E0,2.013421E0,0E0,1.2902184E0,0E0,0E0,3.0915203E0,2.8087177E0,0E0,0E0,0E0,0E0,0E0,0E0,0E0,0E0,0E0,0E0],"parents":[2147483647,0,0,1,1,2,2,4,4,5,5,6,6,7,7,8,8,10,10,12,12,13,13,14,14,16,16,19,19,20,20],"right_children":[2,4,6,-1,8,10,12,14,16,-1,18,-1,20,22,24,-1,26,-1,-1,28,30,-1,-1,-1,-1,-1,-1,-1,-1,-1,-1],"split_conditions":[4E0,4E0,2.6994225E-1,-4.5863535E-2,1.4168E2,3.155022E1,9E0,5.4E1,1.4E1,1.1615425E-2,-7.892178E1,-1.9490363E-2,-8.342591E1,1E0,1.02E2,-4.1886672E-2,-9.537263E1,4.8818186E-2,2.0503286E-2,1.8E1,-8.018383E1,-1.9320624E-2,-5.057423E-4,5.273423E-2,8.146173E-3,-2.1854311E-2,6.59434E-3,7.279039E-3,4.6716075E-2,-1.8150901E-2,2.1648709E-2],"split_indices":[1,16,30,0,7,25,21,6,21,0,26,0,26,1,28,0,26,0,0,21,26,0,0,0,0,0,0,0,0,0,0],"split_type":[0,0,0,0,0,0,0,0,0,0,0,0,0,0,0,0,0,0,0,0,0,0,0,0,0,0,0,0,0,0,0],"sum_hessian":[1.21763664E2,7.9397575E1,4.236608E1,1.0738129E1,6.865945E1,1.5615861E1,2.6750221E1,5.2308365E1,1.6351086E1,3.0320826E0,1.2583778E1,4.1808443E0,2.2569378E1,4.416639E1,8.141975E0,7.9976506E0,8.353435E0,8.834228E0,3.7495513E0,1.3219471E1,9.349907E0,1.2583503E1,3.1582886E1,5.0263696E0,3.1156058E0,4.669473E0,3.6839619E0,7.8865714E0,5.3328996E0,4.3434067E0,5.0065E0],"tree_param":{"num_deleted":"0","num_feature":"31","num_nodes":"31","size_leaf_vector":"1"}},{"base_weights":[4.6816957E-3,-3.4838367E-1,3.947519E-1,-4.5814775E-2,-1.8156637E-1,6.812771E-1,1.7182751E-1,-4.228381E-2,-4.5154314E-2,-9.8944816E-5,7.833498E-1,-1.5562286E-2,2.7944395E-1,3.3330077E-1,-2.5931558E-1,4.5170316E-1,1.0041519E0,1.0457599E-1,3.5566144E-2,5.401443E-2,-1.1137571E-2,-1.5211759E-2,1.1255827E-2,2.7624687E-2,-1.8191074E-3,1.7777786E-2,4.6600774E-2,1.106057E-2,-1.9063907E-2],"categories":[],"categories_nodes":[],"categories_segments":[],"categories_sizes":[],"default_left":[0,0,0,0,0,0,0,0,0,0,0,0,0,0,0,0,0,0,0,0,0,0,0,0,0,0,0,0,0],"id":11,"left_children":[1,3,5,-1,7,9,11,13,-1,-1,15,-1,17,19,21,23,25,27,-1,-1,-1,-1,-1,-1,-1,-1,-1,-1,-1],"loss_changes":[1.6998674E1,8.253619E0,3.5504694E0,0E0,7.0584173E0,1.8371229E0,2.184915E0,4.061747E0,0E0,0E0,1.0145159E0,0E0,2.9788399E0,1.1783425E1,2.1903408E0,1.3795073E0,4.224577E-1,2.5474591E0,0E0,0E0,0E0,0E0,0E0,0E0,0E0,0E0,0E0,0E0,0E0],"parents":[2147483647,0,0,1,1,2,2,4,4,5,5,6,6,7,7,10,10,12,12,13,13,14,14,15,15,16,16,17,17],"right_children":[2,4,6,-1,8,10,12,14,-1,-1,16,-1,18,20,22,24,26,28,-1,-1,-1,-1,-1,-1,-1,-1,-1,-1,-1],"split_conditions":[9.047849E-1,4E0,2.6994225E-1,-4.5814775E-2,6.3611215E-1,9.279869E-1,9E0,1E0,-4.5154314E-2,-9.8944816E-5,1.3E1,-1.5562286E-2,4.5960647E-1,5.09E2,3.8228038E-1,7.9E1,-9.656595E1,5.5E1,3.5566144E-2,5.401443E-2,-1.1137571E-2,-1.5211759E-2,1.1255827E-2,2.7624687E-2,-1.8191074E-3,1.7777786E-2,4.6600774E-2,1.106057E-2,-1.9063907E-2],"split_indices":[0,16,30,0,30,0,21,3,0,0,29,0,7,6,30,6,26,6,0,0,0,0,0,0,0,0,0,0,0],"split_type":[0,0,0,0,0,0,0,0,0,0,0,0,0,0,0,0,0,0,0,0,0,0,0,0,0,0,0,0,0],"sum_hessian":[1.21396736E2,6.3642406E1,5.775433E1,9.896318E0,5.374609E1,2.4176085E1,3.3578247E1,4.7859406E1,5.886684E0,3.1397865E0,2.1036297E1,4.8348913E0,2.8743355E1,1.7162441E1,3.0696964E1,9.806093E0,1.1230205E1,2.3374853E1,5.368501E0,6.05374E0,1.1108701E1,2.5478125E1,5.21884E0,6.496398E0,3.3096952E0,3.4859476E0,7.7442565E0,1.8575603E1,4.7992496E0],"tree_param":{"num_deleted":"0","num_feature":"31","num_nodes":"29","size_leaf_vector":"1"}},{"base_weights":[1.717316E-2,-3.7567002E-1,4.860032E-1,-4.7171105E-2,-2.714689E-1,-4.655868E-3,6.643368E-1,-9.900966E-2,-6.8267614E-1,2.3493367E-1,-1.8875998E-2,7.999344E-1,-6.113006E-3,-3.4635293E-1,9.6393806E-1,-4.0044036E-2,-2.3861745E-1,2.9041445E-2,-7.4887075E-3,9.9435705E-1,3.4132162E-1,-2.5969617E-2,-7.1478128E-3,1.3852776E-2,4.8737574E-2,-1.7849129E-2,2.0170556E-3,2.4409771E-2,4.8657496E-2,8.07344E-4,3.5177007E-2],"categories":[],"categories_nodes":[],"categories_segments":[],"categories_sizes":[],"default_left":[0,0,0,0,0,0,0,0,0,0,0,0,0,0,0,0,0,0,0,0,0,0,0,0,0,0,0,0,0,0,0],"id":12,"left_children":[1,3,5,-1,7,9,11,13,15,17,-1,19,-1,21,23,-1,25,-1,-1,27,29,-1,-1,-1,-1,-1,-1,-1,-1,-1,-1],"loss_changes":[2.2784086E1,5.1606035E0,5.0104246E0,0E0,4.1717806E0,1.9142178E0,4.7936554E0,1.1901758E1,2.1325903E0,2.4775593E0,0E0,2.730112E0,0E0,1.6646547E0,7.636008E-1,0E0,5.910132E-1,0E0,0E0,1.1694088E0,2.0300465E0,0E0,0E0,0E0,0E0,0E0,0E0,0E0,0E0,0E0,0E0],"parents":[2147483647,0,0,1,1,2,2,4,4,5,5,6,6,7,7,8,8,9,9,11,11,13,13,14,14,16,16,19,19,20,20],"right_children":[2,4,6,-1,8,10,12,14,16,18,-1,20,-1,22,24,-1,26,-1,-1,28,30,-1,-1,-1,-1,-1,-1,-1,-1,-1,-1],"split_conditions":[9.047849E-1,1E0,3.2E1,-4.7171105E-2,1.4168E2,9.952618E-1,4.8344526E-1,1E0,3E0,2E1,-1.8875998E-2,4.072791E1,-6.113006E-3,3E0,3.5052982E1,-4.0044036E-2,4.8162E2,2.9041445E-2,-7.4887075E-3,3.386212E1,4.3040466E1,-2.5969617E-2,-7.1478128E-3,1.3852776E-2,4.8737574E-2,-1.7849129E-2,2.0170556E-3,2.4409771E-2,4.8657496E-2,8.07344E-4,3.5177007E-2],"split_indices":[0,20,28,0,7,0,30,4,22,28,0,25,0,14,25,0,7,0,0,25,25,0,0,0,0,0,0,0,0,0,0],"split_type":[0,0,0,0,0,0,0,0,0,0,0,0,0,0,0,0,0,0,0,0,0,0,0,0,0,0,0,0,0,0,0],"sum_hessian":[1.21656555E2,6.6184494E1,5.547206E1,6.3024526E0,5.9882042E1,1.489734E1,4.057472E1,4.3233845E1,1.6648195E1,1.0034899E1,4.86244E0,3.492313E1,5.6515903E0,3.569582E1,7.5380254E0,8.833941E0,7.814254E0,4.4153786E0,5.61952E0,2.3552244E1,1.1370886E1,1.1482625E1,2.4213196E1,3.003323E0,4.5347023E0,4.4326124E0,3.3816411E0,1.0166424E1,1.338582E1,7.88719E0,3.4836962E0],"tree_param":{"num_deleted":"0","num_feature":"31","num_nodes":"31","size_leaf_vector":"1"}},{"base_weights":[-4.2274196E-2,-3.9541698E-1,3.5741368E-1,-4.249747E-2,-2.610256E-1,4.2516318E-1,-1.0861796E-2,-4.7509257E-2,-7.1956295E-1,9.230677E-3,5.482452E-1,-2.7753472E-1,8.378016E-1,-4.3517213E-2,-2.7175653E-1,3.5205457E-1,-2.3898356E-2,1.1554068E-1,7.1639526E-1,-1.3624252E-2,5.8782366E-3,6.0260133E-3,4.6977535E-2,-2.38657E-2,-6.2762527E-4,-3.2403592E-3,2.8555583E-2,2.000961E-2,-1.4173415E-2,3.267475E-2,8.800843E-3],"categories":[],"categories_nodes":[],"categories_segments":[],"categories_sizes":[],"default_left":[0,0,0,0,0,0,0,0,0,0,0,0,0,0,0,0,0,0,0,0,0,0,0,0,0,0,0,0,0,0,0],"id":13,"left_children":[1,3,5,-1,7,9,-1,11,13,15,17,19,21,-1,23,25,-1,27,29,-1,-1,-1,-1,-1,-1,-1,-1,-1,-1,-1,-1],"loss_changes":[1.773746E1,5.5765896E0,2.638877E0,0E0,5.472816E0,2.6866798E0,0E0,8.349107E0,2.521101E0,2.984819E0,2.8324986E0,9.4479704E-1,1.6419611E0,0E0,7.2258765E-1,1.5836198E0,0E0,2.522146E0,1.1787987E0,0E0,0E0,0E0,0E0,0E0,0E0,0E0,0E0,0E0,0E0,0E0,0E0],"parents":[2147483647,0,0,1,1,2,2,4,4,5,5,7,7,8,8,9,9,10,10,11,11,12,12,14,14,15,15,17,17,18,18],"right_children":[2,4,6,-1,8,10,-1,12,14,16,18,20,22,-1,24,26,-1,28,30,-1,-1,-1,-1,-1,-1,-1,-1,-1,-1,-1,-1],"split_conditions":[9.047849E-1,4E0,5.4936963E-1,-4.249747E-2,5.09E2,3E1,-1.0861796E-2,1E0,1.4E1,9.952618E-1,9.756489E-1,1.1E2,3.4642864E1,-4.3517213E-2,3.3978474E1,3.7626614E1,-2.3898356E-2,2.1E1,4.233558E1,-1.3624252E-2,5.8782366E-3,6.0260133E-3,4.6977535E-2,-2.38657E-2,-6.2762527E-4,-3.2403592E-3,2.8555583E-2,2.000961E-2,-1.4173415E-2,3.267475E-2,8.800843E-3],"split_indices":[0,16,30,0,6,28,0,4,21,0,0,28,25,0,25,25,0,29,25,0,0,0,0,0,0,0,0,0,0,0,0],"split_type":[0,0,0,0,0,0,0,0,0,0,0,0,0,0,0,0,0,0,0,0,0,0,0,0,0,0,0,0,0,0,0],"sum_hessian":[1.2363847E2,6.577983E1,5.785865E1,9.748049E0,5.603178E1,5.2668385E1,5.190264E0,3.913186E1,1.689992E1,1.245763E1,4.0210754E1,3.1695942E1,7.4359174E0,8.365582E0,8.534337E0,8.333267E0,4.124363E0,1.1891615E1,2.831914E1,2.7972872E1,3.7230704E0,3.0186822E0,4.417235E0,3.0033057E0,5.5310316E0,4.0207567E0,4.31251E0,6.6199183E0,5.271697E0,2.2847363E1,5.4717774E0],"tree_param":{"num_deleted":"0","num_feature":"31","num_nodes":"31","size_leaf_vector":"1"}},{"base_weights":[-4.479286E-3,-2.6323304E-1,5.3605753E-1,-1.7101352E-1,-4.4775233E-2,8.012551E-1,2.6820093E-1,-4.8705927E-1,9.946792E-2,8.362432E-3,9.7511363E-1,-2.6613328E-1,5.1401955E-1,-4.1497093E-2,-3.5957122E-1,-2.3108026E-1,3.21152E-1,4.464875E-2,1.3206659E-2,-7.786804E-4,-1.667726E-2,3.4441404E-2,3.0964297E-1,-1.69638E-2,5.441452E-3,1.4085881E-2,-1.619955E-2,2.5336735E-2,5.024161E-3,-0E0,1.8366486E-2],"categories":[],"categories_nodes":[],"categories_segments":[],"categories_sizes":[],"default_left":[1,0,0,0,0,0,0,0,0,0,0,0,0,0,0,0,0,0,0,0,0,0,0,0,0,0,0,0,0,0,0],"id":14,"left_children":[1,3,5,7,-1,9,11,13,15,-1,17,19,21,-1,23,25,27,-1,-1,-1,-1,-1,29,-1,-1,-1,-1,-1,-1,-1,-1],"loss_changes":[1.729691E1,6.302019E0,2.5178232E0,6.6701736E0,0E0,1.6747799E0,2.9959538E0,2.0028934E0,3.1722188E0,0E0,8.146982E-1,2.2089583E-1,6.977978E-1,0E0,1.0710421E0,1.9049239E0,1.4219253E0,0E0,0E0,0E0,0E0,0E0,5.080056E-1,0E0,0E0,0E0,0E0,0E0,0E0,0E0,0E0],"parents":[2147483647,0,0,1,1,2,2,3,3,5,5,6,6,7,7,8,8,10,10,11,11,12,12,14,14,15,15,16,16,22,22],"right_children":[2,4,6,8,-1,10,12,14,16,-1,18,20,22,-1,24,26,28,-1,-1,-1,-1,-1,30,-1,-1,-1,-1,-1,-1,-1,-1],"split_conditions":[9.361702E-1,6.3611215E-1,2.881752E-1,8.770556E-1,-4.4775233E-2,4.8E1,3.1674662E-1,1E0,1.6E1,8.362432E-3,9.3E1,1.9E1,1.4E1,-4.1497093E-2,4.1059747E-1,7E0,2E0,4.464875E-2,1.3206659E-2,-7.786804E-4,-1.667726E-2,3.4441404E-2,2.7E1,-1.69638E-2,5.441452E-3,1.4085881E-2,-1.619955E-2,2.5336735E-2,5.024161E-3,-0E0,1.8366486E-2],"split_indices":[5,30,30,5,0,28,30,20,21,0,28,29,21,0,30,29,27,0,0,0,0,0,28,0,0,0,0,0,0,0,0],"split_type":[0,0,0,0,0,0,0,0,0,0,0,0,0,0,0,0,0,0,0,0,0,0,0,0,0,0,0,0,0,0,0],"sum_hessian":[1.2185396E2,8.287831E1,3.8975643E1,7.600773E1,6.8705835E0,1.8396788E1,2.0578857E1,3.485278E1,4.115495E1,4.8056183E0,1.3591168E1,6.3299794E0,1.42488785E1,5.0650473E0,2.9787731E1,1.6322844E1,2.4832108E1,1.0424642E1,3.166527E0,3.081571E0,3.2484086E0,3.909157E0,1.0339722E1,2.6662563E1,3.1251676E0,3.3817477E0,1.2941096E1,8.503102E0,1.6329004E1,3.773222E0,6.566499E0],"tree_param":{"num_deleted":"0","num_feature":"31","num_nodes":"31","size_leaf_vector":"1"}},{"base_weights":[3.9137293E-2,-2.9990005E-1,4.1096687E-1,-3.9784875E-2,-1.702395E-1,5.978197E-1,1.5637259E-1,-4.4515815E-2,-3.9600752E-2,7.440733E-1,-2.1587707E-2,3.0853304E-1,-2.4782907E-2,-4.7741702E-1,1.2549692E-1,3.1941772E-1,9.034582E-1,-1.6374845E-2,5.403015E-1,-9.961013E-3,-3.1382196E-2,1.2644084E-2,-1.4090224E-2,-1.2893589E-2,2.7094001E-2,3.8943604E-2,1.635212E-2,3.061532E-2,1.3615167E-3],"categories":[],"categories_nodes":[],"categories_segments":[],"categories_sizes":[],"default_left":[0,0,0,0,0,0,0,0,0,0,0,0,0,0,0,0,0,0,0,0,0,0,0,0,0,0,0,0,0],"id":15,"left_children":[1,3,5,-1,7,9,11,13,-1,15,-1,17,-1,19,21,23,25,-1,27,-1,-1,-1,-1,-1,-1,-1,-1,-1,-1],"loss_changes":[1.521949E1,5.391686E0,2.5728302E0,0E0,5.463699E0,5.855191E0,3.226945E0,3.6540983E0,0E0,1.5814629E0,0E0,3.9767098E0,0E0,6.840296E-1,3.3264904E0,2.4937422E0,1.8132591E-1,0E0,1.8926287E0,0E0,0E0,0E0,0E0,0E0,0E0,0E0,0E0,0E0,0E0],"parents":[2147483647,0,0,1,1,2,2,4,4,5,5,6,6,7,7,9,9,11,11,13,13,14,14,15,15,16,16,18,18],"right_children":[2,4,6,-1,8,10,12,14,-1,16,-1,18,-1,20,22,24,26,-1,28,-1,-1,-1,-1,-1,-1,-1,-1,-1,-1],"split_conditions":[9.047849E-1,4E0,-8.419014E1,-3.9784875E-2,6.303832E-1,5.8023584E-1,3.2E1,5.185185E-1,-3.9600752E-2,-1.1716019E2,-2.1587707E-2,-8.270863E1,-2.4782907E-2,3.97723E1,9.14E2,9.5364237E-1,1.3549963E0,-1.6374845E-2,4E0,-9.961013E-3,-3.1382196E-2,1.2644084E-2,-1.4090224E-2,-1.2893589E-2,2.7094001E-2,3.8943604E-2,1.635212E-2,3.061532E-2,1.3615167E-3],"split_indices":[0,16,26,0,30,30,21,0,0,26,0,26,0,25,6,0,7,0,14,0,0,0,0,0,0,0,0,0,0],"split_type":[0,0,0,0,0,0,0,0,0,0,0,0,0,0,0,0,0,0,0,0,0,0,0,0,0,0,0,0,0],"sum_hessian":[1.1866239E2,6.2028652E1,5.663374E1,8.585468E0,5.3443184E1,3.1658157E1,2.4975584E1,4.7356712E1,6.0864725E0,2.8435858E1,3.2223003E0,2.149227E1,3.4833145E0,1.3009883E1,3.434683E1,8.751191E0,1.9684666E1,4.952893E0,1.6539377E1,8.686712E0,4.323171E0,2.494313E1,9.403697E0,3.0688784E0,5.6823125E0,1.6215288E1,3.469378E0,1.0958116E1,5.5812607E0],"tree_param":{"num_deleted":"0","num_feature":"31","num_nodes":"29","size_leaf_vector":"1"}},{"base_weights":[-4.8393197E-2,-3.3390817E-1,4.2952162E-1,-4.287519E-2,-1.9284701E-1,7.644371E-1,2.4088527E-1,-8.576309E-2,-4.1701674E-2,3.7851457E-2,7.7993996E-3,-2.050318E-2,7.254374E-1,-5.6612206E-1,2.2425765E-2,-3.6080533E-1,2.2643885E-1,4.7184985E-2,1.0468003E-2,-1.3268828E-2,-3.3088237E-2,8.590564E-3,-1.8179229E-2,-0E0,-2.745649E-2,2.5893547E-2,-9.650981E-3],"categories":[],"categories_nodes":[],"categories_segments":[],"categories_sizes":[],"default_left":[1,0,0,0,0,0,0,0,0,0,0,0,0,0,0,0,0,0,0,0,0,0,0,0,0,0,0],"id":16,"left_children":[1,3,5,-1,7,9,11,13,-1,-1,-1,15,17,19,21,23,25,-1,-1,-1,-1,-1,-1,-1,-1,-1,-1],"loss_changes":[1.6748957E1,7.674114E0,2.6117096E0,0E0,5.7947726E0,1.3444653E0,4.008968E0,3.1710446E0,0E0,0E0,0E0,1.8566368E0,1.867559E0,2.9434657E-1,4.6177855E0,1.0343293E0,2.6754851E0,0E0,0E0,0E0,0E0,0E0,0E0,0E0,0E0,0E0,0E0],"parents":[2147483647,0,0,1,1,2,2,4,4,5,5,6,6,7,7,11,11,12,12,13,13,14,14,15,15,16,16],"right_children":[2,4,6,-1,8,10,12,14,-1,-1,-1,16,18,20,22,24,26,-1,-1,-1,-1,-1,-1,-1,-1,-1,-1],"split_conditions":[9.359643E-1,4E0,2.2719567E-1,-4.287519E-2,6.3611215E-1,4.184343E1,3.785888E-1,1E0,-4.1701674E-2,3.7851457E-2,7.7993996E-3,-9.3096245E1,-8.766495E1,-8.07396E1,6.55E2,-9.947454E1,9.952618E-1,4.7184985E-2,1.0468003E-2,-1.3268828E-2,-3.3088237E-2,8.590564E-3,-1.8179229E-2,-0E0,-2.745649E-2,2.5893547E-2,-9.650981E-3],"split_indices":[5,16,30,0,30,25,30,10,0,0,0,26,26,26,6,26,0,0,0,0,0,0,0,0,0,0,0],"split_type":[0,0,0,0,0,0,0,0,0,0,0,0,0,0,0,0,0,0,0,0,0,0,0,0,0,0,0],"sum_hessian":[1.20765274E2,7.5919914E1,4.4845364E1,1.1010435E1,6.490948E1,1.486704E1,2.9978327E1,5.8726955E1,6.1825194E0,1.0633858E1,4.2331824E0,1.9961523E1,1.0016803E1,1.0187224E1,4.853973E1,8.370412E0,1.1591111E1,4.1716685E0,5.845134E0,6.7661443E0,3.4210799E0,3.5130726E1,1.3409007E1,4.5861225E0,3.7842894E0,6.011268E0,5.579843E0],"tree_param":{"num_deleted":"0","num_feature":"31","num_nodes":"27","size_leaf_vector":"1"}},{"base_weights":[-2.3408161E-2,-3.2611406E-1,3.4357485E-1,-3.873554E-2,-2.0559439E-1,6.2661713E-1,1.3242158E-1,-7.201217E-2,-3.9745286E-2,3.1937492E-1,8.314245E-1,3.308148E-1,-7.760923E-2,-3.119491E-2,1.38859935E-2,7.223165E-1,-1.4423762E-2,6.390494E-3,4.3310303E-2,2.1563701E-2,3.283835E-2,-3.7454134E-1,1.9532437E-2,7.4654105E-3,-1.7661577E-2,3.8776524E-2,1.0427892E-2,1.9114349E-2,-8.306085E-3,1.3383754E-3,-2.4260633E-2],"categories":[],"categories_nodes":[],"categories_segments":[],"categories_sizes":[],"default_left":[0,0,0,0,0,0,0,0,0,0,0,0,0,0,0,0,0,0,0,0,0,0,0,0,0,0,0,0,0,0,0],"id":17,"left_children":[1,3,5,-1,7,9,11,13,-1,15,17,19,21,-1,23,25,-1,-1,-1,27,-1,29,-1,-1,-1,-1,-1,-1,-1,-1,-1],"loss_changes":[1.3580768E1,4.87838E0,3.137064E0,0E0,5.9177933E0,1.0724983E0,1.4283733E0,3.1702957E0,0E0,3.3257098E0,1.9035769E0,2.5405786E0,2.964663E0,0E0,3.6815665E0,4.646001E-1,0E0,0E0,0E0,1.3647348E0,0E0,1.1739446E0,0E0,0E0,0E0,0E0,0E0,0E0,0E0,0E0,0E0],"parents":[2147483647,0,0,1,1,2,2,4,4,5,5,6,6,7,7,9,9,10,10,11,11,12,12,14,14,15,15,19,19,21,21],"right_children":[2,4,6,-1,8,10,12,14,-1,16,18,20,22,-1,24,26,-1,-1,-1,28,-1,30,-1,-1,-1,-1,-1,-1,-1,-1,-1],"split_conditions":[9.233926E-1,4E0,2.6994225E-1,-3.873554E-2,6.303832E-1,1.3E1,7.3E1,1E0,-3.9745286E-2,7E0,9.361702E-1,3.9E1,1.11E2,-3.119491E-2,6.14E2,1.9449353E-1,-1.4423762E-2,6.390494E-3,4.3310303E-2,-9.1676834E1,3.283835E-2,1.5E1,1.9532437E-2,7.4654105E-3,-1.7661577E-2,3.8776524E-2,1.0427892E-2,1.9114349E-2,-8.306085E-3,1.3383754E-3,-2.4260633E-2],"split_indices":[0,16,30,0,30,29,28,8,0,29,0,28,28,0,6,30,0,0,0,26,0,29,0,0,0,0,0,0,0,0,0],"split_type":[0,0,0,0,0,0,0,0,0,0,0,0,0,0,0,0,0,0,0,0,0,0,0,0,0,0,0,0,0,0,0],"sum_hessian":[1.2025953E2,6.6111404E1,5.414813E1,9.202818E0,5.6908585E1,2.2092651E1,3.2055473E1,4.9701794E1,7.2067947E0,1.005551E1,1.2037142E1,1.6433542E1,1.5621933E1,4.630271E0,4.507152E1,6.367181E0,3.6883292E0,3.8314693E0,8.205672E0,1.0841334E1,5.592208E0,1.0583672E1,5.038261E0,3.3263847E1,1.1807674E1,3.2896388E0,3.077542E0,3.4082065E0,7.433128E0,3.9902437E0,6.593428E0],"tree_param":{"num_deleted":"0","num_feature":"31","num_nodes":"31","size_leaf_vector":"1"}},{"base_weights":[-7.622996E-3,-2.4994199E-1,3.9262736E-1,-3.817811E-2,-1.3883355E-1,7.0725757E-1,2.0533787E-1,-3.1793397E-2,-3.6847565E-2,3.4161666E-1,3.8319767E-2,-8.148433E-2,4.9659577E-1,-1.4023896E-1,4.7644728E-1,2.43459E-2,-0E0,-3.1839785E-1,1.53503865E-2,3.609542E-2,2.8181133E-1,-2.0641413E-2,-6.5862713E-4,3.9354168E-2,3.7812921E-3,-2.320827E-2,-3.975705E-4,-1.0691519E-3,3.4181964E-2],"categories":[],"categories_nodes":[],"categories_segments":[],"categories_sizes":[],"default_left":[1,0,0,0,0,0,0,0,0,0,0,0,0,0,0,0,0,0,0,0,0,0,0,0,0,0,0,0,0],"id":18,"left_children":[1,3,5,-1,7,9,11,13,-1,15,-1,17,19,21,23,-1,-1,25,-1,-1,27,-1,-1,-1,-1,-1,-1,-1,-1],"loss_changes":[1.1787402E1,5.7017884E0,2.4587731E0,0E0,5.4761543E0,1.0517254E0,2.6115441E0,3.3390155E0,0E0,7.628739E-1,0E0,1.8728462E0,9.6407795E-1,2.2809625E0,1.855742E0,0E0,0E0,8.439113E-1,0E0,0E0,2.163359E0,0E0,0E0,0E0,0E0,0E0,0E0,0E0,0E0],"parents":[2147483647,0,0,1,1,2,2,4,4,5,5,6,6,7,7,9,9,11,11,12,12,13,13,14,14,17,17,20,20],"right_children":[2,4,6,-1,8,10,12,14,-1,16,-1,18,20,22,24,-1,-1,26,-1,-1,28,-1,-1,-1,-1,-1,-1,-1,-1],"split_conditions":[9.359643E-1,4E0,2.433247E-1,-3.817811E-2,6.303832E-1,1.3E1,3.7442543E1,3.9504918E-1,-3.6847565E-2,-8.632548E1,3.8319767E-2,3.785888E-1,1.3E1,5.185185E-1,4.584605E-1,2.43459E-2,-0E0,-9.6255585E1,1.53503865E-2,3.609542E-2,2.8E1,-2.0641413E-2,-6.5862713E-4,3.9354168E-2,3.7812921E-3,-2.320827E-2,-3.975705E-4,-1.0691519E-3,3.4181964E-2],"split_indices":[5,16,30,0,30,29,25,30,0,26,0,30,29,5,30,0,0,26,0,0,29,0,0,0,0,0,0,0,0],"split_type":[0,0,0,0,0,0,0,0,0,0,0,0,0,0,0,0,0,0,0,0,0,0,0,0,0,0,0,0,0],"sum_hessian":[1.1966962E2,7.493062E1,4.4739006E1,9.05089E0,6.587972E1,1.54590025E1,2.9280005E1,5.897883E1,6.900895E0,7.41184E0,8.047162E0,1.494223E1,1.4337773E1,4.9366177E1,9.612652E0,3.7092547E0,3.7025852E0,1.0252157E1,4.6900735E0,3.6932404E0,1.0644533E1,1.1245582E1,3.8120598E1,3.3388097E0,6.2738423E0,4.893524E0,5.358633E0,7.4239187E0,3.2206147E0],"tree_param":{"num_deleted":"0","num_feature":"31","num_nodes":"29","size_leaf_vector":"1"}},{"base_weights":[-3.6423672E-2,-5.141966E-1,1.7115119E-1,-3.9723624E-2,-3.111625E-1,3.3252284E-1,-5.496709E-1,-4.432304E-1,1.1414941E-2,2.1436366E-1,9.229117E-1,-3.4524236E-2,4.5608473E-3,-1.1379162E-1,-6.5875787E-1,3.559278E-1,-0E0,5.0364032E-2,8.428819E-3,-1.732955E-2,8.055649E-3,-1.3605232E-2,-3.6953013E-2,7.904404E-3,5.2097104E-2,1.3753504E-2,-1.0719803E-2],"categories":[],"categories_nodes":[],"categories_segments":[],"categories_sizes":[],"default_left":[0,0,0,0,0,0,0,0,0,0,0,0,0,0,0,0,0,0,0,0,0,0,0,0,0,0,0],"id":19,"left_children":[1,3,5,-1,7,9,11,13,-1,15,17,-1,-1,19,21,23,25,-1,-1,-1,-1,-1,-1,-1,-1,-1,-1],"loss_changes":[1.2103481E1,3.1567793E0,1.0027816E1,0E0,2.3148708E0,4.5747194E0,3.4558744E0,1.4884658E0,0E0,1.8420198E0,2.2782059E0,0E0,0E0,1.1707326E0,7.0600414E-1,5.0221815E0,2.3507352E0,0E0,0E0,0E0,0E0,0E0,0E0,0E0,0E0,0E0,0E0],"parents":[2147483647,0,0,1,1,2,2,4,4,5,5,6,6,7,7,9,9,10,10,13,13,14,14,15,15,16,16],"right_children":[2,4,6,-1,8,10,12,14,-1,16,18,-1,-1,20,22,24,26,-1,-1,-1,-1,-1,-1,-1,-1,-1,-1],"split_conditions":[8.770556E-1,4E0,1.4168E2,-3.9723624E-2,-7.981422E1,1.223406E1,1.9E1,-9.246428E1,1.1414941E-2,-8.316359E1,9.9E1,-3.4524236E-2,4.5608473E-3,6.7E1,3.97723E1,2.7E1,2.958065E-1,5.0364032E-2,8.428819E-3,-1.732955E-2,8.055649E-3,-1.3605232E-2,-3.6953013E-2,7.904404E-3,5.2097104E-2,1.3753504E-2,-1.0719803E-2],"split_indices":[5,16,7,0,26,7,21,26,0,26,28,0,0,28,25,21,30,0,0,0,0,0,0,0,0,0,0],"split_type":[0,0,0,0,0,0,0,0,0,0,0,0,0,0,0,0,0,0,0,0,0,0,0,0,0,0,0],"sum_hessian":[1.1981004E2,3.5986008E1,8.3824036E1,9.4091E0,2.6576908E1,6.904437E1,1.477966E1,2.2107195E1,4.469713E0,5.8807278E1,1.0237095E1,9.937017E0,4.8426433E0,9.530914E0,1.2576281E1,3.5233852E1,2.3573427E1,6.337261E0,3.8998334E0,4.704986E0,4.8259287E0,6.919307E0,5.656974E0,3.1311003E1,3.9228485E0,1.0077252E1,1.3496174E1],"tree_param":{"num_deleted":"0","num_feature":"31","num_nodes":"27","size_leaf_vector":"1"}},{"base_weights":[2.7896412E-2,-3.8226627E-2,1.3742618E-1,-9.185737E-2,4.7383845E-1,7.980936E-3,-3.6941197E-2,3.7716687E-2,3.285284E-1,-4.3751395E-1,1.4148536E-1,1.637245E-1,7.0307803E-1,-2.9496832E-2,8.178645E-3,1.2453403E-2,-1.0784485E-2,-3.907115E-3,1.9941088E-2,6.436155E-3,3.627896E-2],"categories":[],"categories_nodes":[],"categories_segments":[],"categories_sizes":[],"default_left":[0,0,1,0,0,0,0,0,0,0,0,0,0,0,0,0,0,0,0,0,0],"id":20,"left_children":[1,-1,3,5,7,9,-1,-1,11,13,15,17,19,-1,-1,-1,-1,-1,-1,-1,-1],"loss_changes":[1.2782772E1,0E0,8.359649E0,5.4530573E0,2.5510845E0,3.5089474E0,0E0,0E0,1.9689362E0,2.812931E0,3.2934186E0,2.3563783E0,8.8109493E-1,0E0,0E0,0E0,0E0,0E0,0E0,0E0,0E0],"parents":[2147483647,0,0,2,2,3,3,4,4,5,5,8,8,9,9,10,10,11,11,12,12],"right_children":[2,-1,4,6,8,10,-1,-1,12,14,16,18,20,-1,-1,-1,-1,-1,-1,-1,-1],"split_conditions":[4E0,-3.8226627E-2,9.359643E-1,6.3611215E-1,1.9184336E-1,5.185185E-1,-3.6941197E-2,3.7716687E-2,3.785888E-1,6.7E1,7.659E1,1.8E1,2.6E1,-2.9496832E-2,8.178645E-3,1.2453403E-2,-1.0784485E-2,-3.907115E-3,1.9941088E-2,6.436155E-3,3.627896E-2],"split_indices":[16,0,5,30,30,5,0,0,30,28,7,21,28,0,0,0,0,0,0,0,0],"split_type":[0,0,0,0,0,0,0,0,0,0,0,0,0,0,0,0,0,0,0,0,0],"sum_hessian":[1.1719681E2,1.087777E1,1.0631904E2,6.3482143E1,4.283689E1,5.74551E1,6.0270452E0,8.6704445E0,3.4166447E1,1.2550103E1,4.4904995E1,2.4910015E1,9.256433E0,8.558857E0,3.991246E0,3.212012E1,1.2784877E1,1.421837E1,1.0691644E1,3.1527183E0,6.1037145E0],"tree_param":{"num_deleted":"0","num_feature":"31","num_nodes":"21","size_leaf_vector":"1"}},{"base_weights":[2.9856626E-2,-2.1105775E-1,4.3345997E-1,-3.454868E-2,-1.0389642E-1,7.6923114E-1,2.534201E-1,2.3088981E-4,-3.9964393E-2,4.1698255E-2,9.899376E-3,4.8757058E-2,5.8873427E-1,-4.807589E-1,1.583302E-1,-4.564558E-1,3.6809784E-1,7.4327403E-1,5.696464E-3,-2.7072903E-2,-1.2076141E-3,1.3778278E-2,-1.0880656E-2,-2.7507264E-2,-5.465562E-3,-2.2551727E-3,2.1916727E-2,4.105154E-2,1.3756446E-2],"categories":[],"categories_nodes":[],"categories_segments":[],"categories_sizes":[],"default_left":[1,0,0,0,0,0,0,0,0,0,0,0,0,0,0,0,0,0,0,0,0,0,0,0,0,0,0,0,0],"id":21,"left_children":[1,3,5,-1,7,9,11,13,-1,-1,-1,15,17,19,21,23,25,27,-1,-1,-1,-1,-1,-1,-1,-1,-1,-1,-1],"loss_changes":[1.148649E1,4.972318E0,2.374919E0,0E0,6.1243324E0,1.7147341E0,1.9978358E0,4.514677E0,0E0,0E0,0E0,3.416515E0,5.8286333E-1,1.2017593E0,3.7179546E0,4.2588544E-1,1.0757954E0,4.1053677E-1,0E0,0E0,0E0,0E0,0E0,0E0,0E0,0E0,0E0,0E0,0E0],"parents":[2147483647,0,0,1,1,2,2,4,4,5,5,6,6,7,7,11,11,12,12,13,13,14,14,15,15,16,16,17,17],"right_children":[2,4,6,-1,8,10,12,14,-1,-1,-1,16,18,20,22,24,26,28,-1,-1,-1,-1,-1,-1,-1,-1,-1,-1,-1],"split_conditions":[9.359643E-1,4E0,2.2719567E-1,-3.454868E-2,6.3611215E-1,-8.230746E1,3.7356043E-1,5.185185E-1,-3.9964393E-2,4.1698255E-2,9.899376E-3,1.3E1,9.6E1,6.7E1,5.09E2,-9.3096245E1,3.9E1,3E0,5.696464E-3,-2.7072903E-2,-1.2076141E-3,1.3778278E-2,-1.0880656E-2,-2.7507264E-2,-5.465562E-3,-2.2551727E-3,2.1916727E-2,4.105154E-2,1.3756446E-2],"split_indices":[5,16,30,0,30,26,30,5,0,0,0,21,28,28,6,26,28,22,0,0,0,0,0,0,0,0,0,0,0],"split_type":[0,0,0,0,0,0,0,0,0,0,0,0,0,0,0,0,0,0,0,0,0,0,0,0,0,0,0,0,0],"sum_hessian":[1.1596303E2,7.276078E1,4.320225E1,9.134506E0,6.3626274E1,1.374328E1,2.945897E1,5.779218E1,5.8340964E0,8.239035E0,5.504246E0,1.9189848E1,1.0269121E1,1.3635412E1,4.4156765E1,7.1444545E0,1.2045394E1,6.9673023E0,3.301819E0,8.996511E0,4.638901E0,3.1126411E1,1.3030353E1,3.2974794E0,3.846975E0,3.62313E0,8.422264E0,3.012345E0,3.954957E0],"tree_param":{"num_deleted":"0","num_feature":"31","num_nodes":"29","size_leaf_vector":"1"}},{"base_weights":[-3.324089E-2,-2.3508364E-1,3.917657E-1,-3.6755424E-2,-1.263837E-1,-9.3460366E-2,6.8439543E-1,-3.398549E-2,-3.9261322E-2,2.785503E-1,-5.337349E-1,9.6707064E-1,2.5597444E-1,-4.8226795E-1,5.2574217E-2,-8.399705E-3,3.3144798E-2,-3.1502314E-2,-4.2671887E-3,4.516422E-2,1.081035E-2,-9.089163E-3,5.152644E-1,-2.8867342E-2,-1.0101363E-2,-1.1537308E-3,2.164236E-2,1.0257275E-3,3.693619E-2],"categories":[],"categories_nodes":[],"categories_segments":[],"categories_sizes":[],"default_left":[1,0,0,0,0,0,0,0,0,0,0,0,0,0,0,0,0,0,0,0,0,0,0,0,0,0,0,0,0],"id":22,"left_children":[1,3,5,-1,7,9,11,-1,13,15,17,19,21,23,25,-1,-1,-1,-1,-1,-1,-1,27,-1,-1,-1,-1,-1,-1],"loss_changes":[1.0257343E1,5.818601E0,5.579789E0,0E0,4.376242E0,2.6651692E0,2.563446E0,0E0,2.708217E0,2.594631E0,6.320858E-1,1.14604E0,1.5402446E0,3.4883165E-1,2.2328148E0,0E0,0E0,0E0,0E0,0E0,0E0,0E0,1.4168103E0,0E0,0E0,0E0,0E0,0E0,0E0],"parents":[2147483647,0,0,1,1,2,2,4,4,5,5,6,6,8,8,9,9,10,10,11,11,12,12,13,13,14,14,22,22],"right_children":[2,4,6,-1,8,10,12,-1,14,16,18,20,22,24,26,-1,-1,-1,-1,-1,-1,-1,28,-1,-1,-1,-1,-1,-1],"split_conditions":[9.361702E-1,4E0,4.2E1,-3.6755424E-2,7E0,5.8E1,-8.342591E1,-3.398549E-2,1E0,1.8E1,9.7E1,1.11E2,1.2E1,1.6E1,1.09E2,-8.399705E-3,3.3144798E-2,-3.1502314E-2,-4.2671887E-3,4.516422E-2,1.081035E-2,-9.089163E-3,1.8E1,-2.8867342E-2,-1.0101363E-2,-1.1537308E-3,2.164236E-2,1.0257275E-3,3.693619E-2],"split_indices":[5,16,28,0,21,6,26,0,10,21,6,28,29,21,28,0,0,0,0,0,0,0,21,0,0,0,0,0,0],"split_type":[0,0,0,0,0,0,0,0,0,0,0,0,0,0,0,0,0,0,0,0,0,0,0,0,0,0,0,0,0],"sum_hessian":[1.176801E2,8.025013E1,3.742997E1,9.858648E0,7.039148E1,1.4208662E1,2.3221306E1,6.50335E0,6.388813E1,7.777363E0,6.431299E0,1.3092245E1,1.0129062E1,1.0426943E1,5.3461185E1,4.3501964E0,3.4271665E0,3.357454E0,3.0738454E0,1.0002409E1,3.0898356E0,3.4457204E0,6.6833415E0,3.8441305E0,6.5828123E0,4.6454662E1,7.0065236E0,3.6329522E0,3.050389E0],"tree_param":{"num_deleted":"0","num_feature":"31","num_nodes":"29","size_leaf_vector":"1"}},{"base_weights":[-6.402367E-2,-2.7732548E-1,3.334925E-1,-6.078502E-1,-1.2743053E-1,7.0365936E-1,9.940309E-2,-1.8923175E-1,-7.6836264E-1,-4.2530978E-1,1.3943194E-1,6.770992E-3,9.308515E-1,4.1348937E-1,-1.9301957E-1,-2.1315798E-2,3.99214E-3,-8.365487E-1,-1.2346239E-2,-1.6088636E-1,-3.3585858E-2,3.314858E-1,-4.415701E-1,4.528681E-2,1.7185504E-2,6.490127E-2,4.1359864E-2,-4.158443E-1,7.7651297E-3,-3.8680047E-2,-1.8377692E-2,3.7685346E-3,-1.54867275E-2,3.0769318E-2,-0E0,-0E0,-3.0169683E-2,1.449305E-2,-1.5024616E-2,6.4922427E-3,-2.8266469E-2],"categories":[],"categories_nodes":[],"categories_segments":[],"categories_sizes":[],"default_left":[0,0,0,0,0,0,0,0,0,0,0,0,0,0,0,0,0,0,0,0,0,0,0,0,0,0,0,0,0,0,0,0,0,0,0,0,0,0,0,0,0],"id":23,"left_children":[1,3,5,7,9,11,13,15,17,19,21,-1,23,25,27,-1,-1,29,-1,31,-1,33,35,-1,-1,37,-1,39,-1,-1,-1,-1,-1,-1,-1,-1,-1,-1,-1,-1,-1],"loss_changes":[1.0463464E1,3.8300142E0,3.578021E0,1.4116249E0,4.5995417E0,1.7160063E0,2.6448467E0,9.226134E-1,1.6894054E-1,2.7496266E0,3.5400455E0,0E0,4.7850323E-1,2.814973E0,1.3843924E0,0E0,0E0,1.1529255E-1,0E0,1.1056451E0,0E0,3.4277353E0,1.1399103E0,0E0,0E0,1.4485095E0,0E0,1.8354794E0,0E0,0E0,0E0,0E0,0E0,0E0,0E0,0E0,0E0,0E0,0E0,0E0,0E0],"parents":[2147483647,0,0,1,1,2,2,3,3,4,4,5,5,6,6,7,7,8,8,9,9,10,10,12,12,13,13,14,14,17,17,19,19,21,21,22,22,25,25,27,27],"right_children":[2,4,6,8,10,12,14,16,18,20,22,-1,24,26,28,-1,-1,30,-1,32,-1,34,36,-1,-1,38,-1,40,-1,-1,-1,-1,-1,-1,-1,-1,-1,-1,-1,-1,-1],"split_conditions":[4E0,2E0,2.6994225E-1,1.8E1,1.8E1,3.3812057E1,7.3E1,3E0,3.3E1,6.17E2,3.3E1,6.770992E-3,4.186799E1,3.9E1,1.8E1,-2.1315798E-2,3.99214E-3,6.7E1,-1.2346239E-2,2.7842832E-1,-3.3585858E-2,3E0,1.02E2,4.528681E-2,1.7185504E-2,2E1,4.1359864E-2,3.6088577E1,7.7651297E-3,-3.8680047E-2,-1.8377692E-2,3.7685346E-3,-1.54867275E-2,3.0769318E-2,-0E0,-0E0,-3.0169683E-2,1.449305E-2,-1.5024616E-2,6.4922427E-3,-2.8266469E-2],"split_indices":[1,1,30,21,21,25,28,14,21,6,21,0,25,28,21,0,0,28,0,30,0,1,28,0,0,21,0,25,0,0,0,0,0,0,0,0,0,0,0,0,0],"split_type":[0,0,0,0,0,0,0,0,0,0,0,0,0,0,0,0,0,0,0,0,0,0,0,0,0,0,0,0,0,0,0,0,0,0,0,0,0,0,0,0,0],"sum_hessian":[1.2137861E2,7.935285E1,4.2025753E1,2.3597364E1,5.5755486E1,1.5338217E1,2.6687536E1,7.3168526E0,1.6280512E1,2.6243145E1,2.951234E1,5.2275624E0,1.0110655E1,1.2832414E1,1.3855123E1,3.1151783E0,4.201674E0,1.3274322E1,3.0061908E0,1.7014437E1,9.228708E0,2.2632576E1,6.879766E0,6.172873E0,3.9377816E0,9.02699E0,3.805424E0,8.910703E0,4.94442E0,8.503322E0,4.771E0,8.064552E0,8.949885E0,9.181432E0,1.3451144E1,3.1751974E0,3.7045684E0,5.6301603E0,3.3968294E0,3.0149555E0,5.895747E0],"tree_param":{"num_deleted":"0","num_feature":"31","num_nodes":"41","size_leaf_vector":"1"}},{"base_weights":[-6.735802E-2,-2.9175773E-1,2.9763514E-1,-3.6683924E-2,-1.8906762E-1,4.8934016E-1,2.3414606E-2,-2.4282942E-2,-6.0677356E-1,2.2014533E-1,7.7851313E-1,-1.7174184E-1,1.7454443E-2,-2.295779E-1,8.593248E-1,-8.5083014E-1,-8.246374E-2,-5.8674734E-2,3.0873496E-2,4.4292212E-1,4.2865496E-2,9.2108846E-2,-1.7543817E-2,-2.2128304E-2,-2.503207E-3,1.4600053E-2,4.0925708E-2,-3.9351854E-2,-1.7238097E-2,3.397372E-3,-1.0174335E-2,8.008969E-3,-2.2435347E-2,2.8046748E-2,3.2937243E-3,1.6477227E-2,-9.800885E-3],"categories":[],"categories_nodes":[],"categories_segments":[],"categories_sizes":[],"default_left":[1,0,0,0,0,0,0,0,0,0,0,0,0,0,0,0,0,0,0,0,0,0,0,0,0,0,0,0,0,0,0,0,0,0,0,0,0],"id":24,"left_children":[1,3,5,-1,7,9,11,13,15,17,19,21,-1,23,25,27,29,31,-1,33,-1,35,-1,-1,-1,-1,-1,-1,-1,-1,-1,-1,-1,-1,-1,-1,-1],"loss_changes":[9.94179E0,4.5444946E0,2.3627467E0,0E0,4.4638343E0,1.8219681E0,1.7332206E0,8.937589E0,2.1977592E0,2.5007656E0,5.927515E-1,1.0821432E0,0E0,2.079732E0,2.3828936E-1,1.24284744E-1,2.4280888E-1,1.5922401E0,0E0,5.7537043E-1,0E0,9.618879E-1,0E0,0E0,0E0,0E0,0E0,0E0,0E0,0E0,0E0,0E0,0E0,0E0,0E0,0E0,0E0],"parents":[2147483647,0,0,1,1,2,2,4,4,5,5,6,6,7,7,8,8,9,9,10,10,11,11,13,13,14,14,15,15,16,16,17,17,19,19,21,21],"right_children":[2,4,6,-1,8,10,12,14,16,18,20,22,-1,24,26,28,30,32,-1,34,-1,36,-1,-1,-1,-1,-1,-1,-1,-1,-1,-1,-1,-1,-1,-1,-1],"split_conditions":[9.359643E-1,4E0,-8.366516E1,-3.6683924E-2,6.14E2,1.8E1,-7.5944275E1,1.4610655E0,1.9E1,2.7481624E-1,3.7442543E1,3.682648E1,1.7454443E-2,-9.797393E1,3.4738327E1,1.2E1,2.9E1,4E0,3.0873496E-2,3.3487663E1,4.2865496E-2,2.7955446E-1,-1.7543817E-2,-2.2128304E-2,-2.503207E-3,1.4600053E-2,4.0925708E-2,-3.9351854E-2,-1.7238097E-2,3.397372E-3,-1.0174335E-2,8.008969E-3,-2.2435347E-2,2.8046748E-2,3.2937243E-3,1.6477227E-2,-9.800885E-3],"split_indices":[5,16,26,0,6,21,26,7,21,7,25,25,0,26,25,21,21,14,0,25,0,7,0,0,0,0,0,0,0,0,0,0,0,0,0,0,0],"split_type":[0,0,0,0,0,0,0,0,0,0,0,0,0,0,0,0,0,0,0,0,0,0,0,0,0,0,0,0,0,0,0,0,0,0,0,0,0],"sum_hessian":[1.1932986E2,7.4191284E1,4.5138573E1,9.208823E0,6.498246E1,2.5889978E1,1.9248592E1,4.7529606E1,1.7452856E1,1.4499403E1,1.1390575E1,1.3303411E1,5.945182E0,3.9261135E1,8.268469E0,1.1354197E1,6.09866E0,1.0104877E1,4.394526E0,6.640367E0,4.7502084E0,6.8301835E0,6.4732275E0,1.2372545E1,2.688859E1,3.0135508E0,5.254918E0,7.4224486E0,3.931748E0,3.0513103E0,3.0473495E0,6.932978E0,3.171899E0,3.1572502E0,3.4831166E0,3.5434303E0,3.286753E0],"tree_param":{"num_deleted":"0","num_feature":"31","num_nodes":"37","size_leaf_vector":"1"}},{"base_weights":[-1.1449244E-2,-1.9723095E-1,3.683368E-1,-3.5113655E-2,-9.202469E-2,5.72412E-1,7.387631E-2,1.1888089E-2,-3.4378044E-2,4.5585863E-2,3.6815122E-1,-2.2064747E-2,2.8128213E-1,-5.709881E-2,2.5058636E-2,1.6499174E-1,2.9052284E-2,2.488605E-2,-7.1037603E-3,1.0412936E-3,-1.5360791E-2,2.1735243E-2,-2.6114997E-3],"categories":[],"categories_nodes":[],"categories_segments":[],"categories_sizes":[],"default_left":[1,0,0,0,0,0,0,0,0,0,0,0,0,0,0,0,0,0,0,0,0,0,0],"id":25,"left_children":[1,3,5,-1,7,9,11,13,-1,-1,15,-1,17,19,-1,21,-1,-1,-1,-1,-1,-1,-1],"loss_changes":[8.438596E0,5.594404E0,2.248702E0,0E0,5.7619896E0,2.0719118E0,2.384845E0,2.783299E0,0E0,0E0,1.1279669E0,0E0,2.320685E0,1.6173569E0,0E0,1.2331043E0,0E0,0E0,0E0,0E0,0E0,0E0,0E0],"parents":[2147483647,0,0,1,1,2,2,4,4,5,5,6,6,7,7,10,10,12,12,13,13,15,15],"right_children":[2,4,6,-1,8,10,12,14,-1,-1,16,-1,18,20,-1,22,-1,-1,-1,-1,-1,-1,-1],"split_conditions":[9.361702E-1,4E0,-8.342591E1,-3.5113655E-2,6.303832E-1,1.9881387E-1,2E0,4.3000404E1,-3.4378044E-2,4.5585863E-2,-9.018938E1,-2.2064747E-2,2.8429267E-1,7.659E1,2.5058636E-2,-1.1519114E2,2.9052284E-2,2.488605E-2,-7.1037603E-3,1.0412936E-3,-1.5360791E-2,2.1735243E-2,-2.6114997E-3],"split_indices":[5,16,26,0,30,30,27,25,0,0,26,0,7,7,0,26,0,0,0,0,0,0,0],"split_type":[0,0,0,0,0,0,0,0,0,0,0,0,0,0,0,0,0,0,0,0,0,0,0],"sum_hessian":[1.1781207E2,7.961192E1,3.820015E1,9.548077E0,7.006384E1,2.1804825E1,1.6395325E1,6.2460617E1,7.603228E0,4.4309845E0,1.737384E1,3.5493698E0,1.2845956E1,5.6826206E1,5.634412E0,1.2195801E1,5.1780396E0,7.2916055E0,5.55435E0,4.5795563E1,1.1030644E1,4.263959E0,7.9318423E0],"tree_param":{"num_deleted":"0","num_feature":"31","num_nodes":"23","size_leaf_vector":"1"}},{"base_weights":[-1.5479928E-2,-3.531774E-1,1.2558287E-1,-3.6762144E-2,-2.1911408E-1,2.3636207E-1,-5.930605E-1,3.6405936E-2,-4.862325E-1,1.4901696E-1,6.0082644E-1,-3.5805777E-2,3.2300525E-3,-1.7946303E-1,1.9016536E-2,-6.95089E-1,1.7003904E-3,-6.4401045E-2,3.6655125E-1,4.8827905E-2,1.3350795E-1,8.67388E-3,-2.2750044E-2,-3.3138126E-2,-1.1212678E-2,1.3140957E-2,-8.064108E-3,-1.08546665E-4,2.2344815E-2,-1.359987E-2,2.7802162E-2],"categories":[],"categories_nodes":[],"categories_segments":[],"categories_sizes":[],"default_left":[0,0,0,0,0,0,0,0,0,0,0,0,0,0,0,0,0,0,0,0,0,0,0,0,0,0,0,0,0,0,0],"id":26,"left_children":[1,3,5,-1,7,9,11,13,15,17,19,-1,-1,21,-1,23,-1,25,27,-1,29,-1,-1,-1,-1,-1,-1,-1,-1,-1,-1],"loss_changes":[5.6219554E0,2.3270488E0,6.6946692E0,0E0,2.0839577E0,2.1453447E0,2.437657E0,1.6193172E0,1.7224927E0,2.8432178E0,3.6053548E0,0E0,0E0,1.888766E0,0E0,2.5203657E-1,0E0,1.7218881E0,2.194487E0,0E0,2.6378484E0,0E0,0E0,0E0,0E0,0E0,0E0,0E0,0E0,0E0,0E0],"parents":[2147483647,0,0,1,1,2,2,4,4,5,5,6,6,7,7,8,8,9,9,10,10,13,13,15,15,17,17,18,18,20,20],"right_children":[2,4,6,-1,8,10,12,14,16,18,20,-1,-1,22,-1,24,-1,26,28,-1,30,-1,-1,-1,-1,-1,-1,-1,-1,-1,-1],"split_conditions":[8.770556E-1,1E0,5.8023584E-1,-3.6762144E-2,2.6994225E-1,3.8792813E-1,1.7E1,-8.528265E1,4.1059747E-1,1.8E1,-9.050583E1,-3.5805777E-2,3.2300525E-3,-9.545172E1,1.9016536E-2,6.4E1,1.7003904E-3,7E0,-9.656595E1,4.8827905E-2,3.898329E1,8.67388E-3,-2.2750044E-2,-3.3138126E-2,-1.1212678E-2,1.3140957E-2,-8.064108E-3,-1.08546665E-4,2.2344815E-2,-1.359987E-2,2.7802162E-2],"split_indices":[5,20,30,0,30,30,21,26,30,21,26,0,0,26,0,28,0,29,26,0,25,0,0,0,0,0,0,0,0,0,0],"split_type":[0,0,0,0,0,0,0,0,0,0,0,0,0,0,0,0,0,0,0,0,0,0,0,0,0,0,0,0,0,0,0],"sum_hessian":[1.1560884E2,3.3829025E1,8.1779816E1,5.21508E0,2.8613945E1,7.155919E1,1.022063E1,1.4874574E1,1.373937E1,5.908299E1,1.2476196E1,6.9325523E0,3.2880776E0,1.0215047E1,4.6595273E0,9.759017E0,3.980353E0,2.9946955E1,2.9136034E1,4.577838E0,7.8983583E0,5.154082E0,5.060965E0,6.44746E0,3.3115573E0,7.201014E0,2.2745941E1,1.01285305E1,1.9007504E1,4.4025292E0,3.495829E0],"tree_param":{"num_deleted":"0","num_feature":"31","num_nodes":"31","size_leaf_vector":"1"}},{"base_weights":[1.6923321E-2,-2.624278E-1,3.634703E-1,-3.4061722E-2,-1.5882434E-1,7.309533E-2,6.9686097E-1,-3.7099056E-2,-4.57483E-1,3.1586814E-1,-2.1668844E-1,1.00147E0,1.3808681E-1,-2.2545792E-1,7.354825E-1,-2.9426252E-2,1.8807849E-3,-6.842991E-2,3.254808E-2,-5.297756E-1,1.3667782E-2,1.728384E-2,1.1128472E0,-1.3726709E-2,2.2937221E-2,-1.3001612E-2,8.485367E-3,1.2369202E-2,3.5930593E-2,2.3657957E-2,-1.9224962E-2,-2.9361505E-2,-5.2163107E-3,1.8289212E-2,5.073243E-2],"categories":[],"categories_nodes":[],"categories_segments":[],"categories_sizes":[],"default_left":[0,0,0,0,0,0,0,0,0,0,0,0,0,0,0,0,0,0,0,0,0,0,0,0,0,0,0,0,0,0,0,0,0,0,0],"id":27,"left_children":[1,3,5,-1,7,9,11,13,15,17,19,21,23,25,27,-1,-1,29,-1,31,-1,-1,33,-1,-1,-1,-1,-1,-1,-1,-1,-1,-1,-1,-1],"loss_changes":[1.1491576E1,3.7640247E0,5.0099673E0,0E0,2.0098734E0,2.163864E0,3.905754E0,6.212453E0,2.3785431E0,3.329986E0,2.633172E0,3.497715E-1,2.2928202E0,1.5861466E0,1.8043423E-1,0E0,0E0,3.06059E0,0E0,5.866988E-1,0E0,0E0,4.921627E-1,0E0,0E0,0E0,0E0,0E0,0E0,0E0,0E0,0E0,0E0,0E0,0E0],"parents":[2147483647,0,0,1,1,2,2,4,4,5,5,6,6,7,7,8,8,9,9,10,10,11,11,12,12,13,13,14,14,17,17,19,19,22,22],"right_children":[2,4,6,-1,8,10,12,14,16,18,20,22,24,26,28,-1,-1,30,-1,32,-1,-1,34,-1,-1,-1,-1,-1,-1,-1,-1,-1,-1,-1,-1],"split_conditions":[9.233926E-1,4E0,1.8E1,-3.4061722E-2,6.14E2,7.9E1,9.7994614E-1,5.4E1,1.9E1,3.9E1,-8.68664E1,9.359643E-1,4.5960647E-1,-7.981422E1,3.5850487E1,-2.9426252E-2,1.8807849E-3,2.6E1,3.254808E-2,1.01E2,1.3667782E-2,1.728384E-2,3.3051792E1,-1.3726709E-2,2.2937221E-2,-1.3001612E-2,8.485367E-3,1.2369202E-2,3.5930593E-2,2.3657957E-2,-1.9224962E-2,-2.9361505E-2,-5.2163107E-3,1.8289212E-2,5.073243E-2],"split_indices":[0,16,21,0,6,28,0,6,21,28,26,0,7,26,25,0,0,28,0,28,0,0,25,0,0,0,0,0,0,0,0,0,0,0,0],"split_type":[0,0,0,0,0,0,0,0,0,0,0,0,0,0,0,0,0,0,0,0,0,0,0,0,0,0,0,0,0,0,0,0,0,0,0],"sum_hessian":[1.1661479E2,6.454185E1,5.207294E1,8.428846E0,5.6113003E1,2.8643963E1,2.342898E1,4.0901638E1,1.5211365E1,1.5725035E1,1.2918928E1,1.4534464E1,8.894515E0,3.3557728E1,7.3439126E0,9.637475E0,5.57389E0,9.24789E0,6.4771447E0,8.425207E0,4.4937205E0,3.3232133E0,1.121125E1,4.215966E0,4.6785493E0,2.7732418E1,5.8253083E0,3.000623E0,4.34329E0,3.2951784E0,5.952712E0,4.854112E0,3.5710955E0,3.0276098E0,8.1836405E0],"tree_param":{"num_deleted":"0","num_feature":"31","num_nodes":"35","size_leaf_vector":"1"}},{"base_weights":[-0E0,-3.3487175E-2,8.0973186E-2,1.6768678E-1,-4.196289E-1,7.1611814E-2,8.582314E-1,-3.2304388E-2,-1.1684128E-2,-2.4087656E-1,2.2438009E-1,6.05336E-3,4.5285895E-2,-1.3743824E-2,1.2629875E-2,-1.4621362E-2,1.433343E-2,4.1302092E-2,4.649174E-3],"categories":[],"categories_nodes":[],"categories_segments":[],"categories_sizes":[],"default_left":[0,0,0,0,0,0,0,0,0,0,0,0,0,0,0,0,0,0,0],"id":28,"left_children":[1,-1,3,5,7,9,11,-1,13,15,17,-1,-1,-1,-1,-1,-1,-1,-1],"loss_changes":[7.895399E0,0E0,4.6752687E0,5.9358635E0,2.4193885E0,3.9576328E0,1.8290606E0,0E0,1.0755757E0,2.1580834E0,4.6315074E0,0E0,0E0,0E0,0E0,0E0,0E0,0E0,0E0],"parents":[2147483647,0,0,2,2,3,3,4,4,5,5,6,6,8,8,9,9,10,10],"right_children":[2,-1,4,6,8,10,12,-1,14,16,18,-1,-1,-1,-1,-1,-1,-1,-1],"split_conditions":[4E0,-3.3487175E-2,1.4191E2,1.2030317E1,1.4E1,8.770556E-1,1.6E1,-3.2304388E-2,-9.6035835E1,-7.981422E1,-1.1771576E2,6.05336E-3,4.5285895E-2,-1.3743824E-2,1.2629875E-2,-1.4621362E-2,1.433343E-2,4.1302092E-2,4.649174E-3],"split_indices":[16,0,7,7,21,5,21,0,26,26,26,0,0,0,0,0,0,0,0],"split_type":[0,0,0,0,0,0,0,0,0,0,0,0,0,0,0,0,0,0,0],"sum_hessian":[1.1492945E2,9.2673235E0,1.05662125E2,9.079887E1,1.4863262E1,8.080504E1,9.993828E0,6.9902577E0,7.873005E0,2.612824E1,5.4676796E1,3.3265443E0,6.6672835E0,4.0369024E0,3.8361025E0,2.2089666E1,4.0385756E0,5.335383E0,4.934141E1],"tree_param":{"num_deleted":"0","num_feature":"31","num_nodes":"19","size_leaf_vector":"1"}},{"base_weights":[-3.1723987E-2,-3.9542413E-1,1.2597045E-1,-4.797652E-1,1.568936E-3,-7.1305025E-1,2.1716091E-1,-5.90297E-1,-1.5032859E-1,-8.312776E-3,-3.8416393E-2,2.8140518E-1,-1.682416E-1,-3.69145E-1,-3.0441185E-2,8.342145E-3,-2.0711033E-2,1.3496746E-1,6.532755E-1,-4.1815743E-1,8.150833E-3,-0E0,-2.1912144E-2,9.422264E-3,-8.203515E-3,2.5189514E-3,3.7528347E-2,-2.3692379E-2,-4.728452E-3],"categories":[],"categories_nodes":[],"categories_segments":[],"categories_sizes":[],"default_left":[0,0,0,0,0,0,0,0,0,0,0,0,0,0,0,0,0,0,0,0,0,0,0,0,0,0,0,0,0],"id":29,"left_children":[1,3,5,7,-1,9,11,13,15,-1,-1,17,19,21,-1,-1,-1,23,25,27,-1,-1,-1,-1,-1,-1,-1,-1,-1],"loss_changes":[6.821394E0,1.3826027E0,6.424823E0,9.448266E-1,0E0,7.112584E-1,1.9249148E0,4.445591E-1,1.3535447E0,0E0,0E0,3.3835998E0,1.1453902E0,7.885177E-1,0E0,0E0,0E0,1.7012203E0,2.8629608E0,2.3354125E-1,0E0,0E0,0E0,0E0,0E0,0E0,0E0,0E0,0E0],"parents":[2147483647,0,0,1,1,2,2,3,3,5,5,6,6,7,7,8,8,11,11,12,12,13,13,17,17,18,18,19,19],"right_children":[2,4,6,8,-1,10,12,14,16,-1,-1,18,20,22,-1,-1,-1,24,26,28,-1,-1,-1,-1,-1,-1,-1,-1,-1],"split_conditions":[8.770556E-1,-7.981422E1,7E0,2.3E1,1.568936E-3,1.4191E2,1.4766E2,1.7E1,-8.701262E1,-8.312776E-3,-3.8416393E-2,4.5960647E-1,-8.7620544E1,2E0,-3.0441185E-2,8.342145E-3,-2.0711033E-2,4E0,3.386212E1,4.6483E2,8.150833E-3,-0E0,-2.1912144E-2,9.422264E-3,-8.203515E-3,2.5189514E-3,3.7528347E-2,-2.3692379E-2,-4.728452E-3],"split_indices":[5,26,21,21,0,7,7,21,26,0,0,7,26,27,0,0,0,14,25,7,0,0,0,0,0,0,0,0,0],"split_type":[0,0,0,0,0,0,0,0,0,0,0,0,0,0,0,0,0,0,0,0,0,0,0,0,0,0,0,0,0],"sum_hessian":[1.1659768E2,3.500051E1,8.159717E1,2.9418308E1,5.5822005E0,7.2231154E0,7.4374054E1,2.120745E1,8.210858E0,3.111767E0,4.1113486E0,6.420138E1,1.0172672E1,1.0872287E1,1.0335163E1,4.2349253E0,3.9759333E0,4.723335E1,1.6968029E1,6.1714764E0,4.001196E0,3.8535585E0,7.0187287E0,3.691514E1,1.0318212E1,6.035708E0,1.0932321E1,3.0768883E0,3.094588E0],"tree_param":{"num_deleted":"0","num_feature":"31","num_nodes":"29","size_leaf_vector":"1"}},{"base_weights":[-4.22809E-3,-1.8377861E-1,3.8612282E-1,-3.0061366E-2,-1.00475244E-1,5.875523E-2,5.688851E-1,-2.5317362E-2,-3.3998866E-2,5.947473E-1,-5.1395E-1,7.1171325E-1,2.214632E-1,-3.8013056E-1,6.7735955E-2,4.03511E-2,2.7178144E-3,2.2912403E-3,-4.01166E-2,4.447673E-1,4.675636E-2,-1.4278675E-2,2.7274333E-2,-0E0,-2.3268005E-2,1.02593005E-2,-9.185414E-3,4.2729E-4,3.1617634E-2],"categories":[],"categories_nodes":[],"categories_segments":[],"categories_sizes":[],"default_left":[1,0,0,0,0,0,0,0,0,0,0,0,0,0,0,0,0,0,0,0,0,0,0,0,0,0,0,0,0],"id":30,"left_children":[1,3,5,-1,7,9,11,13,-1,15,17,19,21,23,25,-1,-1,-1,-1,27,-1,-1,-1,-1,-1,-1,-1,-1,-1],"loss_changes":[8.254222E0,3.6713529E0,2.1189137E0,0E0,3.9447293E0,4.7878633E0,9.125786E-1,2.254481E0,0E0,1.5867257E0,2.2447762E0,1.2667017E0,2.5360086E0,1.106724E0,3.0562356E0,0E0,0E0,0E0,0E0,1.6864579E0,0E0,0E0,0E0,0E0,0E0,0E0,0E0,0E0,0E0],"parents":[2147483647,0,0,1,1,2,2,4,4,5,5,6,6,7,7,9,9,10,10,11,11,12,12,13,13,14,14,19,19],"right_children":[2,4,6,-1,8,10,12,14,-1,16,18,20,22,24,26,-1,-1,-1,-1,28,-1,-1,-1,-1,-1,-1,-1,-1,-1],"split_conditions":[9.793991E-1,4E0,4.8E1,-3.0061366E-2,6.3611215E-1,2.7481624E-1,-8.1594246E1,5.185185E-1,-3.3998866E-2,2.7E1,2E1,2.8903088E-1,-7.832888E1,2.1130538E-1,9.8E1,4.03511E-2,2.7178144E-3,2.2912403E-3,-4.01166E-2,3E0,4.675636E-2,-1.4278675E-2,2.7274333E-2,-0E0,-2.3268005E-2,1.02593005E-2,-9.185414E-3,4.2729E-4,3.1617634E-2],"split_indices":[5,16,28,0,30,7,26,5,0,28,21,7,26,30,28,0,0,0,0,22,0,0,0,0,0,0,0,0,0],"split_type":[0,0,0,0,0,0,0,0,0,0,0,0,0,0,0,0,0,0,0,0,0,0,0,0,0,0,0,0,0],"sum_hessian":[1.1604613E2,8.002311E1,3.6023018E1,9.0590315E0,7.096408E1,1.3575299E1,2.244772E1,6.5557335E1,5.406746E0,7.0827293E0,6.49257E0,1.496081E1,7.48691E0,1.3203153E1,5.235418E1,3.3472705E0,3.7354589E0,3.3072412E0,3.185329E0,1.0829348E1,4.131462E0,3.3214107E0,4.165499E0,4.867155E0,8.335998E0,3.2316277E1,2.0037903E1,5.385994E0,5.4433537E0],"tree_param":{"num_deleted":"0","num_feature":"31","num_nodes":"29","size_leaf_vector":"1"}},{"base_weights":[-2.0243706E-2,-1.8862967E-1,2.7365053E-1,-2.966194E-2,-1.1310037E-1,2.632792E-2,1.5473096E-1,-4.452248E-2,-3.2968543E-2,2.7514273E-1,-2.6876238E-1,-3.6644146E-1,4.0903278E-2,1.1808807E-1,3.3891514E-2,-2.7851654E-2,7.0600584E-3,-3.1192785E-3,-1.9851042E-2,5.9693805E-3,-1.0795313E-2,1.3550792E-2,-1.3804731E-2],"categories":[],"categories_nodes":[],"categories_segments":[],"categories_sizes":[],"default_left":[0,0,0,0,0,0,0,0,0,0,0,0,0,0,0,0,0,0,0,0,0,0,0],"id":31,"left_children":[1,3,5,-1,7,-1,9,11,-1,13,15,17,19,21,-1,-1,-1,-1,-1,-1,-1,-1,-1],"loss_changes":[5.8355575E0,2.9720352E0,1.7753339E0,0E0,3.169166E0,0E0,1.8194268E0,1.7736413E0,0E0,2.258312E0,1.6781869E0,4.0981185E-1,1.7202849E0,2.4402544E0,0E0,0E0,0E0,0E0,0E0,0E0,0E0,0E0,0E0],"parents":[2147483647,0,0,1,1,2,2,4,4,6,6,7,7,9,9,10,10,11,11,12,12,13,13],"right_children":[2,4,6,-1,8,-1,10,12,-1,14,16,18,20,22,-1,-1,-1,-1,-1,-1,-1,-1,-1],"split_conditions":[9.361702E-1,4E0,1.9881387E-1,-2.966194E-2,6.3611215E-1,2.632792E-2,6.17E2,5.185185E-1,-3.2968543E-2,3.032455E-1,1.401E3,2.1130538E-1,5.09E2,1E0,3.3891514E-2,-2.7851654E-2,7.0600584E-3,-3.1192785E-3,-1.9851042E-2,5.9693805E-3,-1.0795313E-2,1.3550792E-2,-1.3804731E-2],"split_indices":[0,16,30,0,30,0,6,5,0,7,6,30,6,13,0,0,0,0,0,0,0,0,0],"split_type":[0,0,0,0,0,0,0,0,0,0,0,0,0,0,0,0,0,0,0,0,0,0,0],"sum_hessian":[1.1604817E2,7.422155E1,4.1826622E1,7.701323E0,6.652023E1,8.60975E0,3.3216873E1,6.1766834E1,4.753397E0,2.6319803E1,6.897069E0,1.2508968E1,4.9257862E1,2.1734756E1,4.5850453E0,3.3455684E0,3.5515008E0,4.6185527E0,7.890416E0,3.7150005E1,1.2107861E1,1.5049413E1,6.685344E0],"tree_param":{"num_deleted":"0","num_feature":"31","num_nodes":"23","size_leaf_vector":"1"}},{"base_weights":[-5.0809965E-2,-2.238138E-1,2.6717317E-1,-1.585267E-1,-3.0991403E-2,2.9188856E-2,1.2715347E-1,-5.6549984E-1,-4.394913E-2,-2.0836377E-1,2.987367E-1,-2.5731267E-2,-7.7036372E-3,-3.7330794E-1,5.1940385E-2,-2.2009255E-2,4.193073E-2,4.818839E-1,-2.4034726E-2,1.472267E-3,-2.2873914E-2,-1.0937734E-2,1.0317692E-2,-9.3203075E-3,1.2697973E-2,3.4337297E-2,1.3743138E-3,-2.7723197E-2,3.0856237E-2],"categories":[],"categories_nodes":[],"categories_segments":[],"categories_sizes":[],"default_left":[0,0,0,0,0,0,0,0,0,0,0,0,0,0,0,0,0,0,0,0,0,0,0,0,0,0,0,0,0],"id":32,"left_children":[1,3,5,7,-1,-1,9,11,13,15,17,-1,-1,19,21,-1,23,25,27,-1,-1,-1,-1,-1,-1,-1,-1,-1,-1],"loss_changes":[6.5155864E0,2.5464647E0,2.517724E0,3.1822095E0,0E0,0E0,1.9902515E0,2.3109913E-1,1.8189644E0,1.0725272E0,1.3970647E0,0E0,0E0,1.1311527E0,3.0174062E0,0E0,6.503909E-1,2.3590338E0,5.29463E0,0E0,0E0,0E0,0E0,0E0,0E0,0E0,0E0,0E0,0E0],"parents":[2147483647,0,0,1,1,2,2,3,3,6,6,7,7,8,8,9,9,10,10,13,13,14,14,16,16,17,17,18,18],"right_children":[2,4,6,8,-1,-1,10,12,14,16,18,-1,-1,20,22,-1,24,26,28,-1,-1,-1,-1,-1,-1,-1,-1,-1,-1],"split_conditions":[9.361702E-1,6.1589617E-1,1.9881387E-1,1E0,-3.0991403E-2,2.9188856E-2,1.3E1,4.055254E1,5.860215E-1,8E0,9.952618E-1,-2.5731267E-2,-7.7036372E-3,1.8E1,1.6E1,-2.2009255E-2,3.9E1,7.4E1,4.8E1,1.472267E-3,-2.2873914E-2,-1.0937734E-2,1.0317692E-2,-9.3203075E-3,1.2697973E-2,3.4337297E-2,1.3743138E-3,-2.7723197E-2,3.0856237E-2],"split_indices":[0,30,30,10,0,0,21,25,0,29,0,0,0,21,21,0,28,28,28,0,0,0,0,0,0,0,0,0,0],"split_type":[0,0,0,0,0,0,0,0,0,0,0,0,0,0,0,0,0,0,0,0,0,0,0,0,0,0,0,0,0],"sum_hessian":[1.16430565E2,7.580064E1,4.062993E1,6.90838E1,6.7168336E0,8.2966385E0,3.233329E1,1.4120453E1,5.4963352E1,1.0670607E1,2.1662683E1,1.0861705E1,3.2587476E0,1.197651E1,4.2986843E1,4.172603E0,6.4980035E0,1.370375E1,7.958933E0,4.0081E0,7.96841E0,1.6349575E1,2.6637266E1,3.1479874E0,3.350016E0,6.822051E0,6.881699E0,4.461101E0,3.4978318E0],"tree_param":{"num_deleted":"0","num_feature":"31","num_nodes":"29","size_leaf_vector":"1"}},{"base_weights":[1.2898077E-2,-1.4113684E-1,3.0094007E-1,5.581617E-2,-3.281166E-1,6.0032225E-1,4.439821E-2,-2.3199668E-2,1.6309373E-1,-4.6465874E-1,-1.3986626E-2,8.9542353E-1,-3.4859383E-3,-1.8142581E-2,2.828901E-1,2.8682423E-1,-2.5305137E-1,-6.2715456E-2,-5.9713304E-1,2.759409E-2,-4.4514328E-1,1.5973998E-2,3.990388E-2,4.756002E-1,-1.0072182E-2,1.4688077E-2,-3.2796513E-3,-2.2060812E-2,3.6762E-3,-1.6251883E-2,1.09485015E-2,-3.2347415E-2,-1.4128358E-2,8.867914E-4,-3.1860374E-2,2.8988143E-2,7.086884E-3],"categories":[],"categories_nodes":[],"categories_segments":[],"categories_sizes":[],"default_left":[0,0,0,0,0,0,0,0,0,0,0,0,0,0,0,0,0,0,0,0,0,0,0,0,0,0,0,0,0,0,0,0,0,0,0,0,0],"id":33,"left_children":[1,3,5,7,9,11,13,-1,15,17,19,21,-1,-1,23,25,27,29,31,-1,33,-1,-1,35,-1,-1,-1,-1,-1,-1,-1,-1,-1,-1,-1,-1,-1],"loss_changes":[5.1270723E0,2.8034143E0,3.0079424E0,2.5810883E0,1.6108274E0,3.8837585E0,2.8414917E0,0E0,1.7560639E0,1.3239951E0,4.2322884E0,1.22691154E-1,0E0,0E0,1.821334E0,8.236227E-1,9.022257E-1,1.0433754E0,6.228986E-1,0E0,1.534616E0,0E0,0E0,7.078817E-1,0E0,0E0,0E0,0E0,0E0,0E0,0E0,0E0,0E0,0E0,0E0,0E0,0E0],"parents":[2147483647,0,0,1,1,2,2,3,3,4,4,5,5,6,6,8,8,9,9,10,10,11,11,14,14,15,15,16,16,17,17,18,18,20,20,23,23],"right_children":[2,4,6,8,10,12,14,-1,16,18,20,22,-1,-1,24,26,28,30,32,-1,34,-1,-1,36,-1,-1,-1,-1,-1,-1,-1,-1,-1,-1,-1,-1,-1],"split_conditions":[4E0,2.6994225E-1,2.9478368E-1,1E0,1E0,4.168398E1,3.1674662E-1,-2.3199668E-2,1.1661E2,3.4098267E1,6.17E2,3.2243607E1,-3.4859383E-3,-1.8142581E-2,5.4936963E-1,3E1,3.5811E2,3.7356043E-1,3.898329E1,2.759409E-2,5.8023584E-1,1.5973998E-2,3.990388E-2,3.8863544E1,-1.0072182E-2,1.4688077E-2,-3.2796513E-3,-2.2060812E-2,3.6762E-3,-1.6251883E-2,1.09485015E-2,-3.2347415E-2,-1.4128358E-2,8.867914E-4,-3.1860374E-2,2.8988143E-2,7.086884E-3],"split_indices":[1,30,30,8,4,25,30,0,7,25,6,25,0,0,30,21,7,30,25,0,30,0,0,25,0,0,0,0,0,0,0,0,0,0,0,0,0],"split_type":[0,0,0,0,0,0,0,0,0,0,0,0,0,0,0,0,0,0,0,0,0,0,0,0,0,0,0,0,0,0,0,0,0,0,0,0,0],"sum_hessian":[1.1323907E2,7.388875E1,3.9350315E1,3.6065857E1,3.782289E1,1.7360685E1,2.198963E1,4.436022E0,3.1629837E1,2.5807623E1,1.201527E1,1.2036786E1,5.3238983E0,6.6932516E0,1.5296377E1,2.480557E1,6.824266E0,6.9496894E0,1.8857933E1,4.248271E0,7.7669997E0,3.0612166E0,8.97557E0,1.146265E1,3.8337276E0,2.0593126E1,4.212444E0,3.4930396E0,3.3312263E0,3.4825993E0,3.4670901E0,8.639619E0,1.0218314E1,3.6134505E0,4.153549E0,5.2864566E0,6.1761937E0],"tree_param":{"num_deleted":"0","num_feature":"31","num_nodes":"37","size_leaf_vector":"1"}},{"base_weights":[1.743863E-2,-1.6752152E-1,3.8030845E-1,-3.3294346E-2,-6.834976E-2,-7.521441E-3,4.3734494E-1,-1.6904037E-2,-2.4297103E-2,1.3372642E-1,5.977329E-1,-6.392526E-2,2.3466285E-2,2.0917023E-2,-1.0969898E-1,9.0523535E-1,4.5093596E-2,-4.878225E-3,1.4393752E-2,-1.628672E-2,1.1460879E-2,1.5038381E-2,4.2463206E-2,-2.0005103E-2,2.1886922E-2],"categories":[],"categories_nodes":[],"categories_segments":[],"categories_sizes":[],"default_left":[0,0,0,0,0,0,0,0,0,0,0,0,0,0,0,0,0,0,0,0,0,0,0,0,0],"id":34,"left_children":[1,3,5,-1,7,-1,9,11,-1,13,15,17,-1,-1,19,21,23,-1,-1,-1,-1,-1,-1,-1,-1],"loss_changes":[7.649241E0,4.808816E0,1.3564816E0,0E0,1.7750967E0,0E0,1.5749393E0,1.7453963E0,0E0,1.4032238E0,3.7244158E0,1.4610049E0,0E0,0E0,1.2059658E0,6.5089226E-1,2.8213413E0,0E0,0E0,0E0,0E0,0E0,0E0,0E0,0E0],"parents":[2147483647,0,0,1,1,2,2,4,4,6,6,7,7,9,9,10,10,11,11,14,14,15,15,16,16],"right_children":[2,4,6,-1,8,-1,10,12,-1,14,16,18,-1,-1,20,22,24,-1,-1,-1,-1,-1,-1,-1,-1],"split_conditions":[9.756489E-1,4E0,8E0,-3.3294346E-2,6.303832E-1,-7.521441E-3,1.4E1,-7.382219E1,-2.4297103E-2,2.958065E-1,-8.1594246E1,1.11E2,2.3466285E-2,2.0917023E-2,-8.7620544E1,-1.1235502E2,-7.832888E1,-4.878225E-3,1.4393752E-2,-1.628672E-2,1.1460879E-2,1.5038381E-2,4.2463206E-2,-2.0005103E-2,2.1886922E-2],"split_indices":[0,16,28,0,30,0,21,26,0,30,26,28,0,0,26,26,26,0,0,0,0,0,0,0,0],"split_type":[0,0,0,0,0,0,0,0,0,0,0,0,0,0,0,0,0,0,0,0,0,0,0,0,0],"sum_hessian":[1.1170339E2,7.416377E1,3.7539616E1,8.5362425E0,6.562753E1,3.0543435E0,3.4485275E1,6.1020985E1,4.6065454E0,1.2769514E1,2.171576E1,5.759383E1,3.4271529E0,4.6297984E0,8.139716E0,1.3426144E1,8.289617E0,5.1490925E1,6.102907E0,4.7776084E0,3.3621075E0,3.9838543E0,9.442288E0,3.88045E0,4.409166E0],"tree_param":{"num_deleted":"0","num_feature":"31","num_nodes":"25","size_leaf_vector":"1"}},{"base_weights":[1.0724166E-2,-2.7177138E-2,7.6218806E-2,1.6630621E-1,-4.0854284E-1,8.928604E-2,7.273769E-1,-2.6451329E-2,7.146155E-4,-1.5388381E-1,2.0550099E-1,4.2631853E-2,8.66707E-3,-1.00231385E-2,1.43555235E-2,1.31108975E-2,-1.432529E-3],"categories":[],"categories_nodes":[],"categories_segments":[],"categories_sizes":[],"default_left":[0,0,0,0,0,0,0,0,0,0,0,0,0,0,0,0,0],"id":35,"left_children":[1,-1,3,5,7,9,11,-1,-1,13,15,-1,-1,-1,-1,-1,-1],"loss_changes":[5.139792E0,0E0,4.631669E0,3.7200673E0,1.8629272E0,2.2968545E0,1.4561849E0,0E0,0E0,1.3759229E0,1.6584225E0,0E0,0E0,0E0,0E0,0E0,0E0],"parents":[2147483647,0,0,2,2,3,3,4,4,5,5,6,6,9,9,10,10],"right_children":[2,-1,4,6,8,10,12,-1,-1,14,16,-1,-1,-1,-1,-1,-1],"split_conditions":[4E0,-2.7177138E-2,1.1661E2,1.223406E1,1.9E1,8.770556E-1,3.5761714E-1,-2.6451329E-2,7.146155E-4,4.158625E1,9.7994614E-1,4.2631853E-2,8.66707E-3,-1.00231385E-2,1.43555235E-2,1.31108975E-2,-1.432529E-3],"split_indices":[16,0,7,7,21,0,30,0,0,25,0,0,0,0,0,0,0],"split_type":[0,0,0,0,0,0,0,0,0,0,0,0,0,0,0,0,0],"sum_hessian":[1.1289779E2,8.840456E0,1.0405733E2,8.8477936E1,1.5579392E1,7.897423E1,9.503708E0,9.583035E0,5.9963565E0,2.515498E1,5.3819252E1,4.9444723E0,4.559236E0,2.1758307E1,3.3966734E0,3.575744E1,1.8061811E1],"tree_param":{"num_deleted":"0","num_feature":"31","num_nodes":"17","size_leaf_vector":"1"}},{"base_weights":[-2.917886E-2,-2.7509792E-2,3.136666E-2,1.2606964E-1,-3.0956358E-1,-8.250435E-3,7.8636813E-1,-6.927326E-1,-2.473347E-3,2.4371262E-1,-2.1595874E-1,3.71609E-2,1.2771832E-2,-3.3269055E-2,-1.0347737E-2,-2.603328E-1,1.415978E-2,-1.0969788E-2,1.6484356E-2,-2.0057159E-2,4.1886163E-3,-2.0042917E-2,-7.371852E-5],"categories":[],"categories_nodes":[],"categories_segments":[],"categories_sizes":[],"default_left":[0,0,0,0,0,0,0,0,0,0,0,0,0,0,0,0,0,0,0,0,0,0,0],"id":36,"left_children":[1,-1,3,5,7,9,11,13,15,17,19,-1,-1,-1,-1,21,-1,-1,-1,-1,-1,-1,-1],"loss_changes":[4.6199017E0,0E0,3.408365E0,7.450511E0,2.6197503E0,3.706958E0,5.2304935E-1,2.8064823E-1,1.355262E0,2.9029045E0,3.6670213E0,0E0,0E0,0E0,0E0,4.9464297E-1,0E0,0E0,0E0,0E0,0E0,0E0,0E0],"parents":[2147483647,0,0,2,2,3,3,4,4,5,5,6,6,7,7,8,8,9,9,10,10,15,15],"right_children":[2,-1,4,6,8,10,12,14,16,18,20,-1,-1,-1,-1,22,-1,-1,-1,-1,-1,-1,-1],"split_conditions":[4E0,-2.7509792E-2,6.14E2,3.032455E-1,1.3E1,2.6994225E-1,2.7E1,2.474E3,2.244E3,4E0,3.7356043E-1,3.71609E-2,1.2771832E-2,-3.3269055E-2,-1.0347737E-2,2.324256E-1,1.415978E-2,-1.0969788E-2,1.6484356E-2,-2.0057159E-2,4.1886163E-3,-2.0042917E-2,-7.371852E-5],"split_indices":[16,0,6,7,21,30,21,6,6,29,30,0,0,0,0,30,0,0,0,0,0,0,0],"split_type":[0,0,0,0,0,0,0,0,0,0,0,0,0,0,0,0,0,0,0,0,0,0,0],"sum_hessian":[1.1267762E2,8.753756E0,1.0392386E2,8.205446E1,2.1869402E1,6.887894E1,1.317552E1,9.025939E0,1.2843463E1,3.0827946E1,3.8050995E1,9.171273E0,4.0042467E0,5.968109E0,3.0578299E0,7.77178E0,5.071683E0,7.2636943E0,2.3564253E1,1.9997242E1,1.8053751E1,3.3378267E0,4.4339533E0],"tree_param":{"num_deleted":"0","num_feature":"31","num_nodes":"23","size_leaf_vector":"1"}},{"base_weights":[-1.5204535E-2,-2.910891E-2,5.3175095E-2,1.1167435E-1,-2.7651522E-2,2.5435042E-1,-1.3191037E-2,3.687684E-1,-3.417642E-1,-1.7497407E-1,3.5742992E-1,-3.363073E-3,1.8958403E-2,-2.4544837E-2,1.678151E-4,-2.1317007E-2,-1.2268349E-4,3.5311315E-2,-0E0],"categories":[],"categories_nodes":[],"categories_segments":[],"categories_sizes":[],"default_left":[0,0,0,0,0,0,0,0,0,0,0,0,0,0,0,0,0,0,0],"id":37,"left_children":[1,-1,3,5,-1,7,9,11,13,15,17,-1,-1,-1,-1,-1,-1,-1,-1],"loss_changes":[5.625705E0,0E0,4.5559454E0,1.7656612E0,0E0,3.263429E0,3.1986902E0,1.9451971E0,7.95154E-1,2.251142E0,3.07745E0,0E0,0E0,0E0,0E0,0E0,0E0,0E0,0E0],"parents":[2147483647,0,0,2,2,3,3,5,5,6,6,7,7,8,8,9,9,10,10],"right_children":[2,-1,4,6,-1,8,10,12,14,16,18,-1,-1,-1,-1,-1,-1,-1,-1],"split_conditions":[4E0,-2.910891E-2,6.303832E-1,2.6994225E-1,-2.7651522E-2,1.4168E2,3.032455E-1,5.860215E-1,1.9E1,3.1331488E-1,3.23E2,-3.363073E-3,1.8958403E-2,-2.4544837E-2,1.678151E-4,-2.1317007E-2,-1.2268349E-4,3.5311315E-2,-0E0],"split_indices":[16,0,30,30,0,7,7,0,21,30,6,0,0,0,0,0,0,0,0],"split_type":[0,0,0,0,0,0,0,0,0,0,0,0,0,0,0,0,0,0,0],"sum_hessian":[1.1228729E2,9.1161995E0,1.031711E2,9.6567245E1,6.6038504E0,4.4959095E1,5.160815E1,3.817998E1,6.7791157E0,3.6481148E1,1.5127002E1,7.0556808E0,3.1124298E1,3.524735E0,3.2543805E0,1.0965853E1,2.5515295E1,5.592758E0,9.534244E0],"tree_param":{"num_deleted":"0","num_feature":"31","num_nodes":"19","size_leaf_vector":"1"}},{"base_weights":[-5.3445227E-3,-2.420018E-2,4.541867E-2,-2.5343265E-2,4.5930552E-1,1.509665E-2,-2.7315458E-2,6.7387617E-1,-1.1246035E-2,1.3221526E-1,-2.3333177E-1,1.128749E-2,3.702489E-2,1.1753317E-3,3.5126287E-2,-1.4671613E-2,1.2065762E-2],"categories":[],"categories_nodes":[],"categories_segments":[],"categories_sizes":[],"default_left":[0,0,0,0,0,0,0,0,0,0,0,0,0,0,0,0,0],"id":38,"left_children":[1,-1,3,5,7,9,-1,11,-1,13,15,-1,-1,-1,-1,-1,-1],"loss_changes":[3.4786878E0,0E0,3.0894518E0,2.4495897E0,2.6732795E0,2.4905972E0,0E0,8.336692E-1,0E0,4.378622E0,2.065264E0,0E0,0E0,0E0,0E0,0E0,0E0],"parents":[2147483647,0,0,2,2,3,3,4,4,5,5,7,7,9,9,10,10],"right_children":[2,-1,4,6,8,10,-1,12,-1,14,16,-1,-1,-1,-1,-1,-1],"split_conditions":[4E0,-2.420018E-2,-7.6673454E1,6.3611215E-1,3E1,-8.419014E1,-2.7315458E-2,9.047849E-1,-1.1246035E-2,-8.68664E1,1.223406E1,1.128749E-2,3.702489E-2,1.1753317E-3,3.5126287E-2,-1.4671613E-2,1.2065762E-2],"split_indices":[16,0,26,30,21,26,0,0,0,26,7,0,0,0,0,0,0],"split_type":[0,0,0,0,0,0,0,0,0,0,0,0,0,0,0,0,0],"sum_hessian":[1.10536705E2,7.9286137E0,1.0260809E2,8.8222E1,1.4386095E1,8.388773E1,4.3342648E0,1.1328324E1,3.0577703E0,5.7602192E1,2.6285542E1,5.4174776E0,5.9108467E0,5.1654766E1,5.947428E0,2.1438625E1,4.846917E0],"tree_param":{"num_deleted":"0","num_feature":"31","num_nodes":"17","size_leaf_vector":"1"}},{"base_weights":[-5.823064E-2,-2.0723508E-1,1.83862E-1,-1.4603601E-1,-2.8455338E-2,3.3578116E-1,-3.403496E-2,-3.1575876E-1,2.9736685E-2,-0E0,5.4411966E-1,-2.9682055E-1,3.2816723E-1,6.266461E-2,-4.072287E-1,-2.8797132E-1,2.5601843E-1,1.0599436E-2,-1.5125949E-2,2.3413725E-1,8.595762E-1,-3.1076726E-2,-0E0,-1.0636302E-2,3.0434621E-2,-2.78936E-3,8.154943E-3,-1.919603E-2,1.5233395E-3,-1.8717881E-2,6.2046805E-3,1.5845941E-2,-7.250391E-3,2.2412177E-2,-9.277821E-3,1.4042937E-2,4.462244E-2,2.058066E-2,-1.7163923E-2],"categories":[],"categories_nodes":[],"categories_segments":[],"categories_sizes":[],"default_left":[1,0,0,0,0,0,0,0,0,0,0,0,0,0,0,0,0,0,0,0,0,0,0,0,0,0,0,0,0,0,0,0,0,0,0,0,0,0,0],"id":39,"left_children":[1,3,5,7,-1,9,11,13,15,17,19,21,23,25,27,29,31,-1,-1,33,35,-1,37,-1,-1,-1,-1,-1,-1,-1,-1,-1,-1,-1,-1,-1,-1,-1,-1],"loss_changes":[4.0656443E0,1.9638813E0,1.4579756E0,1.9376638E0,0E0,1.7813542E0,1.8279456E0,1.1943529E0,2.3642871E0,1.1825604E0,1.2300339E0,1.5948529E0,2.3014286E0,1.5912332E-1,9.277668E-1,1.1850989E0,1.278813E0,0E0,0E0,1.6040956E0,4.0861177E-1,0E0,1.9769552E0,0E0,0E0,0E0,0E0,0E0,0E0,0E0,0E0,0E0,0E0,0E0,0E0,0E0,0E0,0E0,0E0],"parents":[2147483647,0,0,1,1,2,2,3,3,5,5,6,6,7,7,8,8,9,9,10,10,11,11,12,12,13,13,14,14,15,15,16,16,19,19,20,20,22,22],"right_children":[2,4,6,8,-1,10,12,14,16,18,20,22,24,26,28,30,32,-1,-1,34,36,-1,38,-1,-1,-1,-1,-1,-1,-1,-1,-1,-1,-1,-1,-1,-1,-1,-1],"split_conditions":[9.359643E-1,6.1589617E-1,8.1E1,8.770556E-1,-2.8455338E-2,3E1,1.8E1,1.4E1,1.6E1,2E0,1.8E1,-1.0906061E2,3.4189323E1,-9.275756E1,4.1641373E1,-8.366516E1,3.3E1,1.0599436E-2,-1.5125949E-2,-8.342591E1,-8.8011024E1,-3.1076726E-2,3.8863544E1,-1.0636302E-2,3.0434621E-2,-2.78936E-3,8.154943E-3,-1.919603E-2,1.5233395E-3,-1.8717881E-2,6.2046805E-3,1.5845941E-2,-7.250391E-3,2.2412177E-2,-9.277821E-3,1.4042937E-2,4.462244E-2,2.058066E-2,-1.7163923E-2],"split_indices":[5,30,28,5,0,28,21,21,21,2,29,26,25,26,25,26,21,0,0,26,26,0,25,0,0,0,0,0,0,0,0,0,0,0,0,0,0,0,0],"split_type":[0,0,0,0,0,0,0,0,0,0,0,0,0,0,0,0,0,0,0,0,0,0,0,0,0,0,0,0,0,0,0,0,0,0,0,0,0,0,0],"sum_hessian":[1.1058534E2,6.879815E1,4.1787197E1,6.267767E1,6.1204805E0,2.4572803E1,1.7214392E1,3.1771873E1,3.0905796E1,9.817335E0,1.4755469E1,1.0240955E1,6.973437E0,6.033235E0,2.5738638E1,1.255856E1,1.8347237E1,5.9701037E0,3.8472311E0,8.480929E0,6.27454E0,3.2829704E0,6.957985E0,3.003765E0,3.9696717E0,3.009499E0,3.023736E0,2.2253845E1,3.4847925E0,9.051546E0,3.5070145E0,1.4139E1,4.208236E0,4.9966464E0,3.4842825E0,3.0258765E0,3.2486634E0,3.0639737E0,3.894011E0],"tree_param":{"num_deleted":"0","num_feature":"31","num_nodes":"39","size_leaf_vector":"1"}},{"base_weights":[3.9926942E-2,-5.8694226E-1,9.795552E-2,-3.1929784E-2,-1.31622E-2,1.7201747E-1,-1.8045636E-1,5.272851E-2,8.3048517E-1,-2.499528E-2,1.7650789E-1,-1.9183513E-2,1.0168059E-1,4.30851E-2,1.8874398E-2,-1.2032772E-2,2.5110126E-2,2.419937E-2,1.3453707E-3],"categories":[],"categories_nodes":[],"categories_segments":[],"categories_sizes":[],"default_left":[0,0,0,0,0,0,0,0,0,0,0,0,0,0,0,0,0,0,0],"id":40,"left_children":[1,3,5,-1,-1,7,9,11,13,-1,15,-1,17,-1,-1,-1,-1,-1,-1],"loss_changes":[3.9408388E0,1.23523E-1,2.0909991E0,0E0,0E0,6.1312017E0,3.5190902E0,1.8012918E0,4.0124702E-1,0E0,2.895464E0,0E0,2.1047893E0,0E0,0E0,0E0,0E0,0E0,0E0],"parents":[2147483647,0,0,1,1,2,2,5,5,6,6,7,7,8,8,10,10,12,12],"right_children":[2,4,6,-1,-1,8,10,12,14,-1,16,-1,18,-1,-1,-1,-1,-1,-1],"split_conditions":[4E0,2.9E1,6.17E2,-3.1929784E-2,-1.31622E-2,4.5960647E-1,1.4E1,1E0,1.426E1,-2.499528E-2,6.7E1,-1.9183513E-2,2.1E1,4.30851E-2,1.8874398E-2,-1.2032772E-2,2.5110126E-2,2.419937E-2,1.3453707E-3],"split_indices":[16,29,6,0,0,7,21,8,7,0,28,0,28,0,0,0,0,0,0],"split_type":[0,0,0,0,0,0,0,0,0,0,0,0,0,0,0,0,0,0,0],"sum_hessian":[1.0709897E2,8.155797E0,9.894317E1,3.1179686E0,5.037828E0,7.873875E1,2.0204422E1,6.770514E1,1.1033614E1,8.790152E0,1.1414271E1,4.7889605E0,6.2916176E1,5.1851954E0,5.8484187E0,5.601137E0,5.813134E0,6.3783607E0,5.6537815E1],"tree_param":{"num_deleted":"0","num_feature":"31","num_nodes":"19","size_leaf_vector":"1"}},{"base_weights":[3.7148394E-2,-2.695734E-2,1.0263436E-1,1.4018501E-1,-3.1502116E-2,-7.720447E-2,2.439676E-1,-1.5696165E-1,1.5613096E-2,3.2256413E-1,-1.9748327E-1,8.973718E-3,-1.0859296E-2,3.2523458E-3,1.9124692E-2,-2.0757414E-2,1.4537058E-2],"categories":[],"categories_nodes":[],"categories_segments":[],"categories_sizes":[],"default_left":[0,0,0,0,0,0,0,0,0,0,0,0,0,0,0,0,0],"id":41,"left_children":[1,-1,3,5,-1,7,9,11,-1,13,15,-1,-1,-1,-1,-1,-1],"loss_changes":[5.067313E0,0E0,3.4018693E0,2.23064E0,0E0,1.2270148E0,2.3803375E0,1.2942913E0,0E0,2.0421672E0,2.0909448E0,0E0,0E0,0E0,0E0,0E0,0E0],"parents":[2147483647,0,0,2,2,3,3,5,5,6,6,7,7,9,9,10,10],"right_children":[2,-1,4,6,-1,8,10,12,-1,14,16,-1,-1,-1,-1,-1,-1],"split_conditions":[4E0,-2.695734E-2,8.178832E-1,9.1088027E-1,-3.1502116E-2,1.03E2,2.3529E2,3.2E1,1.5613096E-2,1.6E1,-8.820126E1,8.973718E-3,-1.0859296E-2,3.2523458E-3,1.9124692E-2,-2.0757414E-2,1.4537058E-2],"split_indices":[16,0,30,5,0,28,7,28,0,21,26,0,0,0,0,0,0],"split_type":[0,0,0,0,0,0,0,0,0,0,0,0,0,0,0,0,0],"sum_hessian":[1.0756175E2,8.158125E0,9.9403625E1,9.6296425E1,3.1072009E0,3.0888334E1,6.540809E1,2.7137123E1,3.75121E0,5.594364E1,9.46445E0,5.8446827E0,2.129244E1,2.2779427E1,3.3164215E1,6.177371E0,3.287079E0],"tree_param":{"num_deleted":"0","num_feature":"31","num_nodes":"17","size_leaf_vector":"1"}},{"base_weights":[-2.3270056E-2,-2.5222464E-2,2.9481512E-2,6.899911E-2,-2.195258E-2,-1.305377E-2,2.7512127E-1,1.7300466E-1,-1.7240047E-1,5.267032E-1,-1.1227202E-1,-2.1335906E-3,1.7927177E-2,-1.4034064E-2,6.796673E-3,7.5483327E-3,3.3018257E-2,1.2038476E-2,-1.28344735E-2],"categories":[],"categories_nodes":[],"categories_segments":[],"categories_sizes":[],"default_left":[0,0,0,0,0,0,0,0,0,0,0,0,0,0,0,0,0,0,0],"id":42,"left_children":[1,-1,3,5,-1,7,9,11,13,15,17,-1,-1,-1,-1,-1,-1,-1,-1],"loss_changes":[3.6248944E0,0E0,2.3357892E0,1.6726615E0,0E0,2.1076708E0,2.8343897E0,2.0902898E0,2.432218E0,1.4935875E0,1.1080852E0,0E0,0E0,0E0,0E0,0E0,0E0,0E0,0E0],"parents":[2147483647,0,0,2,2,3,3,5,5,6,6,7,7,8,8,9,9,10,10],"right_children":[2,-1,4,6,-1,8,10,12,14,16,18,-1,-1,-1,-1,-1,-1,-1,-1],"split_conditions":[4E0,-2.5222464E-2,6.303832E-1,4.5960647E-1,-2.195258E-2,2.6994225E-1,1.4766E2,1.7516133E-1,3.9504918E-1,2.7259815E-1,1.5E1,-2.1335906E-3,1.7927177E-2,-1.4034064E-2,6.796673E-3,7.5483327E-3,3.3018257E-2,1.2038476E-2,-1.28344735E-2],"split_indices":[16,0,30,7,0,30,7,30,30,30,29,0,0,0,0,0,0,0,0],"split_type":[0,0,0,0,0,0,0,0,0,0,0,0,0,0,0,0,0,0,0],"sum_hessian":[1.09695564E2,8.043117E0,1.0165245E2,9.6136604E1,5.515845E0,6.908632E1,2.7050285E1,3.1542727E1,3.7543594E1,1.6338333E1,1.0711952E1,1.7549871E1,1.3992854E1,2.485421E1,1.2689384E1,8.588314E0,7.7500186E0,3.2839406E0,7.428012E0],"tree_param":{"num_deleted":"0","num_feature":"31","num_nodes":"19","size_leaf_vector":"1"}},{"base_weights":[4.169403E-2,8.458414E-2,-2.7242858E-2,-4.2560375E-1,1.2792906E-1,-2.3605417E-2,-3.6933434E-3,-1.5148329E-2,1.5398762E-1,8.579006E-2,3.887258E-1,9.7111035E-3,-5.714924E-3,3.1905904E-2,4.92013E-3],"categories":[],"categories_nodes":[],"categories_segments":[],"categories_sizes":[],"default_left":[0,0,0,0,0,0,0,0,0,0,0,0,0,0,0],"id":43,"left_children":[1,3,-1,5,7,-1,-1,-1,9,11,13,-1,-1,-1,-1],"loss_changes":[3.3505888E0,2.3049233E0,0E0,3.227756E-1,1.3031021E0,0E0,0E0,0E0,1.3950479E0,2.6669784E0,1.9983358E0,0E0,0E0,0E0,0E0],"parents":[2147483647,0,0,1,1,3,3,4,4,8,8,9,9,10,10],"right_children":[2,4,-1,6,8,-1,-1,-1,10,12,14,-1,-1,-1,-1],"split_conditions":[6.3611215E-1,1E0,-2.7242858E-2,-8.724792E1,1E0,-2.3605417E-2,-3.6933434E-3,-1.5148329E-2,3.8792813E-1,2.6994225E-1,-9.3096245E1,9.7111035E-3,-5.714924E-3,3.1905904E-2,4.92013E-3],"split_indices":[30,8,0,26,17,0,0,0,30,30,26,0,0,0,0],"split_type":[0,0,0,0,0,0,0,0,0,0,0,0,0,0,0],"sum_hessian":[1.0715111E2,1.02112885E2,5.03822E0,7.124809E0,9.4988075E1,4.05306E0,3.0717487E0,3.79692E0,9.1191154E1,7.205018E1,1.914098E1,4.2943283E1,2.9106894E1,6.602388E0,1.2538591E1],"tree_param":{"num_deleted":"0","num_feature":"31","num_nodes":"15","size_leaf_vector":"1"}},{"base_weights":[-3.186741E-2,-3.2975355E-1,9.630027E-2,-3.9627853E-1,2.2158676E-3,1.6798286E-1,-4.410349E-1,-1.7828831E-1,-5.253036E-1,7.540384E-2,5.758947E-1,-2.8709488E-2,3.5763366E-4,2.6849564E-2,-2.4176912E-2,-1.0443915E-2,-6.350355E-1,1.2383024E-1,-1.733404E-2,1.2409598E-1,4.5024388E-2,-1.2116623E-2,1.5047099E-2,-1.0603713E-2,-3.0159313E-2,1.7499415E-2,1.6312472E-3,1.3720368E-2,-6.005087E-3],"categories":[],"categories_nodes":[],"categories_segments":[],"categories_sizes":[],"default_left":[0,0,0,0,0,0,0,0,0,0,0,0,0,0,0,0,0,0,0,0,0,0,0,0,0,0,0,0,0],"id":44,"left_children":[1,3,5,7,-1,9,11,13,15,17,19,-1,-1,21,-1,-1,23,25,-1,27,-1,-1,-1,-1,-1,-1,-1,-1,-1],"loss_changes":[4.200698E0,9.0477204E-1,2.991726E0,6.4011955E-1,0E0,2.4724827E0,1.2116747E0,1.1607615E0,2.4202204E-1,1.4283676E0,2.7881951E0,0E0,0E0,1.1800771E0,0E0,0E0,1.8918085E-1,1.3162925E0,0E0,5.4926956E-1,0E0,0E0,0E0,0E0,0E0,0E0,0E0,0E0,0E0],"parents":[2147483647,0,0,1,1,2,2,3,3,5,5,6,6,7,7,8,8,9,9,10,10,13,13,16,16,17,17,19,19],"right_children":[2,4,6,8,-1,10,12,14,16,18,20,-1,-1,22,-1,-1,24,26,-1,28,-1,-1,-1,-1,-1,-1,-1,-1,-1],"split_conditions":[8.770556E-1,4.2049538E1,5.8023584E-1,3.489408E1,2.2158676E-3,3.8792813E-1,1.6E1,8.6455333E-1,2E0,3E0,3.890843E1,-2.8709488E-2,3.5763366E-4,2E0,-2.4176912E-2,-1.0443915E-2,2.2413625E-1,8.8149434E-1,-1.733404E-2,3.4248108E1,4.5024388E-2,-1.2116623E-2,1.5047099E-2,-1.0603713E-2,-3.0159313E-2,1.7499415E-2,1.6312472E-3,1.3720368E-2,-6.005087E-3],"split_indices":[5,25,30,25,0,30,21,5,27,27,25,0,0,27,0,0,30,0,0,25,0,0,0,0,0,0,0,0,0],"split_type":[0,0,0,0,0,0,0,0,0,0,0,0,0,0,0,0,0,0,0,0,0,0,0,0,0,0,0,0,0],"sum_hessian":[1.0758212E2,3.2124966E1,7.545715E1,2.7590202E1,4.534764E0,6.734637E1,8.1107855E0,1.1432182E1,1.615802E1,5.6054363E1,1.1292006E1,4.791524E0,3.3192618E0,8.191285E0,3.240897E0,6.0006795E0,1.015734E1,5.205282E1,4.001546E0,6.9706445E0,4.321361E0,4.134716E0,4.056569E0,3.4613686E0,6.695972E0,9.7516E0,4.2301216E1,3.939531E0,3.0311134E0],"tree_param":{"num_deleted":"0","num_feature":"31","num_nodes":"29","size_leaf_vector":"1"}},{"base_weights":[-1.1638157E-2,-1.8140392E-1,1.7107949E-1,-2.8543111E-2,-1.02846004E-1,3.0367103E-1,-3.6114175E-2,3.9355736E-2,-4.3955022E-1,3.595288E-1,-5.5353045E-3,-2.784756E-1,2.4773172E-1,-1.2920511E-1,3.1116052E-2,-2.3283695E-1,-2.9125301E-2,1.4432542E-1,5.148148E-1,4.9852747E-3,-4.4575462E-1,2.3485942E-2,8.150029E-3,-1.5276821E-2,-0E0,-1.710656E-2,6.7468625E-3,1.756748E-2,-3.251705E-3,2.5781278E-2,-1.9044809E-4,-2.7202819E-2,-6.7761233E-3,-1.5607068E-2,1.6828738E-2],"categories":[],"categories_nodes":[],"categories_segments":[],"categories_sizes":[],"default_left":[0,0,0,0,0,0,0,0,0,0,0,0,0,0,0,0,0,0,0,0,0,0,0,0,0,0,0,0,0,0,0,0,0,0,0],"id":45,"left_children":[1,3,5,-1,7,9,11,13,15,17,-1,19,21,23,-1,25,-1,27,29,-1,31,-1,33,-1,-1,-1,-1,-1,-1,-1,-1,-1,-1,-1,-1],"loss_changes":[3.4231963E0,2.246306E0,1.4905635E0,0E0,2.5175385E0,8.780217E-1,1.532954E0,4.7509527E0,6.618757E-1,8.4442854E-1,0E0,9.046595E-1,7.586294E-1,9.999053E-1,0E0,9.374714E-1,0E0,1.0034623E0,1.1760969E0,0E0,3.7980902E-1,0E0,1.3371753E0,0E0,0E0,0E0,0E0,0E0,0E0,0E0,0E0,0E0,0E0,0E0,0E0],"parents":[2147483647,0,0,1,1,2,2,4,4,5,5,6,6,7,7,8,8,9,9,11,11,12,12,13,13,15,15,17,17,18,18,20,20,22,22],"right_children":[2,4,6,-1,8,10,12,14,16,18,-1,20,22,24,-1,26,-1,28,30,-1,32,-1,34,-1,-1,-1,-1,-1,-1,-1,-1,-1,-1,-1,-1],"split_conditions":[9.047849E-1,4E0,9.7994614E-1,-2.8543111E-2,5E2,4E0,9.7E1,1E0,4.8344526E-1,9.551345E-1,-5.5353045E-3,9E0,3.8237362E0,3E0,3.1116052E-2,2.5861874E-1,-2.9125301E-2,1.8E1,4.2549557E1,4.9852747E-3,1.9E1,2.3485942E-2,1.805E3,-1.5276821E-2,-0E0,-1.710656E-2,6.7468625E-3,1.756748E-2,-3.251705E-3,2.5781278E-2,-1.9044809E-4,-2.7202819E-2,-6.7761233E-3,-1.5607068E-2,1.6828738E-2],"split_indices":[0,16,0,0,6,14,6,4,30,0,0,29,7,14,0,30,0,29,25,0,29,0,6,0,0,0,0,0,0,0,0,0,0,0,0],"split_type":[0,0,0,0,0,0,0,0,0,0,0,0,0,0,0,0,0,0,0,0,0,0,0,0,0,0,0,0,0,0,0,0,0,0,0],"sum_hessian":[1.0832356E2,5.6439365E1,5.1884193E1,6.0562406E0,5.0383125E1,3.1648226E1,2.0235968E1,3.5834927E1,1.45482E1,2.8464376E1,3.183849E0,1.1115897E1,9.12007E0,2.9737488E1,6.0974374E0,9.731103E0,4.817096E0,1.3009092E1,1.5455284E1,3.1594427E0,7.9564548E0,3.0007591E0,6.1193113E0,9.37297E0,2.0364517E1,6.6757135E0,3.0553896E0,5.4209943E0,7.588098E0,1.232916E1,3.1261249E0,3.3193026E0,4.637152E0,3.0176854E0,3.101626E0],"tree_param":{"num_deleted":"0","num_feature":"31","num_nodes":"35","size_leaf_vector":"1"}},{"base_weights":[-7.0303935E-3,-2.4346249E-1,8.870221E-2,-2.8017137E-2,-1.52267E-1,1.3231611E-1,-2.2542803E-2,-1.9204598E-2,-3.5083644E-2,5.7960942E-2,5.796327E-1,-1.7414393E-2,5.8793787E-2,1.4406933E-1,-3.139206E-1,3.635189E-2,-3.8326143E-3,-1.1208947E-2,7.763959E-3,1.3561952E-2,1.3607612E-3,-1.3203452E-3,-2.7957303E-2],"categories":[],"categories_nodes":[],"categories_segments":[],"categories_sizes":[],"default_left":[0,0,0,0,0,0,0,0,0,0,0,0,0,0,0,0,0,0,0,0,0,0,0],"id":46,"left_children":[1,3,5,-1,7,9,-1,-1,11,13,15,-1,17,19,21,-1,-1,-1,-1,-1,-1,-1,-1],"loss_changes":[2.5209842E0,1.1498082E0,2.2658985E0,0E0,1.0188837E0,2.3830543E0,0E0,0E0,8.956531E-1,2.1176534E0,2.4643383E0,0E0,8.999956E-1,1.1074011E0,1.2409503E0,0E0,0E0,0E0,0E0,0E0,0E0,0E0,0E0],"parents":[2147483647,0,0,1,1,2,2,4,4,5,5,8,8,9,9,10,10,12,12,13,13,14,14],"right_children":[2,4,6,-1,8,10,-1,-1,12,14,16,-1,18,20,22,-1,-1,-1,-1,-1,-1,-1,-1],"split_conditions":[8.770556E-1,1E0,6.3611215E-1,-2.8017137E-2,3.155022E1,1.09E2,-2.2542803E-2,-1.9204598E-2,1.6114841E-1,9.8E1,1.29E2,-1.7414393E-2,3.5447153E-1,3.5387215E1,1.633E1,3.635189E-2,-3.8326143E-3,-1.1208947E-2,7.763959E-3,1.3561952E-2,1.3607612E-3,-1.3203452E-3,-2.7957303E-2],"split_indices":[5,20,30,0,25,28,0,0,30,28,28,0,0,25,7,0,0,0,0,0,0,0,0],"split_type":[0,0,0,0,0,0,0,0,0,0,0,0,0,0,0,0,0,0,0,0,0,0,0],"sum_hessian":[1.0874127E2,3.1196438E1,7.754484E1,3.896191E0,2.7300247E1,7.357568E1,3.9691498E0,6.1483374E0,2.1151909E1,6.424902E1,9.32666E0,3.5296807E0,1.7622229E1,5.288509E1,1.1363936E1,6.138013E0,3.188647E0,4.5105596E0,1.3111669E1,1.8001593E1,3.48835E1,7.3480954E0,4.015841E0],"tree_param":{"num_deleted":"0","num_feature":"31","num_nodes":"23","size_leaf_vector":"1"}},{"base_weights":[-4.3605294E-2,-1.556686E-1,1.3435459E-1,-4.394656E-2,-4.1808453E-1,3.4511015E-1,-4.493032E-2,-2.2950461E-2,1.6464636E-2,-3.0749513E-2,-1.4546052E-1,4.6519598E-1,-6.1937706E-3,-2.1617723E-1,3.0103337E-2,2.3622448E-2,-7.304054E-2,-1.5934458E-2,4.267558E-3,6.202884E-1,-1.7157263E-3,-3.5963573E-2,-2.6024958E-2,-8.224725E-3,1.0261672E-2,4.17421E-3,3.2517944E-2,1.2576065E-2,-1.5395889E-2],"categories":[],"categories_nodes":[],"categories_segments":[],"categories_sizes":[],"default_left":[1,0,0,0,0,0,0,0,0,0,0,0,0,0,0,0,0,0,0,0,0,0,0,0,0,0,0,0,0],"id":47,"left_children":[1,3,5,7,9,11,13,-1,15,-1,17,19,-1,21,-1,-1,23,-1,-1,25,-1,27,-1,-1,-1,-1,-1,-1,-1],"loss_changes":[2.213485E0,1.935009E0,1.6563873E0,1.6406239E0,1.706953E0,1.301878E0,3.3409305E0,0E0,2.4065256E0,0E0,8.7742054E-1,1.385463E0,0E0,1.5020933E0,0E0,0E0,1.7805433E0,0E0,0E0,1.1022668E0,0E0,2.0367823E0,0E0,0E0,0E0,0E0,0E0,0E0,0E0],"parents":[2147483647,0,0,1,1,2,2,3,3,4,4,5,5,6,6,8,8,10,10,11,11,13,13,16,16,19,19,21,21],"right_children":[2,4,6,8,10,12,14,-1,16,-1,18,20,-1,22,-1,-1,24,-1,-1,26,-1,28,-1,-1,-1,-1,-1,-1,-1],"split_conditions":[9.359643E-1,4.0928974E1,2.881752E-1,8E0,4.2104954E1,3.2030306E0,4.5960647E-1,-2.2950461E-2,1.3E1,-3.0749513E-2,2.5861874E-1,9.3E1,-6.1937706E-3,2.7481624E-1,3.0103337E-2,2.3622448E-2,1.4610655E0,-1.5934458E-2,4.267558E-3,1.4E1,-1.7157263E-3,7.4E1,-2.6024958E-2,-8.224725E-3,1.0261672E-2,4.17421E-3,3.2517944E-2,1.2576065E-2,-1.5395889E-2],"split_indices":[5,25,30,21,25,7,7,0,21,0,30,28,0,7,0,0,7,0,0,21,0,28,0,0,0,0,0,0,0],"split_type":[0,0,0,0,0,0,0,0,0,0,0,0,0,0,0,0,0,0,0,0,0,0,0,0,0,0,0,0,0],"sum_hessian":[1.08836205E2,6.720418E1,4.163203E1,4.8222343E1,1.8981836E1,1.89677E1,2.2664331E1,4.235358E0,4.3986984E1,7.3463135E0,1.1635522E1,1.5511481E1,3.4562173E0,1.9361286E1,3.303045E0,5.328507E0,3.8658478E1,5.717605E0,5.9179173E0,1.1865553E1,3.645928E0,1.4612716E1,4.74857E0,2.805331E1,1.0605166E1,3.7864242E0,8.079129E0,7.1977816E0,7.4149346E0],"tree_param":{"num_deleted":"0","num_feature":"31","num_nodes":"29","size_leaf_vector":"1"}},{"base_weights":[-5.8525067E-2,-4.088748E-1,1.0666405E-2,-1.1074714E-1,-5.519705E-1,-1.5659235E-1,1.7814521E-1,-1.4806139E-2,6.8374714E-3,-9.1626E-3,-2.6442736E-2,-2.6866356E-1,2.5290638E-1,3.0261392E-2,5.2015805E-1,1.3874749E-2,-3.6002386E-1,2.1324083E-2,-3.3751328E-3,1.318836E-1,-1.55163715E-2,-4.3469225E-3,7.816625E-1,8.936246E-3,-1.735732E-2,1.8456101E-2,-3.0250065E-3,4.6827696E-2,1.7605754E-2],"categories":[],"categories_nodes":[],"categories_segments":[],"categories_sizes":[],"default_left":[0,0,0,0,0,0,0,0,0,0,0,0,0,0,0,0,0,0,0,0,0,0,0,0,0,0,0,0,0],"id":48,"left_children":[1,3,5,7,9,11,13,-1,-1,-1,-1,15,17,19,21,-1,23,-1,-1,25,-1,-1,27,-1,-1,-1,-1,-1,-1],"loss_changes":[2.7889175E0,