{"learner":{"attributes":{"scikit_learn":"{\"_estimator_type\": \"classifier\"}"},"feature_names":["confidence","confidence_bucket","source_count","has_meta","has_msft","meta_conf","msft_age_days","msft_age_x_conf","has_phone","phone_count","has_website","website_count","has_social","has_brand","presence_score","presence_ratio","addr_completeness","addr_has_region","addr_has_locality","addr_has_postcode","addr_has_freeform","name_len","name_words","name_has_digit","name_has_hash","lat","lon","alt_cat_count","primary_cat_enc","addr_region_enc","days_since_latest_update","days_since_oldest_update","update_span_days","google_closed_high_conf_conflict","google_matched","google_name_score","google_is_permanently_closed","google_is_operational","google_rating","google_rating_count","google_has_hours","google_has_moved","cat_closure_rate"],"feature_types":["float","float","int","int","int","float","float","float","int","int","int","int","int","int","int","float","int","int","int","int","int","int","int","int","int","float","float","int","int","int","int","int","int","int","float","float","float","float","float","float","float","float","float"],"gradient_booster":{"model":{"cats":{"enc":[],"feature_segments":[],"sorted_idx":[]},"gbtree_model_param":{"num_parallel_tree":"1","num_trees":"600"},"iteration_indptr":[0,1,2,3,4,5,6,7,8,9,10,11,12,13,14,15,16,17,18,19,20,21,22,23,24,25,26,27,28,29,30,31,32,33,34,35,36,37,38,39,40,41,42,43,44,45,46,47,48,49,50,51,52,53,54,55,56,57,58,59,60,61,62,63,64,65,66,67,68,69,70,71,72,73,74,75,76,77,78,79,80,81,82,83,84,85,86,87,88,89,90,91,92,93,94,95,96,97,98,99,100,101,102,103,104,105,106,107,108,109,110,111,112,113,114,115,116,117,118,119,120,121,122,123,124,125,126,127,128,129,130,131,132,133,134,135,136,137,138,139,140,141,142,143,144,145,146,147,148,149,150,151,152,153,154,155,156,157,158,159,160,161,162,163,164,165,166,167,168,169,170,171,172,173,174,175,176,177,178,179,180,181,182,183,184,185,186,187,188,189,190,191,192,193,194,195,196,197,198,199,200,201,202,203,204,205,206,207,208,209,210,211,212,213,214,215,216,217,218,219,220,221,222,223,224,225,226,227,228,229,230,231,232,233,234,235,236,237,238,239,240,241,242,243,244,245,246,247,248,249,250,251,252,253,254,255,256,257,258,259,260,261,262,263,264,265,266,267,268,269,270,271,272,273,274,275,276,277,278,279,280,281,282,283,284,285,286,287,288,289,290,291,292,293,294,295,296,297,298,299,300,301,302,303,304,305,306,307,308,309,310,311,312,313,314,315,316,317,318,319,320,321,322,323,324,325,326,327,328,329,330,331,332,333,334,335,336,337,338,339,340,341,342,343,344,345,346,347,348,349,350,351,352,353,354,355,356,357,358,359,360,361,362,363,364,365,366,367,368,369,370,371,372,373,374,375,376,377,378,379,380,381,382,383,384,385,386,387,388,389,390,391,392,393,394,395,396,397,398,399,400,401,402,403,404,405,406,407,408,409,410,411,412,413,414,415,416,417,418,419,420,421,422,423,424,425,426,427,428,429,430,431,432,433,434,435,436,437,438,439,440,441,442,443,444,445,446,447,448,449,450,451,452,453,454,455,456,457,458,459,460,461,462,463,464,465,466,467,468,469,470,471,472,473,474,475,476,477,478,479,480,481,482,483,484,485,486,487,488,489,490,491,492,493,494,495,496,497,498,499,500,501,502,503,504,505,506,507,508,509,510,511,512,513,514,515,516,517,518,519,520,521,522,523,524,525,526,527,528,529,530,531,532,533,534,535,536,537,538,539,540,541,542,543,544,545,546,547,548,549,550,551,552,553,554,555,556,557,558,559,560,561,562,563,564,565,566,567,568,569,570,571,572,573,574,575,576,577,578,579,580,581,582,583,584,585,586,587,588,589,590,591,592,593,594,595,596,597,598,599,600],"tree_info":[0,0,0,0,0,0,0,0,0,0,0,0,0,0,0,0,0,0,0,0,0,0,0,0,0,0,0,0,0,0,0,0,0,0,0,0,0,0,0,0,0,0,0,0,0,0,0,0,0,0,0,0,0,0,0,0,0,0,0,0,0,0,0,0,0,0,0,0,0,0,0,0,0,0,0,0,0,0,0,0,0,0,0,0,0,0,0,0,0,0,0,0,0,0,0,0,0,0,0,0,0,0,0,0,0,0,0,0,0,0,0,0,0,0,0,0,0,0,0,0,0,0,0,0,0,0,0,0,0,0,0,0,0,0,0,0,0,0,0,0,0,0,0,0,0,0,0,0,0,0,0,0,0,0,0,0,0,0,0,0,0,0,0,0,0,0,0,0,0,0,0,0,0,0,0,0,0,0,0,0,0,0,0,0,0,0,0,0,0,0,0,0,0,0,0,0,0,0,0,0,0,0,0,0,0,0,0,0,0,0,0,0,0,0,0,0,0,0,0,0,0,0,0,0,0,0,0,0,0,0,0,0,0,0,0,0,0,0,0,0,0,0,0,0,0,0,0,0,0,0,0,0,0,0,0,0,0,0,0,0,0,0,0,0,0,0,0,0,0,0,0,0,0,0,0,0,0,0,0,0,0,0,0,0,0,0,0,0,0,0,0,0,0,0,0,0,0,0,0,0,0,0,0,0,0,0,0,0,0,0,0,0,0,0,0,0,0,0,0,0,0,0,0,0,0,0,0,0,0,0,0,0,0,0,0,0,0,0,0,0,0,0,0,0,0,0,0,0,0,0,0,0,0,0,0,0,0,0,0,0,0,0,0,0,0,0,0,0,0,0,0,0,0,0,0,0,0,0,0,0,0,0,0,0,0,0,0,0,0,0,0,0,0,0,0,0,0,0,0,0,0,0,0,0,0,0,0,0,0,0,0,0,0,0,0,0,0,0,0,0,0,0,0,0,0,0,0,0,0,0,0,0,0,0,0,0,0,0,0,0,0,0,0,0,0,0,0,0,0,0,0,0,0,0,0,0,0,0,0,0,0,0,0,0,0,0,0,0,0,0,0,0,0,0,0,0,0,0,0,0,0,0,0,0,0,0,0,0,0,0,0,0,0,0,0,0,0,0,0,0,0,0,0,0,0,0,0,0,0,0,0,0,0,0,0,0,0,0,0,0,0,0,0,0,0,0,0,0,0,0,0,0,0,0,0,0,0,0,0,0,0,0,0,0,0,0,0,0,0,0,0,0,0,0,0,0,0,0,0,0,0,0,0,0,0,0,0,0,0,0,0,0,0,0,0,0,0,0,0,0,0,0,0,0,0,0,0,0,0,0,0,0,0,0,0,0,0,0,0,0],"trees":[{"base_weights":[2.2245437E-2,-5.256628E-1,6.6536576E-1,-6.2207226E-2,-3.0751455E-1,1.0650096E0,3.5302752E-1,-1.5189993E-1,-5.1839728E-2,8.58265E-3,1.1922312E0,6.5088385E-1,-2.9713923E-2,-3.7962403E-2,-4.6830654E-2,2.4493137E-2,5.1617797E-2,8.905963E-1,-1.824039E-2,-3.2905942E-1,2.5033398E-2,-8.194387E-3,2.0692015E-2,2.4000619E-2,4.431185E-2,-4.03515E-3,-2.8202476E-2],"categories":[],"categories_nodes":[],"categories_segments":[],"categories_sizes":[],"default_left":[0,0,0,0,0,0,0,0,0,0,0,0,0,0,0,0,0,0,0,0,0,0,0,0,0,0,0],"id":0,"left_children":[1,3,5,-1,7,9,11,13,-1,-1,15,17,19,-1,21,-1,-1,23,-1,25,-1,-1,-1,-1,-1,-1,-1],"loss_changes":[4.4210663E1,1.4532291E1,6.693136E0,0E0,8.450963E0,2.2765827E0,3.9646487E0,4.0946116E0,0E0,0E0,2.2523499E-1,5.5827713E0,3.2603962E0,0E0,4.1645155E0,0E0,0E0,1.9423676E-1,0E0,8.39206E-1,0E0,0E0,0E0,0E0,0E0,0E0,0E0],"parents":[2147483647,0,0,1,1,2,2,4,4,5,5,6,6,7,7,10,10,11,11,12,12,14,14,17,17,19,19],"right_children":[2,4,6,-1,8,10,12,14,-1,-1,16,18,20,-1,22,-1,-1,24,-1,26,-1,-1,-1,-1,-1,-1,-1],"split_conditions":[9.233926E-1,4E0,2.6994225E-1,-6.2207226E-2,6.303832E-1,9.359643E-1,-8.395872E1,1E0,-5.1839728E-2,8.58265E-3,2E0,4.494852E1,-7.5944275E1,-3.7962403E-2,-8.046993E1,2.4493137E-2,5.1617797E-2,3.7356043E-1,-1.824039E-2,2.3E1,2.5033398E-2,-8.194387E-3,2.0692015E-2,2.4000619E-2,4.431185E-2,-4.03515E-3,-2.8202476E-2],"split_indices":[0,16,42,0,42,0,26,9,0,0,27,25,26,0,26,0,0,42,0,29,0,0,0,0,0,0,0],"split_type":[0,0,0,0,0,0,0,0,0,0,0,0,0,0,0,0,0,0,0,0,0,0,0,0,0,0,0],"sum_hessian":[1.23434044E2,6.6665405E1,5.676864E1,1.0504338E1,5.6161068E1,2.3706137E1,3.30625E1,4.960644E1,6.5546274E0,3.5367126E0,2.0169424E1,1.8345999E1,1.47165E1,4.7306395E0,4.4875805E1,4.1164846E0,1.605294E1,1.531507E1,3.0309286E0,1.05497265E1,4.166774E0,3.5691677E1,9.184126E0,8.357246E0,6.9578247E0,7.520244E0,3.0294826E0],"tree_param":{"num_deleted":"0","num_feature":"43","num_nodes":"27","size_leaf_vector":"1"}},{"base_weights":[3.9273193E-3,-5.1659745E-1,5.88041E-1,-3.684001E-1,-5.6608517E-2,8.6505795E-1,3.4989336E-1,-4.7777195E-2,-1.8813287E-1,3.0853724E-1,1.1112329E0,1.7621957E-1,8.638903E-1,-4.3172017E-2,-1.01958826E-1,-1.2554597E-2,2.7984496E-2,1.7666271E-2,1.3765126E0,-7.343744E-2,5.9677017E-1,5.4970562E-2,-0E0,2.8304907E-3,-2.4688896E-2,6.78053E-2,2.4633093E-2,-1.0463507E-2,9.419372E-3,3.2446806E-3,3.4863252E-2],"categories":[],"categories_nodes":[],"categories_segments":[],"categories_sizes":[],"default_left":[0,0,0,0,0,0,0,0,0,0,0,0,0,0,0,0,0,0,0,0,0,0,0,0,0,0,0,0,0,0,0],"id":1,"left_children":[1,3,5,7,-1,9,11,-1,13,15,17,19,21,-1,23,-1,-1,-1,25,27,29,-1,-1,-1,-1,-1,-1,-1,-1,-1,-1],"loss_changes":[3.8117367E1,8.11537E0,3.4781075E0,8.31373E0,0E0,3.1417274E0,2.7503438E0,0E0,3.5438378E0,2.6014807E0,2.3797321E0,2.8864725E0,3.4817595E0,0E0,4.191593E0,0E0,0E0,0E0,1.6821251E0,1.0765812E0,1.2735713E0,0E0,0E0,0E0,0E0,0E0,0E0,0E0,0E0,0E0,0E0],"parents":[2147483647,0,0,1,1,2,2,3,3,5,5,6,6,8,8,9,9,10,10,11,11,12,12,14,14,18,18,19,19,20,20],"right_children":[2,4,6,8,-1,10,12,-1,14,16,18,20,22,-1,24,-1,-1,-1,26,28,30,-1,-1,-1,-1,-1,-1,-1,-1,-1,-1],"split_conditions":[9.047849E-1,6.303832E-1,2.6994225E-1,1E0,-5.6608517E-2,9.361702E-1,3.6958045E-1,-4.7777195E-2,1E0,-9.797393E1,3.3812057E1,1.9E1,8.945743E0,-4.3172017E-2,6.68E2,-1.2554597E-2,2.7984496E-2,1.7666271E-2,-7.892178E1,4.0344524E-1,4.2E1,5.4970562E-2,-0E0,2.8304907E-3,-2.4688896E-2,6.78053E-2,2.4633093E-2,-1.0463507E-2,9.419372E-3,3.2446806E-3,3.4863252E-2],"split_indices":[0,42,42,8,0,0,7,0,17,26,25,21,7,0,30,0,0,0,26,42,28,0,0,0,0,0,0,0,0,0,0],"split_type":[0,0,0,0,0,0,0,0,0,0,0,0,0,0,0,0,0,0,0,0,0,0,0,0,0,0,0,0,0,0,0],"sum_hessian":[1.23344635E2,6.51931E1,5.815153E1,5.7269596E1,7.923506E0,2.5470968E1,3.268056E1,9.152039E0,4.8117558E1,8.6272135E0,1.6843756E1,2.5576086E1,7.1044765E0,3.124146E0,4.4993412E1,3.306536E0,5.3206773E0,5.6428413E0,1.1200914E1,1.6417526E1,9.158559E0,4.0461574E0,3.058319E0,3.419839E1,1.0795022E1,6.935873E0,4.2650414E0,1.0499616E1,5.917911E0,3.7608302E0,5.397729E0],"tree_param":{"num_deleted":"0","num_feature":"43","num_nodes":"31","size_leaf_vector":"1"}},{"base_weights":[2.0619563E-3,-3.915602E-1,6.695076E-1,-6.1388306E-2,-2.4380861E-1,1.0486853E0,2.9415956E-1,-1.0103445E-1,-5.0246853E-2,8.597584E-3,1.1652237E0,-3.3575144E-1,5.7014585E-1,-3.174524E-1,3.331013E-1,1.1750364E-2,1.3141558E0,7.4391835E-3,-3.1834345E-2,3.4294003E-1,4.860137E-2,-4.4102725E-2,-7.98002E-3,6.4948335E-2,-1.8329516E-2,6.0761355E-2,2.134822E-2,2.5120804E-2,-1.0187164E-5],"categories":[],"categories_nodes":[],"categories_segments":[],"categories_sizes":[],"default_left":[0,0,0,0,0,0,0,0,0,0,0,0,0,0,0,0,0,0,0,0,0,0,0,0,0,0,0,0,0],"id":2,"left_children":[1,3,5,-1,7,9,11,13,-1,-1,15,17,19,21,23,-1,25,-1,-1,27,-1,-1,-1,-1,-1,-1,-1,-1,-1],"loss_changes":[3.318091E1,1.283975E1,6.2330627E0,0E0,1.0068844E1,1.82798E0,4.577451E0,6.100188E0,0E0,0E0,2.0077553E0,2.1688185E0,2.054708E0,3.6553693E0,2.288452E1,0E0,1.610157E0,0E0,0E0,1.5076935E0,0E0,0E0,0E0,0E0,0E0,0E0,0E0,0E0,0E0],"parents":[2147483647,0,0,1,1,2,2,4,4,5,5,6,6,7,7,10,10,11,11,12,12,13,13,14,14,16,16,19,19],"right_children":[2,4,6,-1,8,10,12,14,-1,-1,16,18,20,22,24,-1,26,-1,-1,28,-1,-1,-1,-1,-1,-1,-1,-1,-1],"split_conditions":[9.359643E-1,1E0,2.881752E-1,-6.1388306E-2,6.1589617E-1,3E1,3.151916E-1,1E0,-5.0246853E-2,8.597584E-3,9.361702E-1,-8.316359E1,6.4E1,1E0,5.09E2,1.1750364E-2,4.168398E1,7.4391835E-3,-3.1834345E-2,4.3852746E-1,4.860137E-2,-4.4102725E-2,-7.98002E-3,6.4948335E-2,-1.8329516E-2,6.0761355E-2,2.134822E-2,2.5120804E-2,-1.0187164E-5],"split_indices":[5,20,42,0,42,28,42,4,0,0,5,26,31,17,31,0,25,0,0,42,0,0,0,0,0,0,0,0,0],"split_type":[0,0,0,0,0,0,0,0,0,0,0,0,0,0,0,0,0,0,0,0,0,0,0,0,0,0,0,0,0],"sum_hessian":[1.24193306E2,7.828733E1,4.5905975E1,7.808606E0,7.047873E1,2.1811558E1,2.4094416E1,6.2818035E1,7.6606894E0,3.1289206E0,1.8682638E1,7.164128E0,1.6930288E1,4.2253605E1,2.0564432E1,3.2586694E0,1.5423968E1,3.5345888E0,3.629539E0,1.3766831E1,3.1634567E0,4.317812E0,3.793579E1,7.464684E0,1.3099748E1,1.1365812E1,4.0581555E0,7.225944E0,6.540888E0],"tree_param":{"num_deleted":"0","num_feature":"43","num_nodes":"29","size_leaf_vector":"1"}},{"base_weights":[-2.342907E-2,-5.5069023E-1,4.837877E-1,-5.890113E-2,-3.1197467E-1,8.8143754E-1,1.7930965E-1,-1.7137894E-1,-4.7540374E-2,1.1083381E0,2.743251E-1,-2.8830853E-1,3.656386E-1,-4.2917427E-1,1.8163483E-1,6.716288E-1,5.3056944E-2,-1.3883624E-2,3.6027312E-2,-3.0741917E-2,2.4703441E-2,5.6482367E-2,6.4874995E-1,-2.2278797E-2,8.500916E-3,4.827567E-2,-2.0140478E-2,5.955914E-3,3.888716E-2,-1.700638E-2,2.0844428E-2,1.0596314E-2,-1.8293051E-2,5.7202405E-3,3.559036E-2],"categories":[],"categories_nodes":[],"categories_segments":[],"categories_sizes":[],"default_left":[0,0,0,0,0,0,0,0,0,0,0,0,0,0,0,0,0,0,0,0,0,0,0,0,0,0,0,0,0,0,0,0,0,0,0],"id":3,"left_children":[1,3,5,-1,7,9,11,13,-1,15,17,19,21,23,25,27,-1,-1,-1,-1,29,31,33,-1,-1,-1,-1,-1,-1,-1,-1,-1,-1,-1,-1],"loss_changes":[3.4473534E1,1.3284462E1,7.680377E0,0E0,6.0203853E0,3.4226036E0,3.4728627E0,4.265421E0,0E0,8.117237E-1,3.9029026E0,1.8059633E0,2.3581228E0,2.35854E0,1.4617712E1,1.1305788E0,0E0,0E0,0E0,0E0,1.9596429E0,1.6791563E0,1.5293565E0,0E0,0E0,0E0,0E0,0E0,0E0,0E0,0E0,0E0,0E0,0E0,0E0],"parents":[2147483647,0,0,1,1,2,2,4,4,5,5,6,6,7,7,9,9,10,10,11,11,12,12,13,13,14,14,15,15,20,20,21,21,22,22],"right_children":[2,4,6,-1,8,10,12,14,-1,16,18,20,22,24,26,28,-1,-1,-1,-1,30,32,34,-1,-1,-1,-1,-1,-1,-1,-1,-1,-1,-1,-1],"split_conditions":[8.770556E-1,4E0,2.6994225E-1,-5.890113E-2,6.303832E-1,4.1432957E1,1.2E1,1E0,-4.7540374E-2,-9.551608E1,4.269395E1,9.361702E-1,3.7626614E1,-7.981422E1,1.1661E2,1.6E1,5.3056944E-2,-1.3883624E-2,3.6027312E-2,-3.0741917E-2,3.151916E-1,3.5703262E1,9.361702E-1,-2.2278797E-2,8.500916E-3,4.827567E-2,-2.0140478E-2,5.955914E-3,3.888716E-2,-1.700638E-2,2.0844428E-2,1.0596314E-2,-1.8293051E-2,5.7202405E-3,3.559036E-2],"split_indices":[5,16,42,0,42,25,21,4,0,26,25,5,25,26,7,21,0,0,0,0,42,25,5,0,0,0,0,0,0,0,0,0,0,0,0],"split_type":[0,0,0,0,0,0,0,0,0,0,0,0,0,0,0,0,0,0,0,0,0,0,0,0,0,0,0,0,0,0,0,0,0,0,0],"sum_hessian":[1.26882805E2,6.226678E1,6.461602E1,1.1658432E1,5.060835E1,2.705661E1,3.755941E1,4.4741447E1,5.866903E0,1.8974737E1,8.081874E0,1.039293E1,2.7166481E1,2.5897102E1,1.8844343E1,7.8311973E0,1.1143539E1,4.2006116E0,3.8812623E0,3.6527834E0,6.7401466E0,1.372814E1,1.3438341E1,2.1836233E1,4.060869E0,7.3020167E0,1.1542327E1,3.5262759E0,4.3049216E0,3.5054529E0,3.234694E0,1.0249498E1,3.4786413E0,4.9852858E0,8.453055E0],"tree_param":{"num_deleted":"0","num_feature":"43","num_nodes":"35","size_leaf_vector":"1"}},{"base_weights":[8.625339E-3,-4.2941973E-1,5.2938503E-1,-5.4375153E-2,-2.4154826E-1,1.8474637E-1,9.055876E-1,-5.093025E-2,-5.127475E-2,5.3211915E-1,-2.145908E-1,4.981474E-2,4.1040412E-1,-5.941245E-1,1.2998661E-1,4.8547264E-2,4.1975345E-2,6.0481038E-2,-3.6612295E-2,-6.9905524E-3,6.3561827E-1,-3.5669994E-2,1.0421094E-3,1.7331986E-2,-2.3806958E-2,2.207946E-2,-1.1201595E-2,-1.0423513E-2,2.2265634E-2,-1.3734748E-3,3.881169E-2],"categories":[],"categories_nodes":[],"categories_segments":[],"categories_sizes":[],"default_left":[0,0,0,0,0,0,0,0,0,0,0,0,0,0,0,0,0,0,0,0,0,0,0,0,0,0,0,0,0,0,0],"id":4,"left_children":[1,3,5,-1,7,9,11,13,-1,15,17,-1,19,21,23,25,-1,27,-1,-1,29,-1,-1,-1,-1,-1,-1,-1,-1,-1,-1],"loss_changes":[2.8711628E1,1.143462E1,7.1891136E0,0E0,1.1318877E1,4.5080357E0,3.8887615E0,5.057772E0,0E0,4.151146E0,3.0720124E0,0E0,1.8247247E0,2.4838805E0,8.676012E0,1.8455559E0,0E0,2.0474007E0,0E0,0E0,2.2515597E0,0E0,0E0,0E0,0E0,0E0,0E0,0E0,0E0,0E0,0E0],"parents":[2147483647,0,0,1,1,2,2,4,4,5,5,6,6,7,7,9,9,10,10,12,12,13,13,14,14,15,15,17,17,20,20],"right_children":[2,4,6,-1,8,10,12,14,-1,16,18,-1,20,22,24,26,-1,28,-1,-1,30,-1,-1,-1,-1,-1,-1,-1,-1,-1,-1],"split_conditions":[9.233926E-1,4E0,1.8E1,-5.4375153E-2,6.303832E-1,8.2E1,-8.395872E1,5.185185E-1,-5.127475E-2,3.9E1,4.8344526E-1,4.981474E-2,2.7E1,6.7E1,9.14E2,2.6E1,4.1975345E-2,1.01E2,-3.6612295E-2,-6.9905524E-3,1.2E1,-3.5669994E-2,1.0421094E-3,1.7331986E-2,-2.3806958E-2,2.207946E-2,-1.1201595E-2,-1.0423513E-2,2.2265634E-2,-1.3734748E-3,3.881169E-2],"split_indices":[0,16,21,0,42,28,26,0,0,28,42,0,28,28,31,28,0,28,0,0,29,0,0,0,0,0,0,0,0,0,0],"split_type":[0,0,0,0,0,0,0,0,0,0,0,0,0,0,0,0,0,0,0,0,0,0,0,0,0,0,0,0,0,0,0],"sum_hessian":[1.2382366E2,6.7243835E1,5.6579823E1,1.0164056E1,5.707978E1,3.0445574E1,2.613425E1,4.92084E1,7.8713784E0,1.6238255E1,1.4207318E1,1.4480936E1,1.1653315E1,1.1862022E1,3.7346382E1,9.057709E0,7.1805468E0,1.0755958E1,3.4513607E0,3.1774414E0,8.475873E0,7.828463E0,4.0335593E0,2.6713358E1,1.0633022E1,3.4287944E0,5.6289144E0,6.696101E0,4.0598564E0,3.0229976E0,5.4528756E0],"tree_param":{"num_deleted":"0","num_feature":"43","num_nodes":"31","size_leaf_vector":"1"}},{"base_weights":[-2.5987186E-2,-5.134257E-1,5.619375E-1,-5.4861896E-2,-3.2456842E-1,-9.4108164E-2,6.6560984E-1,-8.390249E-2,-8.4908545E-1,-1.8184649E-2,1.0905476E-2,4.3501478E-1,8.702723E-1,-3.7152538E-1,9.5486397E-1,-5.175504E-2,-2.938197E-1,5.556072E-1,-1.4704332E-3,3.6383355E-1,1.0256699E0,-1.851703E-2,9.009493E-3,8.803961E-3,5.0497983E-2,3.6705423E-3,-2.0242807E-2,5.5931387E-3,3.0688584E-2,2.997128E-2,-3.2756736E-3,4.4613343E-2,1.5679095E-2],"categories":[],"categories_nodes":[],"categories_segments":[],"categories_sizes":[],"default_left":[0,0,0,0,0,0,0,0,0,0,0,0,0,0,0,0,0,0,0,0,0,0,0,0,0,0,0,0,0,0,0,0,0],"id":5,"left_children":[1,3,5,-1,7,9,11,13,15,-1,-1,17,19,21,23,-1,25,27,-1,29,31,-1,-1,-1,-1,-1,-1,-1,-1,-1,-1,-1,-1],"loss_changes":[3.6896812E1,1.0804939E1,4.0846767E0,0E0,7.30339E0,1.2923532E0,1.8787117E0,1.2783068E1,3.9971962E0,0E0,0E0,1.5526443E0,1.5006886E0,1.9566746E0,1.6683426E0,0E0,8.704781E-1,1.6455588E0,0E0,1.452022E0,4.8425865E-1,0E0,0E0,0E0,0E0,0E0,0E0,0E0,0E0,0E0,0E0,0E0,0E0],"parents":[2147483647,0,0,1,1,2,2,4,4,5,5,6,6,7,7,8,8,11,11,12,12,13,13,14,14,16,16,17,17,19,19,20,20],"right_children":[2,4,6,-1,8,10,12,14,16,-1,-1,18,20,22,24,-1,26,28,-1,30,32,-1,-1,-1,-1,-1,-1,-1,-1,-1,-1,-1,-1],"split_conditions":[9.047849E-1,4E0,1E1,-5.4861896E-2,6.17E2,9.8527175E-1,3.7442543E1,1E0,1.4E1,-1.8184649E-2,1.0905476E-2,3.5703262E1,9.756489E-1,4.4E0,3.4248108E1,-5.175504E-2,1.5E1,1.6E1,-1.4704332E-3,4.13771E1,8.76E2,-1.851703E-2,9.009493E-3,8.803961E-3,5.0497983E-2,3.6705423E-3,-2.0242807E-2,5.5931387E-3,3.0688584E-2,2.997128E-2,-3.2756736E-3,4.4613343E-2,1.5679095E-2],"split_indices":[0,16,21,0,6,0,25,4,21,0,0,25,0,38,25,0,29,21,0,25,6,0,0,0,0,0,0,0,0,0,0,0,0],"split_type":[0,0,0,0,0,0,0,0,0,0,0,0,0,0,0,0,0,0,0,0,0,0,0,0,0,0,0,0,0,0,0,0,0],"sum_hessian":[1.2676019E2,6.946485E1,5.7295338E1,1.1305147E1,5.8159706E1,7.6995726E0,4.9595764E1,4.0793087E1,1.736662E1,3.89948E0,3.8000925E0,2.5019829E1,2.4575937E1,3.2525692E1,8.267395E0,8.803982E0,8.562638E0,1.9953665E1,5.066164E0,6.706E0,1.7869938E1,2.8545494E1,3.9801977E0,3.041795E0,5.2256E0,3.0742846E0,5.4883533E0,7.449604E0,1.2504061E1,3.3512578E0,3.354742E0,1.4850782E1,3.019155E0],"tree_param":{"num_deleted":"0","num_feature":"43","num_nodes":"33","size_leaf_vector":"1"}},{"base_weights":[-3.7938505E-2,-4.9919412E-1,4.9222684E-1,-5.4455895E-2,-2.9716086E-1,-6.844758E-4,5.5144167E-1,-9.250122E-2,-7.491288E-1,1.6253649E-1,6.6656846E-1,-3.3587238E-1,7.924979E-1,-4.939241E-2,-1.3420372E-1,5.202865E-1,-1.482805E-2,3.8799845E-2,3.6981133E-1,-1.8407362E-2,1.986137E-2,4.6116613E-2,4.995291E-3,9.171811E-3,-1.6592462E-2,4.7193162E-2,-3.0069884E-3,-4.826435E-5,2.7839772E-2],"categories":[],"categories_nodes":[],"categories_segments":[],"categories_sizes":[],"default_left":[0,0,0,0,0,0,0,0,0,0,0,0,0,0,0,0,0,0,0,0,0,0,0,0,0,0,0,0,0],"id":6,"left_children":[1,3,5,-1,7,-1,9,11,13,15,17,19,21,-1,23,25,-1,-1,27,-1,-1,-1,-1,-1,-1,-1,-1,-1,-1],"loss_changes":[3.1359772E1,1.1385315E1,1.8603258E0,0E0,5.1170154E0,0E0,2.2084103E0,8.946193E0,4.91374E0,2.8332899E0,3.1840706E0,3.5946648E0,1.8810449E0,0E0,1.0235413E0,3.6414583E0,0E0,0E0,2.7843225E0,0E0,0E0,0E0,0E0,0E0,0E0,0E0,0E0,0E0,0E0],"parents":[2147483647,0,0,1,1,2,2,4,4,6,6,7,7,8,8,9,9,10,10,11,11,12,12,14,14,15,15,18,18],"right_children":[2,4,6,-1,8,-1,10,12,14,16,18,20,22,-1,24,26,-1,-1,28,-1,-1,-1,-1,-1,-1,-1,-1,-1,-1],"split_conditions":[9.047849E-1,4E0,9E0,-5.4455895E-2,6.14E2,-6.844758E-4,3.2E1,5.4E1,1.4E1,2.5E1,7.9E1,4.4E0,1.02E2,-4.939241E-2,2E1,2.1E1,-1.482805E-2,3.8799845E-2,1.8E1,-1.8407362E-2,1.986137E-2,4.6116613E-2,4.995291E-3,9.171811E-3,-1.6592462E-2,4.7193162E-2,-3.0069884E-3,-4.826435E-5,2.7839772E-2],"split_indices":[0,16,21,0,6,0,28,6,21,28,28,38,28,0,29,21,0,0,21,0,0,0,0,0,0,0,0,0,0],"split_type":[0,0,0,0,0,0,0,0,0,0,0,0,0,0,0,0,0,0,0,0,0,0,0,0,0,0,0,0,0],"sum_hessian":[1.26231285E2,6.763467E1,5.859662E1,1.1656324E1,5.597834E1,6.001E0,5.259562E1,3.9512325E1,1.6466013E1,1.2762742E1,3.9832874E1,3.1565437E1,7.94689E0,8.545725E0,7.9202886E0,7.765008E0,4.997734E0,1.840675E1,2.1426126E1,2.7957552E1,3.6078858E0,4.591455E0,3.3554347E0,3.3749177E0,4.5453706E0,3.2983112E0,4.4666967E0,1.0346823E1,1.1079304E1],"tree_param":{"num_deleted":"0","num_feature":"43","num_nodes":"29","size_leaf_vector":"1"}},{"base_weights":[-2.3262119E-2,-3.8374573E-1,5.7065624E-1,-5.0188124E-2,-2.2427584E-1,9.194328E-1,2.2171102E-1,-9.367714E-2,-4.9979765E-2,5.321944E-1,4.2405434E-2,-3.2483923E-1,4.8239988E-1,-6.220376E-1,6.655117E-2,3.5479717E-2,-9.989955E-4,7.943266E-3,-3.0864231E-2,2.9348734E-1,3.847717E-2,-3.718334E-2,-1.1064199E-2,-1.3843593E-2,1.2834536E-2,-4.4897557E-3,2.2377672E-2],"categories":[],"categories_nodes":[],"categories_segments":[],"categories_sizes":[],"default_left":[0,0,0,0,0,0,0,0,0,0,0,0,0,0,0,0,0,0,0,0,0,0,0,0,0,0,0],"id":7,"left_children":[1,3,5,-1,7,9,11,13,-1,15,-1,17,19,21,23,-1,-1,-1,-1,25,-1,-1,-1,-1,-1,-1,-1],"loss_changes":[2.74216E1,1.0657542E1,5.56283E0,0E0,8.958389E0,5.6814957E-1,3.8221426E0,5.3610196E0,0E0,1.7916524E0,0E0,2.2557428E0,1.2109299E0,1.1850605E0,5.1949086E0,0E0,0E0,0E0,0E0,1.6622219E0,0E0,0E0,0E0,0E0,0E0,0E0,0E0],"parents":[2147483647,0,0,1,1,2,2,4,4,5,5,6,6,7,7,9,9,11,11,12,12,13,13,14,14,19,19],"right_children":[2,4,6,-1,8,10,12,14,-1,16,-1,18,20,22,24,-1,-1,-1,-1,26,-1,-1,-1,-1,-1,-1,-1],"split_conditions":[9.359643E-1,4E0,2.881752E-1,-5.0188124E-2,6.3611215E-1,3.386212E1,3.1674662E-1,1E0,-4.9979765E-2,3.252126E1,4.2405434E-2,-8.411795E1,3.032455E-1,3E0,1.6E1,3.5479717E-2,-9.989955E-4,7.943266E-3,-3.0864231E-2,1.1E1,3.847717E-2,-3.718334E-2,-1.1064199E-2,-1.3843593E-2,1.2834536E-2,-4.4897557E-3,2.2377672E-2],"split_indices":[5,16,42,0,42,25,42,1,0,25,0,26,7,14,21,0,0,0,0,29,0,0,0,0,0,0,0],"split_type":[0,0,0,0,0,0,0,0,0,0,0,0,0,0,0,0,0,0,0,0,0,0,0,0,0,0,0],"sum_hessian":[1.2614423E2,7.882375E1,4.7320477E1,1.1038898E1,6.778486E1,2.2704988E1,2.4615486E1,6.118025E1,6.6046076E0,7.5151463E0,1.5189843E1,7.745949E0,1.6869537E1,1.3710649E1,4.74696E1,4.3393908E0,3.1757555E0,3.71971E0,4.026239E0,1.340798E1,3.4615576E0,6.2053404E0,7.5053086E0,1.7812826E1,2.9656773E1,5.388864E0,8.019116E0],"tree_param":{"num_deleted":"0","num_feature":"43","num_nodes":"27","size_leaf_vector":"1"}},{"base_weights":[2.3146751E-3,-2.8989077E-1,6.1816996E-1,-4.713973E-2,-1.3383159E-1,4.9249895E-2,4.137511E-1,-2.2852106E-3,-4.633028E-2,1.4036465E-1,6.627729E-1,-1.0341524E-1,6.0951537E-1,3.262398E-1,-1.953022E-2,3.0453137E-1,9.5883393E-1,-6.8035466E-3,2.1520182E-2,2.7001104E-3,4.0075216E-2,2.465789E-2,-6.9117444E-3,-7.446975E-3,3.688453E-2,1.6023101E-2,5.3543676E-2],"categories":[],"categories_nodes":[],"categories_segments":[],"categories_sizes":[],"default_left":[0,0,0,0,0,0,0,0,0,0,0,0,0,0,0,0,0,0,0,0,0,0,0,0,0,0,0],"id":8,"left_children":[1,3,5,-1,7,-1,9,11,-1,13,15,17,19,21,-1,23,25,-1,-1,-1,-1,-1,-1,-1,-1,-1,-1],"loss_changes":[2.260783E1,1.1494879E1,4.3987894E0,0E0,9.786712E0,0E0,2.0040817E0,4.110061E0,0E0,2.0951114E0,1.3080912E0,2.527809E0,1.8243618E0,2.1227775E0,0E0,2.9677582E0,1.0482192E0,0E0,0E0,0E0,0E0,0E0,0E0,0E0,0E0,0E0,0E0],"parents":[2147483647,0,0,1,1,2,2,4,4,6,6,7,7,9,9,10,10,11,11,12,12,13,13,15,15,16,16],"right_children":[2,4,6,-1,8,-1,10,12,-1,14,16,18,20,22,-1,24,26,-1,-1,-1,-1,-1,-1,-1,-1,-1,-1],"split_conditions":[9.361702E-1,4E0,1.9449353E-1,-4.713973E-2,6.303832E-1,4.9249895E-2,3.73504E1,4.1300598E-1,-4.633028E-2,3.5850487E1,1.8E1,1.09E2,1.8E1,-8.342591E1,-1.953022E-2,-8.624865E1,4.8E1,-6.8035466E-3,2.1520182E-2,2.7001104E-3,4.0075216E-2,2.465789E-2,-6.9117444E-3,-7.446975E-3,3.688453E-2,1.6023101E-2,5.3543676E-2],"split_indices":[5,16,42,0,42,0,25,42,0,25,21,28,21,26,0,26,28,0,0,0,0,0,0,0,0,0,0],"split_type":[0,0,0,0,0,0,0,0,0,0,0,0,0,0,0,0,0,0,0,0,0,0,0,0,0,0,0],"sum_hessian":[1.23451355E2,8.397471E1,3.947665E1,1.1470306E1,7.25044E1,8.492933E0,3.0983715E1,6.522829E1,7.276113E0,1.5706121E1,1.5277595E1,5.6828938E1,8.399349E0,1.2615868E1,3.0902534E0,7.9836035E0,7.2939906E0,5.2284836E1,4.544103E0,4.126253E0,4.273096E0,7.954891E0,4.6609764E0,4.747808E0,3.2357955E0,3.8915043E0,3.4024863E0],"tree_param":{"num_deleted":"0","num_feature":"43","num_nodes":"27","size_leaf_vector":"1"}},{"base_weights":[1.9139316E-3,-4.2878273E-1,3.8779834E-1,-4.950345E-2,-2.3354004E-1,4.4818518E-1,-1.3373584E-2,-3.274588E-1,2.4906253E-2,5.415272E-2,5.5825037E-1,-5.4732776E-1,8.08012E-2,4.3341652E-1,-2.2407854E-2,1.4515786E-1,7.578924E-1,-1.38178775E-2,-3.6924418E-2,-2.571856E-2,1.3012371E-2,-1.0122652E-2,3.5528403E-2,3.0458514E-2,-2.4409052E-3,4.2779718E-2,1.8675776E-2],"categories":[],"categories_nodes":[],"categories_segments":[],"categories_sizes":[],"default_left":[0,0,0,0,0,0,0,0,0,0,0,0,0,0,0,0,0,0,0,0,0,0,0,0,0,0,0],"id":9,"left_children":[1,3,5,-1,7,9,-1,11,-1,13,15,17,19,21,-1,23,25,-1,-1,-1,-1,-1,-1,-1,-1,-1,-1],"loss_changes":[2.0617954E1,8.804172E0,3.0203495E0,0E0,4.071889E0,2.5566635E0,0E0,4.0798187E0,0E0,3.6407182E0,3.710637E0,1.7672682E0,3.0561504E0,3.3213677E0,0E0,2.257812E0,2.209732E0,0E0,0E0,0E0,0E0,0E0,0E0,0E0,0E0,0E0,0E0],"parents":[2147483647,0,0,1,1,2,2,4,4,5,5,7,7,9,9,10,10,11,11,12,12,13,13,15,15,16,16],"right_children":[2,4,6,-1,8,10,-1,12,-1,14,16,18,20,22,-1,24,26,-1,-1,-1,-1,-1,-1,-1,-1,-1,-1],"split_conditions":[8.770556E-1,4E0,5.8023584E-1,-4.950345E-2,4.3000404E1,3E1,-1.3373584E-2,2.2E1,2.4906253E-2,2.5E1,9.551345E-1,6.17E2,3.611111E-1,2.1670972E-1,-2.2407854E-2,3.3947437E1,7.3E1,-1.38178775E-2,-3.6924418E-2,-2.571856E-2,1.3012371E-2,-1.0122652E-2,3.5528403E-2,3.0458514E-2,-2.4409052E-3,4.2779718E-2,1.8675776E-2],"split_indices":[0,16,42,0,25,28,0,21,0,28,0,30,0,42,0,25,28,0,0,0,0,0,0,0,0,0,0],"split_type":[0,0,0,0,0,0,0,0,0,0,0,0,0,0,0,0,0,0,0,0,0,0,0,0,0,0,0],"sum_hessian":[1.2207989E2,5.75152E1,6.456468E1,1.004643E1,4.7468773E1,6.0060158E1,4.504527E0,4.343824E1,4.0305324E0,1.3637735E1,4.642242E1,2.8171011E1,1.526723E1,8.714926E0,4.9228096E0,1.5851344E1,3.0571077E1,1.9747496E1,8.423514E0,3.340488E0,1.1926742E1,3.5619938E0,5.152932E0,3.420067E0,1.2431276E1,1.3305087E1,1.7265991E1],"tree_param":{"num_deleted":"0","num_feature":"43","num_nodes":"27","size_leaf_vector":"1"}},{"base_weights":[-3.4417294E-3,-3.813342E-1,4.6209913E-1,-4.9313083E-2,-2.7397257E-1,8.3244073E-1,1.9821063E-1,-1.6919091E-1,-4.38759E-2,9.595138E-1,1.2861071E-2,-4.1044542E-1,3.5998487E-1,-3.4685633E-1,1.4956811E-1,5.4213214E-1,4.9386434E-2,-2.7606279E-2,-0E0,6.5955436E-1,-5.263735E-2,-1.7737588E-2,1.2605846E-2,5.0931405E-2,-1.6619096E-2,3.7931015E-3,4.1115157E-2,5.6356573E-3,4.6759095E-2,-1.6896898E-2,2.7684182E-2],"categories":[],"categories_nodes":[],"categories_segments":[],"categories_sizes":[],"default_left":[0,0,0,0,0,0,0,0,0,0,0,0,0,0,0,0,0,0,0,0,0,0,0,0,0,0,0,0,0,0,0],"id":10,"left_children":[1,3,5,-1,7,9,11,13,-1,15,-1,17,19,21,23,25,-1,-1,-1,27,29,-1,-1,-1,-1,-1,-1,-1,-1,-1,-1],"loss_changes":[2.1777914E1,5.770625E0,5.143077E0,0E0,5.0503407E0,1.0285463E0,3.4709563E0,3.2688785E0,0E0,1.1525726E0,0E0,8.2593346E-1,3.4781365E0,2.5025725E0,1.3759883E1,1.7120919E0,0E0,0E0,0E0,3.950191E0,3.651862E0,0E0,0E0,0E0,0E0,0E0,0E0,0E0,0E0,0E0,0E0],"parents":[2147483647,0,0,1,1,2,2,4,4,5,5,6,6,7,7,9,9,11,11,12,12,13,13,14,14,15,15,19,19,20,20],"right_children":[2,4,6,-1,8,10,12,14,-1,16,-1,18,20,22,24,26,-1,-1,-1,28,30,-1,-1,-1,-1,-1,-1,-1,-1,-1,-1],"split_conditions":[9.233926E-1,1E0,2.6994225E-1,-4.9313083E-2,6.3611215E-1,-7.892178E1,1E1,5.4E1,-4.38759E-2,3.4642864E1,1.2861071E-2,9.8527175E-1,-8.352886E1,4.4E0,3.52E2,2E1,4.9386434E-2,-2.7606279E-2,-0E0,1.8E1,-7.5944275E1,-1.7737588E-2,1.2605846E-2,5.0931405E-2,-1.6619096E-2,3.7931015E-3,4.1115157E-2,5.6356573E-3,4.6759095E-2,-1.6896898E-2,2.7684182E-2],"split_indices":[0,20,42,0,42,26,21,6,0,25,0,0,26,38,6,21,0,0,0,21,26,0,0,0,0,0,0,0,0,0,0],"split_type":[0,0,0,0,0,0,0,0,0,0,0,0,0,0,0,0,0,0,0,0,0,0,0,0,0,0,0,0,0,0,0],"sum_hessian":[1.218356E2,6.74667E1,5.4368908E1,6.2761E0,6.1190594E1,2.1567532E1,3.2801376E1,5.5456524E1,5.734073E0,1.641186E1,5.155672E0,6.4350357E0,2.6366343E1,3.575402E1,1.9702503E1,7.8450956E0,8.566764E0,3.3636527E0,3.0713832E0,1.5069547E1,1.1296796E1,3.162175E1,4.1322694E0,6.23212E0,1.3470384E1,4.813566E0,3.0315294E0,8.196871E0,6.8726754E0,7.9275928E0,3.3692029E0],"tree_param":{"num_deleted":"0","num_feature":"43","num_nodes":"31","size_leaf_vector":"1"}},{"base_weights":[2.157951E-3,-3.5269514E-1,3.9502415E-1,-4.6354245E-2,-1.832279E-1,-2.0024307E-2,4.6362486E-1,-4.6861777E-1,1.6104107E-1,1.3658249E-2,-1.5519799E-2,2.639067E-1,6.568223E-1,-1.091558E-1,-4.0849555E-2,-5.938984E-1,5.125902E-1,3.650279E-1,-1.1786865E-2,1.8187118E-1,7.964006E-1,1.9915888E-2,-1.1723022E-2,-3.2513473E-2,-7.3818318E-3,-1.0123164E-2,2.943937E-2,-1.2130428E-2,2.0096926E-2,1.6869739E-2,-3.3280842E-3,3.7908897E-2,1.6838653E-2],"categories":[],"categories_nodes":[],"categories_segments":[],"categories_sizes":[],"default_left":[0,0,0,0,0,0,0,0,0,0,0,0,0,0,0,0,0,0,0,0,0,0,0,0,0,0,0,0,0,0,0,0,0],"id":11,"left_children":[1,3,5,-1,7,9,11,13,15,-1,-1,17,19,21,-1,23,25,27,-1,29,31,-1,-1,-1,-1,-1,-1,-1,-1,-1,-1,-1,-1],"loss_changes":[1.721798E1,8.498931E0,1.7258539E0,0E0,5.489386E0,1.3451921E0,1.6888533E0,5.8086214E0,7.0423813E0,0E0,0E0,1.6300699E0,1.4026022E0,2.317213E0,0E0,5.0746465E-1,3.3082314E0,2.31312E0,0E0,5.201121E-1,5.278282E-1,0E0,0E0,0E0,0E0,0E0,0E0,0E0,0E0,0E0,0E0,0E0,0E0],"parents":[2147483647,0,0,1,1,2,2,4,4,5,5,6,6,7,7,8,8,11,11,12,12,13,13,15,15,16,16,17,17,19,19,20,20],"right_children":[2,4,6,-1,8,10,12,14,16,-1,-1,18,20,22,-1,24,26,28,-1,30,32,-1,-1,-1,-1,-1,-1,-1,-1,-1,-1,-1,-1],"split_conditions":[9.047849E-1,4E0,1E1,-4.6354245E-2,1.9E1,3.8863544E1,3.7626614E1,5.85E2,5.860215E-1,1.3658249E-2,-1.5519799E-2,3.6631413E1,9.361702E-1,2.8032345E-1,-4.0849555E-2,5.6E1,3.252126E1,1E0,-1.1786865E-2,-8.292296E1,4.233558E1,1.9915888E-2,-1.1723022E-2,-3.2513473E-2,-7.3818318E-3,-1.0123164E-2,2.943937E-2,-1.2130428E-2,2.0096926E-2,1.6869739E-2,-3.3280842E-3,3.7908897E-2,1.6838653E-2],"split_indices":[0,16,21,0,21,25,25,6,0,0,0,25,0,5,0,35,25,10,0,26,25,0,0,0,0,0,0,0,0,0,0,0,0],"split_type":[0,0,0,0,0,0,0,0,0,0,0,0,0,0,0,0,0,0,0,0,0,0,0,0,0,0,0,0,0,0,0,0,0],"sum_hessian":[1.2147651E2,6.3746098E1,5.7730415E1,9.956135E0,5.3789963E1,8.082148E0,4.9648266E1,2.9371248E1,2.4418715E1,3.9762878E0,4.10586E0,2.5830032E1,2.3818233E1,1.8630922E1,1.0740326E1,7.448816E0,1.6969898E1,2.2315683E1,3.5143487E0,6.0956516E0,1.7722582E1,3.8087502E0,1.4822172E1,4.051797E0,3.397019E0,3.7017736E0,1.3268126E1,3.4755607E0,1.8840124E1,3.0877073E0,3.007944E0,1.1355115E1,6.3674674E0],"tree_param":{"num_deleted":"0","num_feature":"43","num_nodes":"33","size_leaf_vector":"1"}},{"base_weights":[1.3354242E-2,-3.790422E-1,4.829297E-1,-4.7724012E-2,-2.7306598E-1,7.962178E-1,2.3511043E-1,-9.9202216E-2,-6.882084E-1,1.009387E0,2.951571E-1,-1.9525266E-1,3.9761698E-1,-3.5850054E-1,1.0089296E0,-4.4827007E-2,-1.842547E-1,4.716797E-1,5.552616E-2,-9.584522E-3,4.054289E-2,-2.0668516E-2,9.133656E-3,6.4212054E-1,6.452194E-2,-1.7398836E-2,6.2223016E-3,1.5256304E-2,5.0485417E-2,-2.0247059E-2,1.42485155E-2,3.4876503E-2,-0E0,3.3436958E-2,-0E0,-1.8992277E-2,2.091263E-2],"categories":[],"categories_nodes":[],"categories_segments":[],"categories_sizes":[],"default_left":[0,0,0,0,0,0,0,0,0,0,0,0,0,0,0,0,0,0,0,0,0,0,0,0,0,0,0,0,0,0,0,0,0,0,0,0,0],"id":12,"left_children":[1,3,5,-1,7,9,11,13,15,17,19,21,23,25,27,-1,29,31,-1,-1,-1,-1,-1,33,35,-1,-1,-1,-1,-1,-1,-1,-1,-1,-1,-1,-1],"loss_changes":[2.281513E1,5.335845E0,4.091975E0,0E0,4.254148E0,2.170558E0,2.4136581E0,1.3030106E1,3.512083E0,2.5231552E0,3.7070477E0,1.4510744E0,1.8860536E0,1.5391955E0,7.19512E-1,0E0,1.841209E0,1.517675E0,0E0,0E0,0E0,0E0,0E0,1.7020721E0,3.137644E0,0E0,0E0,0E0,0E0,0E0,0E0,0E0,0E0,0E0,0E0,0E0,0E0],"parents":[2147483647,0,0,1,1,2,2,4,4,5,5,6,6,7,7,8,8,9,9,10,10,11,11,12,12,13,13,14,14,16,16,17,17,23,23,24,24],"right_children":[2,4,6,-1,8,10,12,14,16,18,20,22,24,26,28,-1,30,32,-1,-1,-1,-1,-1,34,36,-1,-1,-1,-1,-1,-1,-1,-1,-1,-1,-1,-1],"split_conditions":[9.047849E-1,1E0,2.6994225E-1,-4.7724012E-2,6.14E2,4.0777126E1,1.2E1,5.4E1,1.4E1,3.386212E1,4.269395E1,9.8527175E-1,-8.419014E1,4.4E0,3.5052982E1,-4.4827007E-2,-8.994461E1,3.0649652E1,5.552616E-2,-9.584522E-3,4.054289E-2,-2.0668516E-2,9.133656E-3,4.8344526E-1,-8.130996E1,-1.7398836E-2,6.2223016E-3,1.5256304E-2,5.0485417E-2,-2.0247059E-2,1.42485155E-2,3.4876503E-2,-0E0,3.3436958E-2,-0E0,-1.8992277E-2,2.091263E-2],"split_indices":[0,20,42,0,6,25,21,6,21,25,25,0,26,38,25,0,26,25,0,0,0,0,0,42,26,0,0,0,0,0,0,0,0,0,0,0,0],"split_type":[0,0,0,0,0,0,0,0,0,0,0,0,0,0,0,0,0,0,0,0,0,0,0,0,0,0,0,0,0,0,0,0,0,0,0,0,0],"sum_hessian":[1.2177065E2,6.6325874E1,5.5444775E1,6.349592E0,5.9976288E1,2.3332228E1,3.2112545E1,4.331541E1,1.6660873E1,1.5516763E1,7.8154655E0,8.5781975E0,2.3534348E1,3.572308E1,7.592331E0,8.201004E0,8.45987E0,7.4499454E0,8.066817E0,4.7826533E0,3.0328126E0,4.8862944E0,3.6919034E0,1.2863862E1,1.06704855E1,3.1400394E1,4.322687E0,3.0168633E0,4.5754676E0,5.457601E0,3.0022693E0,3.469209E0,3.9807363E0,9.61639E0,3.2474723E0,4.78508E0,5.8854055E0],"tree_param":{"num_deleted":"0","num_feature":"43","num_nodes":"37","size_leaf_vector":"1"}},{"base_weights":[-4.2219207E-2,-3.9719516E-1,3.6051702E-1,-4.2950306E-2,-2.6049295E-1,4.296167E-1,-1.1228043E-2,-4.123493E-2,-7.353632E-1,-1.3742716E-3,5.617729E-1,-2.8823292E-1,8.9512306E-1,-4.035722E-2,-3.1175688E-1,3.4161845E-1,-2.5843386E-2,1.5021758E-1,7.205279E-1,-1.5420114E-2,1.3597692E-2,4.702432E-2,1.462556E-2,-2.8608996E-2,6.4723142E-3,-3.9375066E-3,2.4954233E-2,2.1710917E-2,-1.3433701E-2,3.979018E-2,1.993104E-2],"categories":[],"categories_nodes":[],"categories_segments":[],"categories_sizes":[],"default_left":[0,0,0,0,0,0,0,0,0,0,0,0,0,0,0,0,0,0,0,0,0,0,0,0,0,0,0,0,0,0,0],"id":13,"left_children":[1,3,5,-1,7,9,-1,11,13,15,17,19,21,-1,23,25,-1,27,29,-1,-1,-1,-1,-1,-1,-1,-1,-1,-1,-1,-1],"loss_changes":[1.7983242E1,5.7762775E0,2.7426476E0,0E0,5.838873E0,3.1128244E0,0E0,9.512719E0,1.6205482E0,3.2167768E0,2.4993324E0,2.134375E0,6.8820333E-1,0E0,1.8123775E0,1.2698629E0,0E0,2.6680465E0,1.1422119E0,0E0,0E0,0E0,0E0,0E0,0E0,0E0,0E0,0E0,0E0,0E0,0E0],"parents":[2147483647,0,0,1,1,2,2,4,4,5,5,7,7,8,8,9,9,10,10,11,11,12,12,14,14,15,15,17,17,18,18],"right_children":[2,4,6,-1,8,10,-1,12,14,16,18,20,22,-1,24,26,-1,28,30,-1,-1,-1,-1,-1,-1,-1,-1,-1,-1,-1,-1],"split_conditions":[9.047849E-1,4E0,5.4936963E-1,-4.2950306E-2,5.09E2,3E1,-1.1228043E-2,1E0,3E0,9.952618E-1,9.756489E-1,4.4E0,3.5761714E-1,-4.035722E-2,-9.68812E1,9.361702E-1,-2.5843386E-2,2.1E1,2.2719567E-1,-1.5420114E-2,1.3597692E-2,4.702432E-2,1.462556E-2,-2.8608996E-2,6.4723142E-3,-3.9375066E-3,2.4954233E-2,2.1710917E-2,-1.3433701E-2,3.979018E-2,1.993104E-2],"split_indices":[0,16,42,0,30,28,0,4,22,0,0,38,42,0,26,0,0,29,42,0,0,0,0,0,0,0,0,0,0,0,0],"split_type":[0,0,0,0,0,0,0,0,0,0,0,0,0,0,0,0,0,0,0,0,0,0,0,0,0,0,0,0,0,0,0],"sum_hessian":[1.2376336E2,6.592151E1,5.784185E1,9.805614E0,5.611589E1,5.265368E1,5.188173E0,3.927786E1,1.6838034E1,1.2411127E1,4.024255E1,3.1711727E1,7.5661316E0,9.247872E0,7.5901613E0,8.306823E0,4.1043043E0,1.1919267E1,2.8323286E1,2.7932083E1,3.7796447E0,4.0248723E0,3.5412588E0,3.9368796E0,3.6532815E0,3.3619237E0,4.944899E0,6.643142E0,5.2761245E0,1.0921724E1,1.7401562E1],"tree_param":{"num_deleted":"0","num_feature":"43","num_nodes":"31","size_leaf_vector":"1"}},{"base_weights":[-6.039442E-3,-3.634662E-1,3.8112238E-1,-2.7395815E-1,-4.2972982E-2,7.0184517E-1,1.4314036E-1,1.1910273E-1,-4.5231375E-1,8.4229195E-1,2.3053107E-1,2.3366113E-1,-1.5698459E-2,4.134137E-2,-3.9020172E-1,-4.1345786E-2,-3.3723208E-1,5.450226E-1,4.2221513E-2,-1.4528882E-2,3.0804833E-2,6.238087E-1,-1.7280912E-1,-2.8095527E-2,2.5529845E-3,-1.7810699E-2,7.229077E-3,3.492595E-2,-5.0532687E-3,9.993616E-3,4.6436183E-2,-2.9951947E-2,2.4178552E-3],"categories":[],"categories_nodes":[],"categories_segments":[],"categories_sizes":[],"default_left":[0,0,0,0,0,0,0,0,0,0,0,0,0,0,0,0,0,0,0,0,0,0,0,0,0,0,0,0,0,0,0,0,0],"id":14,"left_children":[1,3,5,7,-1,9,11,13,15,17,19,21,-1,-1,23,-1,25,27,-1,-1,-1,29,31,-1,-1,-1,-1,-1,-1,-1,-1,-1,-1],"loss_changes":[1.7153101E1,3.6802187E0,4.3474255E0,4.2113905E0,0E0,1.3440485E0,1.7980921E0,9.306526E0,2.247243E0,4.444542E-1,2.6423242E0,5.0965652E0,0E0,0E0,1.9293978E0,0E0,2.106172E0,2.3961537E0,0E0,0E0,0E0,2.8325663E0,2.2536817E0,0E0,0E0,0E0,0E0,0E0,0E0,0E0,0E0,0E0,0E0],"parents":[2147483647,0,0,1,1,2,2,3,3,5,5,6,6,7,7,8,8,9,9,10,10,11,11,14,14,16,16,17,17,21,21,22,22],"right_children":[2,4,6,8,-1,10,12,14,16,18,20,22,-1,-1,24,-1,26,28,-1,-1,-1,30,32,-1,-1,-1,-1,-1,-1,-1,-1,-1,-1],"split_conditions":[9.047849E-1,6.3611215E-1,2.6994225E-1,1E0,-4.2972982E-2,4.184343E1,5.8023584E-1,5.09E2,1E0,3.4642864E1,4.2896477E1,-8.419014E1,-1.5698459E-2,4.134137E-2,1.9E1,-4.1345786E-2,-7.981422E1,3.3487663E1,4.2221513E-2,-1.4528882E-2,3.0804833E-2,3.785888E-1,-8.270863E1,-2.8095527E-2,2.5529845E-3,-1.7810699E-2,7.229077E-3,3.492595E-2,-5.0532687E-3,9.993616E-3,4.6436183E-2,-2.9951947E-2,2.4178552E-3],"split_indices":[0,42,42,3,0,25,42,30,20,25,25,26,0,0,21,0,26,25,0,0,0,42,26,0,0,0,0,0,0,0,0,0,0],"split_type":[0,0,0,0,0,0,0,0,0,0,0,0,0,0,0,0,0,0,0,0,0,0,0,0,0,0,0,0,0,0,0,0,0],"sum_hessian":[1.2196644E2,6.3584705E1,5.8381737E1,5.782918E1,5.755522E0,2.3858644E1,3.4523094E1,1.7978851E1,3.985033E1,1.7611357E1,6.247289E0,3.017392E1,4.349173E0,6.133496E0,1.1845355E1,5.1226525E0,3.472768E1,9.037571E0,8.573785E0,3.041746E0,3.205543E0,1.52487955E1,1.4925124E1,6.8254423E0,5.0199127E0,2.9010174E1,5.717506E0,5.9687185E0,3.0688522E0,9.963076E0,5.2857194E0,3.788499E0,1.1136625E1],"tree_param":{"num_deleted":"0","num_feature":"43","num_nodes":"33","size_leaf_vector":"1"}},{"base_weights":[3.774167E-2,-3.025378E-1,4.1190904E-1,-4.022847E-2,-1.7072044E-1,5.9563977E-1,1.610407E-1,-4.5094945E-2,-3.95926E-2,7.4160284E-1,-2.1466829E-2,3.14316E-1,-2.4879366E-2,-5.0708497E-1,1.3666762E-1,3.3022305E-1,8.953818E-1,-1.6211567E-2,5.465737E-1,-3.039558E-2,-6.478647E-3,1.3054931E-2,-1.3639697E-2,-1.294619E-2,2.7719025E-2,3.860069E-2,1.619461E-2,3.1234022E-2,8.634146E-4],"categories":[],"categories_nodes":[],"categories_segments":[],"categories_sizes":[],"default_left":[0,0,0,0,0,0,0,0,0,0,0,0,0,0,0,0,0,0,0,0,0,0,0,0,0,0,0,0,0],"id":15,"left_children":[1,3,5,-1,7,9,11,13,-1,15,-1,17,-1,19,21,23,25,-1,27,-1,-1,-1,-1,-1,-1,-1,-1,-1,-1],"loss_changes":[1.5379599E1,5.563186E0,2.4827824E0,0E0,5.459561E0,5.81336E0,3.2788043E0,4.1709228E0,0E0,1.4424419E0,0E0,3.9911773E0,0E0,1.0092008E0,3.3148155E0,2.5772777E0,1.7759514E-1,0E0,2.0575137E0,0E0,0E0,0E0,0E0,0E0,0E0,0E0,0E0,0E0,0E0],"parents":[2147483647,0,0,1,1,2,2,4,4,5,5,6,6,7,7,9,9,11,11,13,13,14,14,15,15,16,16,18,18],"right_children":[2,4,6,-1,8,10,12,14,-1,16,-1,18,-1,20,22,24,26,-1,28,-1,-1,-1,-1,-1,-1,-1,-1,-1,-1],"split_conditions":[9.047849E-1,4E0,-8.419014E1,-4.022847E-2,6.303832E-1,5.8023584E-1,3.2E1,5.185185E-1,-3.95926E-2,-1.1716019E2,-2.1466829E-2,-8.270863E1,-2.4879366E-2,5.277778E1,9.14E2,9.5364237E-1,1.3549963E0,-1.6211567E-2,4E0,-3.039558E-2,-6.478647E-3,1.3054931E-2,-1.3639697E-2,-1.294619E-2,2.7719025E-2,3.860069E-2,1.619461E-2,3.1234022E-2,8.634146E-4],"split_indices":[0,16,26,0,42,42,21,0,0,26,0,26,0,35,6,0,7,0,14,0,0,0,0,0,0,0,0,0,0],"split_type":[0,0,0,0,0,0,0,0,0,0,0,0,0,0,0,0,0,0,0,0,0,0,0,0,0,0,0,0,0],"sum_hessian":[1.1872877E2,6.2140472E1,5.65883E1,8.643559E0,5.349691E1,3.1641678E1,2.4946623E1,4.740369E1,6.093219E0,2.841247E1,3.2292066E0,2.1470182E1,3.4764414E0,1.3034347E1,3.4369347E1,8.764338E0,1.9648132E1,4.9519563E0,1.6518225E1,6.6624384E0,6.371908E0,2.4976036E1,9.393309E0,3.0673723E0,5.696965E0,1.6179953E1,3.4681804E0,1.0952712E1,5.5655136E0],"tree_param":{"num_deleted":"0","num_feature":"43","num_nodes":"29","size_leaf_vector":"1"}},{"base_weights":[-4.8378732E-2,-3.7753344E-1,3.57776E-1,-4.359072E-2,-2.278703E-1,2.6792395E-1,7.875217E-1,-5.2029613E-2,-6.4644754E-1,-5.349193E-2,4.09153E-1,5.3321607E-2,-6.819826E-3,-2.6269296E-1,7.649034E-1,-4.0024783E-2,-1.7488538E-1,-1.6686773E-2,1.5800735E-1,5.2643724E-2,5.7951224E-1,-1.50039205E-2,2.3510017E-2,4.1700687E-2,6.3374075E-3,6.31192E-3,-2.1329207E-2,1.6509108E-2,-1.1836286E-2,1.7910024E-2,-1.49802E-2,4.1043036E-2,1.2053128E-2],"categories":[],"categories_nodes":[],"categories_segments":[],"categories_sizes":[],"default_left":[0,0,0,0,0,0,0,0,0,0,0,0,0,0,0,0,0,0,0,0,0,0,0,0,0,0,0,0,0,0,0,0,0],"id":16,"left_children":[1,3,5,-1,7,9,11,13,15,17,19,-1,-1,21,23,-1,25,-1,27,29,31,-1,-1,-1,-1,-1,-1,-1,-1,-1,-1,-1,-1],"loss_changes":[1.6421993E1,6.8584995E0,1.8035774E0,0E0,4.1283884E0,2.1963599E0,4.935554E0,7.334642E0,2.5053935E0,1.2496046E0,1.9146094E0,0E0,0E0,3.4520133E0,1.1821837E0,0E0,1.1372135E0,0E0,1.2979685E0,2.197173E0,2.301692E0,0E0,0E0,0E0,0E0,0E0,0E0,0E0,0E0,0E0,0E0,0E0,0E0],"parents":[2147483647,0,0,1,1,2,2,4,4,5,5,6,6,7,7,8,8,9,9,10,10,13,13,14,14,16,16,18,18,19,19,20,20],"right_children":[2,4,6,-1,8,10,12,14,16,18,20,-1,-1,22,24,-1,26,-1,28,30,32,-1,-1,-1,-1,-1,-1,-1,-1,-1,-1,-1,-1],"split_conditions":[9.233926E-1,4E0,2.7E1,-4.359072E-2,1.4191E2,9.793991E-1,-8.046993E1,1E0,1.4E1,-9.886025E1,4.2E1,5.3321607E-2,-6.819826E-3,4.4E0,2.7E1,-4.0024783E-2,5E0,-1.6686773E-2,-7.789663E1,2.7481624E-1,7.3E1,-1.50039205E-2,2.3510017E-2,4.1700687E-2,6.3374075E-3,6.31192E-3,-2.1329207E-2,1.6509108E-2,-1.1836286E-2,1.7910024E-2,-1.49802E-2,4.1043036E-2,1.2053128E-2],"split_indices":[0,16,21,0,7,5,26,4,21,26,28,0,0,38,21,0,22,0,26,7,28,0,0,0,0,0,0,0,0,0,0,0,0],"split_type":[0,0,0,0,0,0,0,0,0,0,0,0,0,0,0,0,0,0,0,0,0,0,0,0,0,0,0,0,0,0,0,0,0],"sum_hessian":[1.20813324E2,6.690724E1,5.3906086E1,1.041126E1,5.649598E1,4.6119484E1,7.786602E0,4.0743282E1,1.5752697E1,1.4052133E1,3.206735E1,4.7785206E0,3.0080817E0,3.302734E1,7.7159433E0,8.234268E0,7.518428E0,4.983418E0,9.068714E0,1.0981813E1,2.1085537E1,2.97692E1,3.2581398E0,4.6866984E0,3.0292447E0,4.0443163E0,3.4741118E0,6.0081825E0,3.0605314E0,5.801439E0,5.1803746E0,6.9234667E0,1.416207E1],"tree_param":{"num_deleted":"0","num_feature":"43","num_nodes":"33","size_leaf_vector":"1"}},{"base_weights":[-2.4293907E-2,1.2206273E-1,-6.356871E-1,2.9285127E-1,-6.7065847E-1,-4.306025E-2,-4.156129E-1,1.3009705E-1,7.7594525E-1,-4.46852E-2,-3.453715E-1,-3.0547274E-2,-9.955936E-2,-2.4974532E-2,1.9133821E-1,1.1082002E0,1.9253704E-1,-2.402246E-2,3.9675902E-4,-1.7799933E-2,1.1598817E-2,-1.830255E-4,1.793912E-2,5.424081E-2,1.8293533E-2,-1.8460741E-2,3.0297285E-2],"categories":[],"categories_nodes":[],"categories_segments":[],"categories_sizes":[],"default_left":[0,0,0,0,0,0,0,0,0,0,0,0,0,0,0,0,0,0,0,0,0,0,0,0,0,0,0],"id":17,"left_children":[1,3,5,7,9,-1,11,13,15,-1,17,-1,19,-1,21,23,25,-1,-1,-1,-1,-1,-1,-1,-1,-1,-1],"loss_changes":[1.0979108E1,1.350009E1,1.7038631E0,6.2459316E0,2.0338016E0,0E0,1.7734611E0,2.9684806E0,3.5869274E0,0E0,1.1347005E0,0E0,1.5605185E0,0E0,3.0079744E0,1.230752E0,3.5850375E0,0E0,0E0,0E0,0E0,0E0,0E0,0E0,0E0,0E0,0E0],"parents":[2147483647,0,0,1,1,2,2,3,3,4,4,6,6,7,7,8,8,10,10,12,12,14,14,15,15,16,16],"right_children":[2,4,6,8,10,-1,12,14,16,-1,18,-1,20,-1,22,24,26,-1,-1,-1,-1,-1,-1,-1,-1,-1,-1],"split_conditions":[0E0,1.4191E2,1E0,4.5960647E-1,9E0,-4.306025E-2,3E0,4E0,6.17E2,-4.46852E-2,4.8162E2,-3.0547274E-2,1.1E1,-2.4974532E-2,1.9E1,2.7E1,1.392E3,-2.402246E-2,3.9675902E-4,-1.7799933E-2,1.1598817E-2,-1.830255E-4,1.793912E-2,5.424081E-2,1.8293533E-2,-1.8460741E-2,3.0297285E-2],"split_indices":[34,7,20,7,21,0,14,16,6,0,7,0,29,0,21,21,32,0,0,0,0,0,0,0,0,0,0],"split_type":[0,0,0,0,0,0,0,0,0,0,0,0,0,0,0,0,0,0,0,0,0,0,0,0,0,0,0],"sum_hessian":[1.20255875E2,9.754269E1,2.2713188E1,8.087518E1,1.6667505E1,6.1161995E0,1.6596989E1,6.1598846E1,1.9276335E1,5.869554E0,1.0797951E1,7.0738583E0,9.52313E0,3.8117645E0,5.7787083E1,1.159944E1,7.676896E0,6.046284E0,4.7516665E0,5.107801E0,4.415329E0,3.313498E1,2.4652102E1,7.5048513E0,4.094588E0,3.5604537E0,4.116442E0],"tree_param":{"num_deleted":"0","num_feature":"43","num_nodes":"27","size_leaf_vector":"1"}},{"base_weights":[-9.447074E-3,-3.8800195E-2,8.673176E-2,-1.397125E-1,3.9004293E-1,-8.374156E-3,-5.1520854E-1,6.01365E-1,7.803852E-2,-1.918249E-1,8.439216E-1,-2.6824819E-2,-2.029398E-1,1.4841308E-1,1.0518979E0,-1.5042998E-1,2.5861554E-2,-1.889772E-2,-1.8423887E-3,5.2150004E-2,2.6669651E-3,3.6800138E-3,-1.9006977E-2,1.8850598E-2,-1.20545635E-2,1.5767446E-2,4.952948E-2,6.380213E-3,-2.5740875E-2],"categories":[],"categories_nodes":[],"categories_segments":[],"categories_sizes":[],"default_left":[0,0,0,0,0,0,0,0,0,0,0,0,0,0,0,0,0,0,0,0,0,0,0,0,0,0,0,0,0],"id":18,"left_children":[1,-1,3,5,7,9,11,13,15,17,19,-1,21,23,25,27,-1,-1,-1,-1,-1,-1,-1,-1,-1,-1,-1,-1,-1],"loss_changes":[1.1321324E1,0E0,7.6702213E0,3.0909543E0,3.0297146E0,7.6797123E0,5.6881857E-1,5.457052E0,2.8223634E0,1.5961163E0,2.8778315E0,0E0,6.499209E-1,2.3784955E0,1.0411558E0,2.5014656E0,0E0,0E0,0E0,0E0,0E0,0E0,0E0,0E0,0E0,0E0,0E0,0E0,0E0],"parents":[2147483647,0,0,2,2,3,3,4,4,5,5,6,6,7,7,8,8,9,9,10,10,12,12,13,13,14,14,15,15],"right_children":[2,-1,4,6,8,10,12,14,16,18,20,-1,22,24,26,28,-1,-1,-1,-1,-1,-1,-1,-1,-1,-1,-1,-1,-1],"split_conditions":[4E0,-3.8800195E-2,9.359643E-1,6.17E2,8E1,5.4E1,-8.7620544E1,3.9E1,1.11E2,5.185185E-1,1.02E2,-2.6824819E-2,9.3E1,9.952618E-1,3.3605293E1,4E0,2.5861554E-2,-1.889772E-2,-1.8423887E-3,5.2150004E-2,2.6669651E-3,3.6800138E-3,-1.9006977E-2,1.8850598E-2,-1.20545635E-2,1.5767446E-2,4.952948E-2,6.380213E-3,-2.5740875E-2],"split_indices":[16,0,0,6,28,6,26,28,28,0,28,0,28,0,25,14,0,0,0,0,0,0,0,0,0,0,0,0,0],"split_type":[0,0,0,0,0,0,0,0,0,0,0,0,0,0,0,0,0,0,0,0,0,0,0,0,0,0,0,0,0],"sum_hessian":[1.1967788E2,1.0160196E1,1.0951768E2,6.2824337E1,4.669334E1,4.7499065E1,1.5325271E1,2.7094307E1,1.9599035E1,3.982029E1,7.6787786E0,9.252576E0,6.072695E0,1.4284493E1,1.28098135E1,1.4379643E1,5.219391E0,1.2612441E1,2.7207848E1,4.318093E0,3.3606858E0,3.0562575E0,3.0164373E0,8.4171715E0,5.867322E0,3.6342535E0,9.17556E0,9.120578E0,5.2590656E0],"tree_param":{"num_deleted":"0","num_feature":"43","num_nodes":"29","size_leaf_vector":"1"}},{"base_weights":[-3.8245764E-2,-3.7814274E-2,6.513128E-2,1.695187E-1,-5.4109055E-1,6.406945E-2,9.165246E-1,-3.779728E-2,-3.8423993E-2,-3.4871358E-1,2.5481167E-1,4.9742483E-2,8.728827E-3,1.1924295E-2,-1.6125897E-2,-1.8661207E-2,7.993484E-3,1.6829584E-2,1.2471064E-4],"categories":[],"categories_nodes":[],"categories_segments":[],"categories_sizes":[],"default_left":[0,0,0,0,0,0,0,0,0,0,0,0,0,0,0,0,0,0,0],"id":19,"left_children":[1,-1,3,5,7,9,11,-1,13,15,17,-1,-1,-1,-1,-1,-1,-1,-1],"loss_changes":[1.1474892E1,0E0,6.9682965E0,7.256055E0,3.1431375E0,6.6662436E0,2.1969604E0,0E0,1.155081E0,1.8452296E0,2.3769405E0,0E0,0E0,0E0,0E0,0E0,0E0,0E0,0E0],"parents":[2147483647,0,0,2,2,3,3,4,4,5,5,6,6,8,8,9,9,10,10],"right_children":[2,-1,4,6,8,10,12,-1,14,16,18,-1,-1,-1,-1,-1,-1,-1,-1],"split_conditions":[4E0,-3.7814274E-2,1.4168E2,1.223406E1,1.4E1,8.770556E-1,9.9E1,-3.779728E-2,3.97723E1,-7.981422E1,-8.316359E1,4.9742483E-2,8.728827E-3,1.1924295E-2,-1.6125897E-2,-1.8661207E-2,7.993484E-3,1.6829584E-2,1.2471064E-4],"split_indices":[16,0,7,7,21,0,28,0,25,26,26,0,0,0,0,0,0,0,0],"split_type":[0,0,0,0,0,0,0,0,0,0,0,0,0,0,0,0,0,0,0],"sum_hessian":[1.19771645E2,1.1518847E1,1.0825279E2,9.3105896E1,1.5146898E1,8.26574E1,1.0448493E1,7.800895E0,7.3460035E0,2.5696167E1,5.696124E1,6.4865866E0,3.9619067E0,3.773059E0,3.5729444E0,2.1426126E1,4.27004E0,3.368538E1,2.3275856E1],"tree_param":{"num_deleted":"0","num_feature":"43","num_nodes":"19","size_leaf_vector":"1"}},{"base_weights":[2.361131E-2,-3.8287695E-2,1.3374014E-1,2.0774347E-1,-3.5844915E-2,1.2544267E-2,4.6142685E-1,-2.6811516E-1,1.6140866E-1,9.7470665E-1,3.0116352E-1,-2.1540873E-2,1.2429796E-2,2.0891517E-2,-6.68895E-3,4.564436E-2,1.7845681E-2,7.63634E-3,3.4146037E-2],"categories":[],"categories_nodes":[],"categories_segments":[],"categories_sizes":[],"default_left":[0,0,0,0,0,0,0,0,0,0,0,0,0,0,0,0,0,0,0],"id":20,"left_children":[1,-1,3,5,-1,7,9,11,13,15,17,-1,-1,-1,-1,-1,-1,-1,-1],"loss_changes":[1.2808725E1,0E0,8.287478E0,4.944092E0,0E0,2.4676914E0,3.1681585E0,3.3743286E0,4.7410536E0,1.9295216E-1,1.8552585E0,0E0,0E0,0E0,0E0,0E0,0E0,0E0,0E0],"parents":[2147483647,0,0,2,2,3,3,5,5,6,6,7,7,8,8,9,9,10,10],"right_children":[2,-1,4,6,-1,8,10,12,14,16,18,-1,-1,-1,-1,-1,-1,-1,-1],"split_conditions":[4E0,-3.8287695E-2,6.3611215E-1,9.359643E-1,-3.5844915E-2,-9.68812E1,1.9184336E-1,3.0794808E-1,3.9885033E1,-8.138796E1,4.5430657E-1,-2.1540873E-2,1.2429796E-2,2.0891517E-2,-6.68895E-3,4.564436E-2,1.7845681E-2,7.63634E-3,3.4146037E-2],"split_indices":[16,0,42,5,0,26,42,42,25,26,42,0,0,0,0,0,0,0,0],"split_type":[0,0,0,0,0,0,0,0,0,0,0,0,0,0,0,0,0,0,0],"sum_hessian":[1.17160286E2,1.0959122E1,1.06201164E2,9.991678E1,6.2843833E0,5.7283253E1,4.2633526E1,1.9342783E1,3.7940468E1,8.786592E0,3.3846935E1,1.3349284E1,5.993499E0,1.7947212E1,1.9993258E1,5.6574435E0,3.129148E0,2.9488684E1,4.3582516E0],"tree_param":{"num_deleted":"0","num_feature":"43","num_nodes":"19","size_leaf_vector":"1"}},{"base_weights":[2.5309728E-2,-2.1517164E-1,4.2876774E-1,-3.4951594E-2,-1.06077276E-1,4.846267E-2,5.919524E-1,5.579233E-2,-5.4520094E-1,3.7656638E-1,-1.5381281E-2,8.9781463E-1,3.0749702E-1,-5.02902E-1,2.9494822E-1,-8.5778844E-1,2.5129728E-3,-4.7254846E-3,2.75891E-2,1.1064397E0,1.3218737E-2,6.0411297E-2,3.6171388E-2,-2.7942216E-2,-2.0333857E-3,2.7693063E-2,1.8966598E-3,-4.5216374E-2,-2.0329261E-2,1.8352639E-2,5.2557588E-2,-1.1215617E-2,2.8063588E-2],"categories":[],"categories_nodes":[],"categories_segments":[],"categories_sizes":[],"default_left":[0,0,0,0,0,0,0,0,0,0,0,0,0,0,0,0,0,0,0,0,0,0,0,0,0,0,0,0,0,0,0,0,0],"id":21,"left_children":[1,3,5,-1,7,9,11,13,15,17,-1,19,21,23,25,27,-1,-1,-1,29,-1,31,-1,-1,-1,-1,-1,-1,-1,-1,-1,-1,-1],"loss_changes":[1.1469772E1,5.115163E0,2.6503305E0,0E0,4.672554E0,2.2102892E0,2.2705717E0,6.5351477E0,3.490549E0,1.5191586E0,0E0,1.1574173E0,2.4403253E0,1.1825881E0,3.2706823E0,3.9021587E-1,0E0,0E0,0E0,5.2888393E-1,0E0,3.2146688E0,0E0,0E0,0E0,0E0,0E0,0E0,0E0,0E0,0E0,0E0,0E0],"parents":[2147483647,0,0,1,1,2,2,4,4,5,5,6,6,7,7,8,8,9,9,11,11,12,12,13,13,14,14,15,15,19,19,21,21],"right_children":[2,4,6,-1,8,10,12,14,16,18,-1,20,22,24,26,28,-1,-1,-1,30,-1,32,-1,-1,-1,-1,-1,-1,-1,-1,-1,-1,-1],"split_conditions":[9.359643E-1,4E0,3.9E1,-3.4951594E-2,6.14E2,5.8E1,8E1,1E0,1.9E1,9E0,-1.5381281E-2,2.4E1,2.7481624E-1,6.7E1,8.049327E-1,7E0,2.5129728E-3,-4.7254846E-3,2.75891E-2,1.3E1,1.3218737E-2,1.9E1,3.6171388E-2,-2.7942216E-2,-2.0333857E-3,2.7693063E-2,1.8966598E-3,-4.5216374E-2,-2.0329261E-2,1.8352639E-2,5.2557588E-2,-1.1215617E-2,2.8063588E-2],"split_indices":[5,16,28,0,6,6,28,1,21,29,0,21,7,28,5,21,0,0,0,21,0,21,0,0,0,0,0,0,0,0,0,0,0],"split_type":[0,0,0,0,0,0,0,0,0,0,0,0,0,0,0,0,0,0,0,0,0,0,0,0,0,0,0,0,0,0,0,0,0],"sum_hessian":[1.1604464E2,7.2844475E1,4.3200165E1,9.2251005E0,6.3619373E1,1.3544415E1,2.9655746E1,4.6955772E1,1.6663599E1,7.9110513E0,5.6333647E0,1.3081733E1,1.6574015E1,1.36191025E1,3.333667E1,1.0842916E1,5.820684E0,3.1842682E0,4.7267833E0,8.741016E0,4.3407164E0,1.2618441E1,3.9555736E0,8.970322E0,4.6487813E0,1.195064E1,2.1386032E1,4.676097E0,6.166818E0,3.0171978E0,5.7238193E0,8.504714E0,4.113727E0],"tree_param":{"num_deleted":"0","num_feature":"43","num_nodes":"33","size_leaf_vector":"1"}},{"base_weights":[-3.3485755E-2,7.049756E-2,-4.9208993E-1,1.3176508E-1,-4.1623376E-2,-3.840693E-2,-2.861983E-1,2.1155505E-1,-3.1719384E-1,-5.076613E-1,1.3008663E-2,7.9722345E-2,6.4223516E-1,-2.9882388E-2,-9.753641E-2,-3.2929752E-3,-6.9406515E-1,-2.5843237E-2,5.5358433E-3,3.457679E-2,9.182237E-3,-1.2784449E-2,1.1027091E-2,-1.24114975E-2,-3.38916E-2],"categories":[],"categories_nodes":[],"categories_segments":[],"categories_sizes":[],"default_left":[0,0,0,0,0,0,0,0,0,0,0,0,0,0,0,0,0,0,0,0,0,0,0,0,0],"id":22,"left_children":[1,3,5,7,-1,-1,9,11,13,15,-1,17,19,-1,21,-1,23,-1,-1,-1,-1,-1,-1,-1,-1],"loss_changes":[5.7396297E0,6.683174E0,1.7450294E0,3.4014482E0,0E0,0E0,2.4888802E0,4.4229774E0,1.193072E0,8.967085E-1,0E0,2.7056305E0,1.3835726E0,0E0,9.850635E-1,0E0,1.3573742E-1,0E0,0E0,0E0,0E0,0E0,0E0,0E0,0E0],"parents":[2147483647,0,0,1,1,2,2,3,3,6,6,7,7,8,8,9,9,11,11,12,12,14,14,16,16],"right_children":[2,4,6,8,-1,-1,10,12,14,16,-1,18,20,-1,22,-1,24,-1,-1,-1,-1,-1,-1,-1,-1],"split_conditions":[0E0,8.178832E-1,1E0,7.659E1,-4.1623376E-2,-3.840693E-2,4.4E0,4.5960647E-1,1.2E1,1.7E1,1.3008663E-2,1E0,6.78E2,-2.9882388E-2,-8.6069374E1,-3.2929752E-3,1.5E1,-2.5843237E-2,5.5358433E-3,3.457679E-2,9.182237E-3,-1.2784449E-2,1.1027091E-2,-1.24114975E-2,-3.38916E-2],"split_indices":[34,42,20,7,0,0,38,7,21,21,0,17,6,0,26,0,29,0,0,0,0,0,0,0,0],"split_type":[0,0,0,0,0,0,0,0,0,0,0,0,0,0,0,0,0,0,0,0,0,0,0,0,0],"sum_hessian":[1.1774847E2,9.649708E1,2.1251396E1,9.237473E1,4.122338E0,5.2245297E0,1.6026865E1,7.9073204E1,1.3301536E1,1.2009945E1,4.01692E0,6.162643E1,1.744677E1,3.532404E0,9.769132E0,4.2623096E0,7.747636E0,3.732992E0,5.789344E1,1.0471818E1,6.974951E0,6.382747E0,3.3863847E0,3.2600262E0,4.4876094E0],"tree_param":{"num_deleted":"0","num_feature":"43","num_nodes":"25","size_leaf_vector":"1"}},{"base_weights":[-6.517444E-2,-2.8526095E-1,3.3968377E-1,-3.740416E-2,-1.7028135E-1,5.0628453E-1,3.7056122E-2,-5.5467874E-1,-6.564356E-2,6.850966E-1,-5.6002247E-3,-2.1459078E-2,3.1710294E-1,-3.0639857E-2,-2.5248744E-3,-3.8440323E-1,1.3853423E-1,1.21540055E-1,9.337647E-1,3.0630276E-2,-7.0244754E-3,-2.7077987E-3,-3.2652855E-2,1.4836036E-2,-6.945108E-3,1.2722311E-2,-4.7775684E-3,7.7446713E-3,4.3961868E-2],"categories":[],"categories_nodes":[],"categories_segments":[],"categories_sizes":[],"default_left":[0,0,0,0,0,0,0,0,0,0,0,0,0,0,0,0,0,0,0,0,0,0,0,0,0,0,0,0,0],"id":23,"left_children":[1,3,5,-1,7,9,11,13,15,17,-1,-1,19,-1,-1,21,23,25,27,-1,-1,-1,-1,-1,-1,-1,-1,-1,-1],"loss_changes":[1.1001504E1,5.7096086E0,2.1158915E0,0E0,2.6909065E0,3.352654E0,2.8316472E0,1.3748703E0,3.712662E0,2.8633642E0,0E0,0E0,2.8399048E0,0E0,0E0,2.9015815E0,2.592903E0,4.3702418E-1,1.4915323E0,0E0,0E0,0E0,0E0,0E0,0E0,0E0,0E0,0E0,0E0],"parents":[2147483647,0,0,1,1,2,2,4,4,5,5,6,6,7,7,8,8,9,9,12,12,15,15,16,16,17,17,18,18],"right_children":[2,4,6,-1,8,10,12,14,16,18,-1,-1,20,-1,-1,22,24,26,28,-1,-1,-1,-1,-1,-1,-1,-1,-1,-1],"split_conditions":[9.361702E-1,4E0,4E0,-3.740416E-2,5.185185E-1,1.08E2,9.8531914E-1,6.7E1,1.6E1,2.9E1,-5.6002247E-3,-2.1459078E-2,-8.366516E1,-3.0639857E-2,-2.5248744E-3,6.17E2,9.5E1,-8.316359E1,2E0,3.0630276E-2,-7.0244754E-3,-2.7077987E-3,-3.2652855E-2,1.4836036E-2,-6.945108E-3,1.2722311E-2,-4.7775684E-3,7.7446713E-3,4.3961868E-2],"split_indices":[0,16,14,0,0,28,0,28,21,28,0,0,26,0,0,6,28,26,27,0,0,0,0,0,0,0,0,0,0],"split_type":[0,0,0,0,0,0,0,0,0,0,0,0,0,0,0,0,0,0,0,0,0,0,0,0,0,0,0,0,0],"sum_hessian":[1.2144197E2,7.902519E1,4.2416775E1,1.0677192E1,6.8348E1,2.6709448E1,1.5707329E1,1.3499526E1,5.4848476E1,2.0995274E1,5.714174E0,4.735769E0,1.097156E1,8.908197E0,4.5913286E0,2.1261845E1,3.358663E1,7.006759E0,1.3988515E1,5.5587225E0,5.412837E0,1.3067921E1,8.193924E0,1.9329983E1,1.4256647E1,3.9118102E0,3.0949492E0,3.060367E0,1.0928147E1],"tree_param":{"num_deleted":"0","num_feature":"43","num_nodes":"29","size_leaf_vector":"1"}},{"base_weights":[-6.813764E-2,-3.0266085E-1,2.704499E-1,-3.9451115E-2,-2.3070258E-1,4.3284148E-1,4.5257084E-2,-1.1413071E-1,-5.732472E-1,5.6606844E-2,8.344196E-1,-2.3208247E-2,2.611256E-1,-2.6945993E-1,7.04295E-1,-3.2628205E-2,-3.0946496E-3,2.9311517E-1,-1.8040802E-2,4.060644E-2,1.4258878E-2,4.9775374E-1,-7.400411E-3,-2.4347257E-2,-3.473346E-3,1.1451304E-2,3.477006E-2,3.6088772E-2,-4.604732E-3,2.3055994E-3,2.7533757E-2],"categories":[],"categories_nodes":[],"categories_segments":[],"categories_sizes":[],"default_left":[0,0,0,0,0,0,0,0,0,0,0,0,0,0,0,0,0,0,0,0,0,0,0,0,0,0,0,0,0,0,0],"id":24,"left_children":[1,3,5,-1,7,9,11,13,15,17,19,-1,21,23,25,-1,-1,27,-1,-1,-1,29,-1,-1,-1,-1,-1,-1,-1,-1,-1],"loss_changes":[9.641838E0,3.180242E0,1.7465556E0,0E0,2.5154104E0,4.161411E0,3.1112764E0,6.6262054E0,1.8170915E0,2.023827E0,6.7216396E-1,0E0,1.9476826E0,2.5828364E0,2.0825338E-1,0E0,0E0,3.061629E0,0E0,0E0,0E0,8.679137E-1,0E0,0E0,0E0,0E0,0E0,0E0,0E0,0E0,0E0],"parents":[2147483647,0,0,1,1,2,2,4,4,5,5,6,6,7,7,8,8,9,9,10,10,12,12,13,13,14,14,17,17,21,21],"right_children":[2,4,6,-1,8,10,12,14,16,18,20,-1,22,24,26,-1,-1,28,-1,-1,-1,30,-1,-1,-1,-1,-1,-1,-1,-1,-1],"split_conditions":[9.359643E-1,1E0,7.9E1,-3.9451115E-2,6.14E2,4.2E1,8.8E1,1E0,1.9E1,2.4E1,-8.1594246E1,-2.3208247E-2,4.072791E1,-9.859722E1,3.5850487E1,-3.2628205E-2,-3.0946496E-3,-8.784644E1,-1.8040802E-2,4.060644E-2,1.4258878E-2,-9.886025E1,-7.400411E-3,-2.4347257E-2,-3.473346E-3,1.1451304E-2,3.477006E-2,3.6088772E-2,-4.604732E-3,2.3055994E-3,2.7533757E-2],"split_indices":[0,20,28,0,31,28,28,4,21,21,26,0,25,26,25,0,0,26,0,0,0,26,0,0,0,0,0,0,0,0,0],"split_type":[0,0,0,0,0,0,0,0,0,0,0,0,0,0,0,0,0,0,0,0,0,0,0,0,0,0,0,0,0,0,0],"sum_hessian":[1.1935218E2,7.074913E1,4.860305E1,5.3954463E0,6.535368E1,2.7445402E1,2.1157646E1,4.9972565E1,1.5381119E1,1.4887463E1,1.255794E1,4.876711E0,1.6280935E1,4.266761E1,7.3049526E0,9.761614E0,5.6195045E0,1.0578438E1,4.309025E0,8.144699E0,4.41324E0,1.0709252E1,5.571684E0,1.392393E1,2.8743683E1,3.0125768E0,4.292376E0,3.8576047E0,6.720833E0,3.788321E0,6.9209313E0],"tree_param":{"num_deleted":"0","num_feature":"43","num_nodes":"31","size_leaf_vector":"1"}},{"base_weights":[-1.44440085E-2,-2.0106407E-1,3.6573914E-1,-3.5104208E-2,-9.571947E-2,5.774522E-1,6.070005E-2,6.7020796E-2,-5.6438345E-1,7.4250185E-1,1.3072361E-1,-2.2646286E-2,2.696376E-1,-8.053202E-2,7.5128996E-1,-3.769771E-2,-3.7353035E-2,1.1748519E-2,9.2082554E-1,1.603914E-2,-7.1922946E-3,6.1678284E-1,-7.885945E-3,-6.006668E-3,2.1514723E-2,-1.575586E-3,4.6215516E-2,-1.1639369E-2,1.2652376E-2,4.256514E-2,1.7330978E-2,9.227917E-3,3.775353E-2],"categories":[],"categories_nodes":[],"categories_segments":[],"categories_sizes":[],"default_left":[0,0,0,0,0,0,0,0,0,0,0,0,0,0,0,0,0,0,0,0,0,0,0,0,0,0,0,0,0,0,0,0,0],"id":25,"left_children":[1,3,5,-1,7,9,11,13,15,17,19,-1,21,23,25,-1,27,-1,29,-1,-1,31,-1,-1,-1,-1,-1,-1,-1,-1,-1,-1,-1],"loss_changes":[8.485232E0,5.555923E0,2.438517E0,0E0,5.4955044E0,1.5027595E0,2.4030156E0,5.5156226E0,3.5608416E0,9.151001E-1,7.2786397E-1,0E0,2.4083948E0,1.966093E0,3.2510047E0,0E0,8.874675E-1,0E0,1.6191864E-1,0E0,0E0,7.141073E-1,0E0,0E0,0E0,0E0,0E0,0E0,0E0,0E0,0E0,0E0,0E0],"parents":[2147483647,0,0,1,1,2,2,4,4,5,5,6,6,7,7,8,8,9,9,10,10,12,12,13,13,14,14,16,16,18,18,21,21],"right_children":[2,4,6,-1,8,10,12,14,16,18,20,-1,22,24,26,-1,28,-1,30,-1,-1,32,-1,-1,-1,-1,-1,-1,-1,-1,-1,-1,-1],"split_conditions":[9.361702E-1,4E0,-8.342591E1,-3.5104208E-2,6.14E2,9.9E1,2E0,1.4610655E0,1.4E1,3.2E1,2.1E1,-2.2646286E-2,2.8429267E-1,4.3000404E1,3.3605293E1,-3.769771E-2,-8.7620544E1,1.1748519E-2,2.3E1,1.603914E-2,-7.1922946E-3,1.9E1,-7.885945E-3,-6.006668E-3,2.1514723E-2,-1.575586E-3,4.6215516E-2,-1.1639369E-2,1.2652376E-2,4.256514E-2,1.7330978E-2,9.227917E-3,3.775353E-2],"split_indices":[5,16,26,0,6,28,27,7,21,28,29,0,7,25,25,0,26,0,21,0,0,21,0,0,0,0,0,0,0,0,0,0,0],"split_type":[0,0,0,0,0,0,0,0,0,0,0,0,0,0,0,0,0,0,0,0,0,0,0,0,0,0,0,0,0,0,0,0,0],"sum_hessian":[1.1779049E2,7.95004E1,3.8290096E1,9.595617E0,6.990478E1,2.1881985E1,1.6408112E1,5.2365017E1,1.753976E1,1.5331593E1,6.5503926E0,3.5547614E0,1.2853351E1,4.3681828E1,8.68319E0,9.643877E0,7.8958826E0,5.2718163E0,1.0059776E1,3.5187707E0,3.0316222E0,7.309916E0,5.5434346E0,4.0086754E1,3.595075E0,3.1583848E0,5.5248055E0,4.8661065E0,3.0297763E0,6.7021484E0,3.357628E0,4.2747564E0,3.0351593E0],"tree_param":{"num_deleted":"0","num_feature":"43","num_nodes":"33","size_leaf_vector":"1"}},{"base_weights":[-1.6327992E-2,-3.28708E-2,6.7130595E-2,1.3377772E-1,-7.7118725E-1,2.0372069E-1,-2.4695206E-1,-1.1891906E-2,-3.9421238E-2,1.4053172E-1,5.91365E-1,-5.2719855E-1,2.0854129E-2,3.1117701E-3,2.1085665E-2,2.9814614E-2,7.653118E-3,3.4006825E-3,-3.042839E-2],"categories":[],"categories_nodes":[],"categories_segments":[],"categories_sizes":[],"default_left":[0,0,0,0,0,0,0,0,0,0,0,0,0,0,0,0,0,0,0],"id":26,"left_children":[1,-1,3,5,7,9,11,-1,-1,13,15,17,-1,-1,-1,-1,-1,-1,-1],"loss_changes":[7.960797E0,0E0,5.981872E0,2.6953142E0,3.7814522E-1,1.9213185E0,3.6495354E0,0E0,0E0,1.7046112E0,4.6323514E-1,1.8584514E0,0E0,0E0,0E0,0E0,0E0,0E0,0E0],"parents":[2147483647,0,0,2,2,3,3,4,4,5,5,6,6,9,9,10,10,11,11],"right_children":[2,-1,4,6,8,10,12,-1,-1,14,16,18,-1,-1,-1,-1,-1,-1,-1],"split_conditions":[4E0,-3.28708E-2,6.303832E-1,0E0,8.178832E-1,2.8E1,4.4E0,-1.1891906E-2,-3.9421238E-2,4.5430657E-1,6.9E1,-9.246428E1,2.0854129E-2,3.1117701E-3,2.1085665E-2,2.9814614E-2,7.653118E-3,3.4006825E-3,-3.042839E-2],"split_indices":[16,0,42,34,42,29,38,0,0,42,6,26,0,0,0,0,0,0,0],"split_type":[0,0,0,0,0,0,0,0,0,0,0,0,0,0,0,0,0,0,0],"sum_hessian":[1.1548385E2,1.012465E1,1.053592E2,9.848894E1,6.8702636E0,8.381843E1,1.4670512E1,3.0283904E0,3.8418732E0,7.346377E1,1.0354658E1,1.1074836E1,3.5956767E0,6.4462875E1,9.000891E0,6.6726866E0,3.6819715E0,3.1151807E0,7.959655E0],"tree_param":{"num_deleted":"0","num_feature":"43","num_nodes":"19","size_leaf_vector":"1"}},{"base_weights":[1.5135727E-2,-2.6555687E-1,3.6137888E-1,-3.4221034E-2,-1.6088367E-1,6.971114E-2,6.96502E-1,-4.7198016E-2,-4.3861204E-1,-5.693425E-2,1.9933496E-2,1.0135094E0,1.1693767E-1,-2.118957E-1,6.457538E-1,-7.0657057E-1,1.6703969E-3,6.577507E-2,-2.4867276E-2,1.8232653E-2,1.1192957E0,-1.4812615E-2,2.2466116E-2,-2.161559E-2,-1.6549147E-3,1.0336621E-2,3.360275E-2,-3.754799E-2,-1.6192948E-2,-3.6625888E-3,2.9269895E-2,2.1731984E-2,5.075174E-2],"categories":[],"categories_nodes":[],"categories_segments":[],"categories_sizes":[],"default_left":[0,0,0,0,0,0,0,0,0,0,0,0,0,0,0,0,0,0,0,0,0,0,0,0,0,0,0,0,0,0,0,0,0],"id":27,"left_children":[1,3,5,-1,7,9,11,13,15,17,-1,19,21,23,25,27,-1,29,-1,-1,31,-1,-1,-1,-1,-1,-1,-1,-1,-1,-1,-1,-1],"loss_changes":[1.1526262E1,3.7942462E0,5.0744057E0,0E0,1.725665E0,1.6854166E0,4.2666063E0,4.854122E0,2.1729786E0,1.7356409E0,0E0,2.517166E-1,2.3720384E0,1.8560842E0,2.8579473E-1,2.2442341E-1,0E0,2.246607E0,0E0,0E0,1.8532753E-1,0E0,0E0,0E0,0E0,0E0,0E0,0E0,0E0,0E0,0E0,0E0,0E0],"parents":[2147483647,0,0,1,1,2,2,4,4,5,5,6,6,7,7,8,8,9,9,11,11,12,12,13,13,14,14,15,15,17,17,20,20],"right_children":[2,4,6,-1,8,10,12,14,16,18,-1,20,22,24,26,28,-1,30,-1,-1,32,-1,-1,-1,-1,-1,-1,-1,-1,-1,-1,-1,-1],"split_conditions":[9.233926E-1,4E0,1.8E1,-3.4221034E-2,6.14E2,-8.031744E1,9.7994614E-1,5.4E1,1.9E1,5.6242566E0,1.9933496E-2,9.359643E-1,4.5960647E-1,7.5E-1,-8.8011024E1,7E0,1.6703969E-3,3.6958045E-1,-2.4867276E-2,1.8232653E-2,6E0,-1.4812615E-2,2.2466116E-2,-2.161559E-2,-1.6549147E-3,1.0336621E-2,3.360275E-2,-3.754799E-2,-1.6192948E-2,-3.6625888E-3,2.9269895E-2,2.1731984E-2,5.075174E-2],"split_indices":[0,16,21,0,6,26,0,6,21,7,0,0,7,15,26,21,0,7,0,0,29,0,0,0,0,0,0,0,0,0,0,0,0],"split_type":[0,0,0,0,0,0,0,0,0,0,0,0,0,0,0,0,0,0,0,0,0,0,0,0,0,0,0,0,0,0,0,0,0],"sum_hessian":[1.1651167E2,6.4316086E1,5.2195583E1,8.466687E0,5.58494E1,2.8712576E1,2.3483007E1,4.071364E1,1.5135759E1,2.2653156E1,6.0594187E0,1.4584409E1,8.898599E0,3.3572742E1,7.140897E0,9.54738E0,5.5883794E0,1.9189987E1,3.4631703E0,3.3225358E0,1.1261873E1,4.218751E0,4.6798477E0,1.053081E1,2.3041933E1,3.3358605E0,3.805036E0,4.015799E0,5.531581E0,1.6098886E1,3.0911007E0,3.413429E0,7.8484435E0],"tree_param":{"num_deleted":"0","num_feature":"43","num_nodes":"33","size_leaf_vector":"1"}},{"base_weights":[-0E0,-3.2826763E-2,7.912234E-2,3.471227E-1,-1.2335245E-1,4.583202E-1,-2.860752E-1,-4.5219874E-1,9.980588E-3,1.1367915E-1,7.061425E-1,-2.0193972E-2,-0E0,-1.6775192E-1,-3.6469955E-2,-1.8869777E-1,5.7284755E-1,-6.3995114E-3,2.2704443E-2,-1.5865357E-3,3.34782E-2,-2.0282183E-2,6.8404675E-3,-2.0382386E-2,3.2131576E-3,3.600553E-2,-7.3876767E-3],"categories":[],"categories_nodes":[],"categories_segments":[],"categories_sizes":[],"default_left":[0,0,0,0,0,0,0,0,0,0,0,0,0,0,0,0,0,0,0,0,0,0,0,0,0,0,0],"id":28,"left_children":[1,-1,3,5,7,9,11,13,15,17,19,-1,-1,21,-1,23,25,-1,-1,-1,-1,-1,-1,-1,-1,-1,-1],"loss_changes":[7.5869083E0,0E0,5.8475475E0,3.4107575E0,2.7332726E0,3.2483072E0,4.5670915E-1,2.0790808E0,5.103394E0,2.3755667E0,2.3439445E0,0E0,0E0,1.5475621E0,0E0,2.9654303E0,3.1989079E0,0E0,0E0,0E0,0E0,0E0,0E0,0E0,0E0,0E0,0E0],"parents":[2147483647,0,0,2,2,3,3,4,4,5,5,6,6,7,7,8,8,9,9,10,10,13,13,15,15,16,16],"right_children":[2,-1,4,6,8,10,12,14,16,18,20,-1,-1,22,-1,24,26,-1,-1,-1,-1,-1,-1,-1,-1,-1,-1],"split_conditions":[4E0,-3.2826763E-2,2.6994225E-1,1.4766E2,1.2E1,3.509912E1,1.9E1,5.4936963E-1,4.5960647E-1,-8.960349E1,1E0,-2.0193972E-2,-0E0,3.151916E-1,-3.6469955E-2,3.6021897E-1,1.42E3,-6.3995114E-3,2.2704443E-2,-1.5865357E-3,3.34782E-2,-2.0282183E-2,6.8404675E-3,-2.0382386E-2,3.2131576E-3,3.600553E-2,-7.3876767E-3],"split_indices":[16,0,42,7,21,25,21,42,7,26,1,0,0,42,0,42,30,0,0,0,0,0,0,0,0,0,0],"split_type":[0,0,0,0,0,0,0,0,0,0,0,0,0,0,0,0,0,0,0,0,0,0,0,0,0,0,0],"sum_hessian":[1.148354E2,9.274423E0,1.0556098E2,4.5334576E1,6.022641E1,3.8931774E1,6.402799E0,1.6901026E1,4.3325382E1,1.7063776E1,2.1867998E1,3.1689298E0,3.2338693E0,1.1416944E1,5.4840827E0,3.238231E1,1.0943074E1,1.0912245E1,6.1515317E0,3.2531338E0,1.8614864E1,5.603219E0,5.813724E0,1.4530156E1,1.7852152E1,7.602306E0,3.340768E0],"tree_param":{"num_deleted":"0","num_feature":"43","num_nodes":"27","size_leaf_vector":"1"}},{"base_weights":[-3.216471E-2,-2.8290698E-1,2.0367478E-1,-1.8742187E-1,-3.5768185E-2,5.0527954E-1,-5.869955E-3,-4.231368E-1,2.5803542E-1,2.0004913E-1,7.1274596E-1,-1.1210147E-1,4.416318E-1,-4.9423566E-1,5.247363E-3,3.7942868E-2,-1.2151639E-1,-4.843851E-3,2.0510241E-2,9.461597E-1,7.766201E-3,-3.2430702E-1,2.3136708E-1,3.7058074E-2,-5.0911508E-3,-3.1099647E-2,-1.4706536E-2,9.475983E-3,-1.4332935E-2,1.2330708E-2,4.7242507E-2,-1.711359E-2,1.2155811E-3,2.0394873E-2,-1.3233151E-2],"categories":[],"categories_nodes":[],"categories_segments":[],"categories_sizes":[],"default_left":[0,0,0,0,0,0,0,0,0,0,0,0,0,0,0,0,0,0,0,0,0,0,0,0,0,0,0,0,0,0,0,0,0,0,0],"id":29,"left_children":[1,3,5,7,-1,9,11,13,15,17,19,21,23,25,-1,-1,27,-1,-1,29,-1,31,33,-1,-1,-1,-1,-1,-1,-1,-1,-1,-1,-1,-1],"loss_changes":[7.0178957E0,3.086783E0,3.9055665E0,5.5050483E0,0E0,1.3617754E0,1.7641995E0,1.4422698E0,4.9687924E0,1.284421E0,1.4472656E0,2.321045E0,2.1491442E0,6.942005E-1,0E0,0E0,1.1613096E0,0E0,0E0,9.1802025E-1,0E0,7.712221E-1,2.0847385E0,0E0,0E0,0E0,0E0,0E0,0E0,0E0,0E0,0E0,0E0,0E0,0E0],"parents":[2147483647,0,0,1,1,2,2,3,3,5,5,6,6,7,7,8,8,9,9,10,10,11,11,12,12,13,13,16,16,19,19,21,21,22,22],"right_children":[2,4,6,8,-1,10,12,14,16,18,20,22,24,26,-1,-1,28,-1,-1,30,-1,32,34,-1,-1,-1,-1,-1,-1,-1,-1,-1,-1,-1,-1],"split_conditions":[8.770556E-1,6.303832E-1,2.6994225E-1,5.4E1,-3.5768185E-2,1.3E1,4.5960647E-1,4.6E0,8.096E1,1.8E1,2.4E1,3.9504918E-1,8.566686E0,1E0,5.247363E-3,3.7942868E-2,1.8E1,-4.843851E-3,2.0510241E-2,3.557228E1,7.766201E-3,4.0797813E1,2.6E1,3.7058074E-2,-5.0911508E-3,-3.1099647E-2,-1.4706536E-2,9.475983E-3,-1.4332935E-2,1.2330708E-2,4.7242507E-2,-1.711359E-2,1.2155811E-3,2.0394873E-2,-1.3233151E-2],"split_indices":[5,42,42,6,0,29,7,38,7,21,21,42,7,8,0,0,29,0,0,25,0,25,29,0,0,0,0,0,0,0,0,0,0,0,0],"split_type":[0,0,0,0,0,0,0,0,0,0,0,0,0,0,0,0,0,0,0,0,0,0,0,0,0,0,0,0,0,0,0,0,0,0,0],"sum_hessian":[1.1656759E2,5.6607494E1,5.99601E1,5.0231483E1,6.376009E0,2.4197594E1,3.5762505E1,3.30288E1,1.7202684E1,1.0781622E1,1.3415972E1,2.968791E1,6.0745945E0,2.9529991E1,3.4988098E0,5.663356E0,1.1539328E1,5.4635725E0,5.318049E0,8.550256E0,4.865716E0,1.8564884E1,1.1123027E1,3.0352724E0,3.039322E0,7.2878366E0,2.2242155E1,4.4227138E0,7.116614E0,3.0381145E0,5.512141E0,1.4428927E1,4.135957E0,7.6194105E0,3.5036156E0],"tree_param":{"num_deleted":"0","num_feature":"43","num_nodes":"35","size_leaf_vector":"1"}},{"base_weights":[-7.566559E-3,-3.0949572E-1,2.7080306E-1,-3.1441957E-2,-2.2123644E-1,4.8751733E-1,1.0800405E-1,-1.2714668E-1,-3.3197977E-2,6.766096E-1,8.336202E-2,2.8825435E-1,-2.2944093E-1,-2.947803E-1,1.0980254E-1,4.57377E-2,4.0803435E-1,-5.7355217E-3,1.5286704E-2,6.509179E-1,6.346887E-2,-1.7243326E-2,2.840993E-3,-1.5532278E-2,5.491592E-3,3.0824611E-2,-8.721969E-3,5.5835037E-3,3.1885233E-2,4.3395753E-3,3.571264E-2,-2.4967487E-3,1.7105142E-2],"categories":[],"categories_nodes":[],"categories_segments":[],"categories_sizes":[],"default_left":[0,0,0,0,0,0,0,0,0,0,0,0,0,0,0,0,0,0,0,0,0,0,0,0,0,0,0,0,0,0,0,0,0],"id":30,"left_children":[1,3,5,-1,7,9,11,13,-1,15,17,19,21,23,25,-1,27,-1,-1,29,31,-1,-1,-1,-1,-1,-1,-1,-1,-1,-1,-1,-1],"loss_changes":[9.915754E0,2.1115465E0,2.0470471E0,0E0,2.6301434E0,1.8320837E0,2.2918885E0,1.8041661E0,0E0,1.535202E0,7.225093E-1,1.8784451E0,8.585419E-1,1.144033E0,4.289911E0,0E0,1.1123209E0,0E0,0E0,9.928479E-1,8.130875E-1,0E0,0E0,0E0,0E0,0E0,0E0,0E0,0E0,0E0,0E0,0E0,0E0],"parents":[2147483647,0,0,1,1,2,2,4,4,5,5,6,6,7,7,9,9,10,10,11,11,12,12,13,13,14,14,16,16,19,19,20,20],"right_children":[2,4,6,-1,8,10,12,14,-1,16,18,20,22,24,26,-1,28,-1,-1,30,32,-1,-1,-1,-1,-1,-1,-1,-1,-1,-1,-1,-1],"split_conditions":[8.770556E-1,4E0,2.6994225E-1,-3.1441957E-2,6.303832E-1,2.4E1,1E0,1E0,-3.3197977E-2,8E0,1.7516133E-1,1.3E1,3.032455E-1,4.4E0,3.62E2,4.57377E-2,1.8E1,-5.7355217E-3,1.5286704E-2,3.282884E-1,2.5E1,-1.7243326E-2,2.840993E-3,-1.5532278E-2,5.491592E-3,3.0824611E-2,-8.721969E-3,5.5835037E-3,3.1885233E-2,4.3395753E-3,3.571264E-2,-2.4967487E-3,1.7105142E-2],"split_indices":[0,16,42,0,42,21,13,4,0,29,42,29,7,38,30,0,21,0,0,42,21,0,0,0,0,0,0,0,0,0,0,0,0],"split_type":[0,0,0,0,0,0,0,0,0,0,0,0,0,0,0,0,0,0,0,0,0,0,0,0,0,0,0,0,0,0,0,0,0],"sum_hessian":[1.1593417E2,5.573237E1,6.02018E1,7.2964196E0,4.8435947E1,2.4705528E1,3.5496273E1,4.3140766E1,5.295181E0,1.6203043E1,8.502485E0,2.342542E1,1.2070852E1,2.537018E1,1.7770588E1,4.59183E0,1.1611214E1,4.939548E0,3.5629368E0,8.06804E0,1.5357382E1,7.1623244E0,4.908528E0,2.1129238E1,4.240941E0,5.546225E0,1.2224363E1,7.826963E0,3.784251E0,3.062539E0,5.005501E0,1.1823921E1,3.5334606E0],"tree_param":{"num_deleted":"0","num_feature":"43","num_nodes":"33","size_leaf_vector":"1"}},{"base_weights":[-1.9671088E-2,-2.572723E-1,1.8957041E-1,-3.6946306E-1,2.013784E-1,-5.702986E-2,2.9938135E-1,-5.061338E-1,-1.3412668E-1,2.2458665E-2,-1.0150458E-2,4.8679242E-1,-4.2424995E-1,4.4329233E-2,1.706738E-1,-3.2512495E-1,-2.734923E-2,2.2976605E-2,-4.841402E-1,6.2771537E-3,2.5653796E-2,-1.1043266E-1,-3.1204585E-2,-1.4681122E-1,3.6451727E-1,-2.2127042E-2,2.051375E-3,-2.8577914E-2,-4.075443E-3,-2.16358E-2,9.942931E-3,-2.0460198E-2,8.027359E-3,2.6553933E-2,-2.3331519E-3],"categories":[],"categories_nodes":[],"categories_segments":[],"categories_sizes":[],"default_left":[0,0,0,0,0,0,0,0,0,0,0,0,0,0,0,0,0,0,0,0,0,0,0,0,0,0,0,0,0,0,0,0,0,0,0],"id":31,"left_children":[1,3,5,7,9,11,13,15,17,-1,-1,19,21,-1,23,25,-1,-1,27,-1,-1,29,-1,31,33,-1,-1,-1,-1,-1,-1,-1,-1,-1,-1],"loss_changes":[5.8710556E0,2.9430938E0,1.7351601E0,1.3173356E0,2.0358179E0,4.1606817E0,4.234404E0,5.729127E-1,4.778522E0,0E0,0E0,2.4519789E-1,1.2187426E0,0E0,2.475844E0,1.4511945E0,0E0,0E0,9.7314763E-1,0E0,0E0,1.3918161E0,0E0,2.073277E0,3.2258244E0,0E0,0E0,0E0,0E0,0E0,0E0,0E0,0E0,0E0,0E0],"parents":[2147483647,0,0,1,1,2,2,3,3,4,4,5,5,6,6,7,7,8,8,11,11,12,12,14,14,15,15,18,18,21,21,23,23,24,24],"right_children":[2,4,6,8,10,12,14,16,18,-1,-1,20,22,-1,24,26,-1,-1,28,-1,-1,30,-1,32,34,-1,-1,-1,-1,-1,-1,-1,-1,-1,-1],"split_conditions":[8.770556E-1,-8.037359E1,3.9E1,1E0,9.9E1,-8.766495E1,5.4E1,2.6994225E-1,1.1661E2,2.2458665E-2,-1.0150458E-2,-1.0663314E2,2.7481624E-1,4.4329233E-2,-9.6255585E1,1.892944E-1,-2.734923E-2,2.2976605E-2,1.8E1,6.2771537E-3,2.5653796E-2,-8.216912E1,-3.1204585E-2,9.793991E-1,-8.022646E1,-2.2127042E-2,2.051375E-3,-2.8577914E-2,-4.075443E-3,-2.16358E-2,9.942931E-3,-2.0460198E-2,8.027359E-3,2.6553933E-2,-2.3331519E-3],"split_indices":[5,26,28,4,28,26,28,42,7,0,0,26,7,0,26,42,0,0,21,0,0,26,0,5,26,0,0,0,0,0,0,0,0,0,0],"split_type":[0,0,0,0,0,0,0,0,0,0,0,0,0,0,0,0,0,0,0,0,0,0,0,0,0,0,0,0,0,0,0,0,0,0,0],"sum_hessian":[1.1597462E2,5.4423336E1,6.1551277E1,4.4058624E1,1.0364715E1,1.8831575E1,4.2719704E1,2.6875292E1,1.7183332E1,5.778834E0,4.5858803E0,7.34956E0,1.1482016E1,4.713126E0,3.8006577E1,1.4990534E1,1.1884758E1,5.3752475E0,1.18080845E1,3.194308E0,4.155252E0,6.947091E0,4.534925E0,1.4304619E1,2.3701958E1,9.207899E0,5.782635E0,6.662993E0,5.145091E0,3.0554209E0,3.8916702E0,6.8897123E0,7.4149065E0,1.3682623E1,1.0019335E1],"tree_param":{"num_deleted":"0","num_feature":"43","num_nodes":"35","size_leaf_vector":"1"}},{"base_weights":[-5.0262332E-2,-2.378024E-1,2.6316565E-1,-3.1552773E-2,-1.5864845E-1,-1.5443473E-1,3.983921E-1,-1.8337695E-2,-5.2588576E-1,2.051608E-1,-2.6482727E-2,2.0173699E-1,6.667773E-1,-1.5859787E-1,6.2069046E-1,-3.5724368E-2,-1.07780576E-1,-5.710337E-3,2.0669682E-2,-5.5962093E-2,7.118663E-1,4.4813473E-3,8.443334E-1,-2.0258248E-2,-0E0,-4.9717138E-3,4.170967E-2,-1.3902237E-2,1.006613E-2,2.6035031E-2,-1.4823187E-2,3.702558E-2,1.1192217E-2,4.441853E-2,5.8969543E-3],"categories":[],"categories_nodes":[],"categories_segments":[],"categories_sizes":[],"default_left":[0,0,0,0,0,0,0,0,0,0,0,0,0,0,0,0,0,0,0,0,0,0,0,0,0,0,0,0,0,0,0,0,0,0,0],"id":32,"left_children":[1,3,5,-1,7,9,11,13,15,17,-1,19,21,23,25,-1,27,-1,-1,29,31,-1,33,-1,-1,-1,-1,-1,-1,-1,-1,-1,-1,-1,-1],"loss_changes":[6.9550395E0,3.0125918E0,2.5812092E0,0E0,3.347815E0,2.2530868E0,1.5646334E0,4.4569383E0,2.5783682E0,9.0153974E-1,0E0,2.8894947E0,1.1553435E0,2.3119338E0,3.0261552E0,0E0,9.3433094E-1,0E0,0E0,3.5193837E0,2.9571557E-1,0E0,1.5761447E0,0E0,0E0,0E0,0E0,0E0,0E0,0E0,0E0,0E0,0E0,0E0,0E0],"parents":[2147483647,0,0,1,1,2,2,4,4,5,5,6,6,7,7,8,8,9,9,11,11,12,12,13,13,14,14,16,16,19,19,20,20,22,22],"right_children":[2,4,6,-1,8,10,12,14,16,18,-1,20,22,24,26,-1,28,-1,-1,30,32,-1,34,-1,-1,-1,-1,-1,-1,-1,-1,-1,-1,-1,-1],"split_conditions":[9.359643E-1,4E0,3E1,-3.1552773E-2,6.17E2,5.9E1,1.9E1,1.4610655E0,1.3E1,3.7442543E1,-2.6482727E-2,5.9E1,3.314202E1,3E0,3.3684296E1,-3.5724368E-2,-8.88108E1,-5.710337E-3,2.0669682E-2,7.3E1,-8.419014E1,4.4813473E-3,4.184343E1,-2.0258248E-2,-0E0,-4.9717138E-3,4.170967E-2,-1.3902237E-2,1.006613E-2,2.6035031E-2,-1.4823187E-2,3.702558E-2,1.1192217E-2,4.441853E-2,5.8969543E-3],"split_indices":[5,16,28,0,6,6,21,7,21,25,0,32,25,14,25,0,26,0,0,28,26,0,25,0,0,0,0,0,0,0,0,0,0,0,0],"split_type":[0,0,0,0,0,0,0,0,0,0,0,0,0,0,0,0,0,0,0,0,0,0,0,0,0,0,0,0,0,0,0,0,0,0,0],"sum_hessian":[1.1630111E2,7.311374E1,4.3187366E1,7.8987722E0,6.5214966E1,1.0348388E1,3.283898E1,4.8143112E1,1.7071852E1,6.290911E0,4.0574765E0,2.0178076E1,1.2660906E1,4.02229E1,7.9202147E0,8.356789E0,8.715064E0,3.0764995E0,3.2144117E0,1.3867155E1,6.3109202E0,3.6018183E0,9.059087E0,1.2055955E1,2.8166945E1,3.0337539E0,4.886461E0,5.414414E0,3.30065E0,3.8441153E0,1.002304E1,3.3028967E0,3.0080235E0,6.0224023E0,3.036685E0],"tree_param":{"num_deleted":"0","num_feature":"43","num_nodes":"35","size_leaf_vector":"1"}},{"base_weights":[1.4277171E-2,-1.478632E-1,3.120047E-1,-8.1989445E-2,-3.1047553E-2,6.2331814E-1,4.2553425E-2,-2.4121245E-2,-6.422179E-3,2.3309222E-1,8.8016427E-1,-4.661739E-1,2.841446E-1,1.5068574E-1,-1.7963044E-1,2.8237708E-2,-1.9174661E-2,4.3730166E-2,1.3118306E-2,-6.485824E-3,-2.4433445E-2,4.7316286E-1,-9.731201E-3,1.0853356E-2,-1.0270243E-2,-1.4813566E-2,1.26303695E-2,1.8968894E-4,2.9599072E-2],"categories":[],"categories_nodes":[],"categories_segments":[],"categories_sizes":[],"default_left":[0,0,0,0,0,0,0,0,0,0,0,0,0,0,0,0,0,0,0,0,0,0,0,0,0,0,0,0,0],"id":33,"left_children":[1,3,5,7,-1,9,11,-1,13,15,17,19,21,23,25,-1,-1,-1,-1,-1,-1,27,-1,-1,-1,-1,-1,-1,-1],"loss_changes":[5.567826E0,2.925616E0,3.3250158E0,2.632555E0,0E0,1.5537815E0,2.9518945E0,0E0,1.6901405E0,3.3666427E0,7.629318E-1,1.61412E-1,1.7739348E0,1.6555561E0,2.9355044E0,0E0,0E0,0E0,0E0,0E0,0E0,1.4916313E0,0E0,0E0,0E0,0E0,0E0,0E0,0E0],"parents":[2147483647,0,0,1,1,2,2,3,3,5,5,6,6,8,8,9,9,10,10,11,11,12,12,13,13,14,14,21,21],"right_children":[2,4,6,8,-1,10,12,-1,14,16,18,20,22,24,26,-1,-1,-1,-1,-1,-1,28,-1,-1,-1,-1,-1,-1,-1],"split_conditions":[9.361702E-1,6.303832E-1,2.9478368E-1,1E0,-3.1047553E-2,1.2E1,3.1674662E-1,-2.4121245E-2,2.6994225E-1,7E0,8.4E1,9.8531914E-1,5.4936963E-1,5E0,1E0,2.8237708E-2,-1.9174661E-2,4.3730166E-2,1.3118306E-2,-6.485824E-3,-2.4433445E-2,2.7E1,-9.731201E-3,1.0853356E-2,-1.0270243E-2,-1.4813566E-2,1.26303695E-2,1.8968894E-4,2.9599072E-2],"split_indices":[0,42,42,8,0,29,42,0,42,29,28,0,42,22,4,0,0,0,0,0,0,28,0,0,0,0,0,0,0],"split_type":[0,0,0,0,0,0,0,0,0,0,0,0,0,0,0,0,0,0,0,0,0,0,0,0,0,0,0,0,0],"sum_hessian":[1.1304314E2,7.3294785E1,3.9748352E1,6.750698E1,5.787799E0,1.7660124E1,2.208823E1,7.4988046E0,6.000818E1,7.9216413E0,9.738482E0,6.679482E0,1.5408747E1,3.1231998E1,2.877618E1,4.8513575E0,3.0702837E0,6.189243E0,3.5492396E0,3.0601864E0,3.6192956E0,1.1558793E1,3.8499541E0,2.454379E1,6.6882067E0,2.1105534E1,7.6706457E0,4.7000012E0,6.858792E0],"tree_param":{"num_deleted":"0","num_feature":"43","num_nodes":"29","size_leaf_vector":"1"}},{"base_weights":[1.9879699E-2,-1.5758754E-1,4.130441E-1,-9.414449E-2,-3.041837E-2,5.7727075E-1,8.21014E-2,-4.2698756E-1,1.565654E-2,5.4767538E-2,8.0682445E-1,-1.8919494E-2,5.301283E-1,4.137316E-3,-6.949987E-1,-2.8346235E-1,2.0935681E-1,-1.2263414E-2,1.4721652E-2,1.4438338E-2,9.44607E-1,3.2511294E-2,1.3060017E-3,-3.3337507E-2,-9.197692E-3,-1.7847506E-2,4.8055304E-3,1.4574134E-3,2.0739462E-2,1.5859637E-2,4.4660434E-2],"categories":[],"categories_nodes":[],"categories_segments":[],"categories_sizes":[],"default_left":[0,0,0,0,0,0,0,0,0,0,0,0,0,0,0,0,0,0,0,0,0,0,0,0,0,0,0,0,0,0,0],"id":34,"left_children":[1,3,5,7,-1,9,11,13,15,17,19,-1,21,-1,23,25,27,-1,-1,-1,29,-1,-1,-1,-1,-1,-1,-1,-1,-1,-1],"loss_changes":[7.941866E0,2.8292563E0,1.8131742E0,2.6767817E0,0E0,2.6670341E0,3.5202944E0,2.704853E0,3.2287245E0,1.061355E0,5.112772E-1,0E0,9.904201E-1,0E0,4.9279594E-1,1.5161335E0,1.7461461E0,0E0,0E0,0E0,4.8313046E-1,0E0,0E0,0E0,0E0,0E0,0E0,0E0,0E0,0E0,0E0],"parents":[2147483647,0,0,1,1,2,2,3,3,5,5,6,6,7,7,8,8,9,9,10,10,12,12,14,14,15,15,16,16,20,20],"right_children":[2,4,6,8,-1,10,12,14,16,18,20,-1,22,-1,24,26,28,-1,-1,-1,30,-1,-1,-1,-1,-1,-1,-1,-1,-1,-1],"split_conditions":[9.793991E-1,6.1589617E-1,-8.1594246E1,5.860215E-1,-3.041837E-2,1.3E1,-7.832888E1,1.8E1,1.6E1,9.7950244E-1,-1.119118E2,-1.8919494E-2,5.7E1,4.137316E-3,4.3E0,-8.352886E1,3.0564034E-1,-1.2263414E-2,1.4721652E-2,1.4438338E-2,2.1130538E-1,3.2511294E-2,1.3060017E-3,-3.3337507E-2,-9.197692E-3,-1.7847506E-2,4.8055304E-3,1.4574134E-3,2.0739462E-2,1.5859637E-2,4.4660434E-2],"split_indices":[5,42,26,0,0,21,26,21,21,0,26,0,6,0,38,26,42,0,0,0,42,0,0,0,0,0,0,0,0,0,0],"split_type":[0,0,0,0,0,0,0,0,0,0,0,0,0,0,0,0,0,0,0,0,0,0,0,0,0,0,0,0,0,0,0],"sum_hessian":[1.1152403E2,7.707749E1,3.444654E1,7.093472E1,6.1427655E0,2.2322672E1,1.2123868E1,1.710521E1,5.3829517E1,7.3246765E0,1.4997996E1,5.2903757E0,6.8334923E0,5.822621E0,1.1282588E1,2.0772387E1,3.305713E1,3.2630157E0,4.061661E0,4.566453E0,1.0431543E1,3.825261E0,3.0082314E0,7.918301E0,3.3642871E0,1.49051285E1,5.8672585E0,2.2123182E1,1.09339485E1,3.4188175E0,7.012726E0],"tree_param":{"num_deleted":"0","num_feature":"43","num_nodes":"31","size_leaf_vector":"1"}},{"base_weights":[9.700481E-3,-2.1415238E-1,2.1537988E-1,-3.0579409E-2,-1.4770716E-1,3.092044E-1,2.6660295E-2,-2.299017E-2,-5.0111733E-2,9.2459045E-2,5.398446E-1,-3.653612E-1,2.9939786E-1,2.562119E-2,-2.343116E-2,2.6600343E-1,-1.4619207E-2,1.7977868E-1,8.843698E-1,1.5452225E-3,-3.644298E-2,-1.1079444E-2,5.1415706E-1,8.296994E-3,-9.322882E-3,2.8970238E-2,3.8028622E-4,2.3565456E-2,-5.237491E-3,1.594222E-2,4.619141E-2,4.8859674E-3,3.0239388E-2],"categories":[],"categories_nodes":[],"categories_segments":[],"categories_sizes":[],"default_left":[0,0,0,0,0,0,0,0,0,0,0,0,0,0,0,0,0,0,0,0,0,0,0,0,0,0,0,0,0,0,0,0,0],"id":35,"left_children":[1,3,5,-1,7,9,11,-1,13,15,17,19,21,23,-1,25,-1,27,29,-1,-1,-1,31,-1,-1,-1,-1,-1,-1,-1,-1,-1,-1],"loss_changes":[5.2816205E0,1.7967155E0,1.0204077E0,0E0,2.0019588E0,1.8675516E0,2.3876097E0,0E0,1.7816681E0,1.824253E0,2.0624723E0,2.1214917E0,1.8127186E0,1.8206971E0,0E0,1.8693612E0,0E0,1.467759E0,5.92062E-1,0E0,0E0,0E0,7.8372645E-1,0E0,0E0,0E0,0E0,0E0,0E0,0E0,0E0,0E0,0E0],"parents":[2147483647,0,0,1,1,2,2,4,4,5,5,6,6,8,8,9,9,10,10,11,11,12,12,13,13,15,15,17,17,18,18,22,22],"right_children":[2,4,6,-1,8,10,12,-1,14,16,18,20,22,24,-1,26,-1,28,30,-1,-1,-1,32,-1,-1,-1,-1,-1,-1,-1,-1,-1,-1],"split_conditions":[8.770556E-1,1E0,9.7994614E-1,-3.0579409E-2,2E0,1.9E1,4.8E1,-2.299017E-2,6E1,4.184343E1,9.361702E-1,2.3E1,9.8531914E-1,9.9E1,-2.343116E-2,9.359643E-1,-1.4619207E-2,3.73504E1,3.7117756E1,1.5452225E-3,-3.644298E-2,-1.1079444E-2,1.2E1,8.296994E-3,-9.322882E-3,2.8970238E-2,3.8028622E-4,2.3565456E-2,-5.237491E-3,1.594222E-2,4.619141E-2,4.8859674E-3,3.0239388E-2],"split_indices":[0,20,0,0,22,21,28,0,39,25,0,21,0,28,0,5,0,25,25,0,0,0,29,0,0,0,0,0,0,0,0,0,0],"split_type":[0,0,0,0,0,0,0,0,0,0,0,0,0,0,0,0,0,0,0,0,0,0,0,0,0,0,0,0,0,0,0,0,0],"sum_hessian":[1.1270883E2,5.371753E1,5.8991302E1,4.4930797E0,4.922445E1,3.8621685E1,2.0369617E1,8.0567665E0,4.1167683E1,2.085631E1,1.7765375E1,8.067488E0,1.2302129E1,3.6738995E1,4.4286914E0,1.5586879E1,5.2694316E0,9.57282E0,8.192555E0,5.064328E0,3.0031598E0,3.1344118E0,9.167717E0,2.191933E1,1.4819661E1,4.799192E0,1.0787687E1,3.8829463E0,5.6898737E0,3.9463727E0,4.2461824E0,4.2297797E0,4.9379373E0],"tree_param":{"num_deleted":"0","num_feature":"43","num_nodes":"33","size_leaf_vector":"1"}},{"base_weights":[-2.5410172E-2,-2.7863536E-2,3.7225198E-2,8.0912635E-2,-2.8157225E-2,1.7010104E-2,4.6797994E-1,-1.2126322E-1,1.6540302E-1,1.296707E-1,3.3950977E-2,-9.722521E-3,1.0545655E-2,2.3582092E-2,-5.168459E-3,1.3108178E-2,-6.2667755E-3],"categories":[],"categories_nodes":[],"categories_segments":[],"categories_sizes":[],"default_left":[0,0,0,0,0,0,0,0,0,0,0,0,0,0,0,0,0],"id":36,"left_children":[1,-1,3,5,-1,7,9,11,13,15,-1,-1,-1,-1,-1,-1,-1],"loss_changes":[4.8696904E0,0E0,3.3867984E0,2.4159067E0,0E0,1.8106629E0,1.5833342E0,2.185298E0,5.4656625E0,5.6077325E-1,0E0,0E0,0E0,0E0,0E0,0E0,0E0],"parents":[2147483647,0,0,2,2,3,3,5,5,6,6,7,7,8,8,9,9],"right_children":[2,-1,4,6,-1,8,10,12,14,16,-1,-1,-1,-1,-1,-1,-1],"split_conditions":[4E0,-2.7863536E-2,6.3611215E-1,2.8E1,-2.8157225E-2,-8.68664E1,4.186799E1,3.7356043E-1,2.6994225E-1,4.0140892E1,3.3950977E-2,-9.722521E-3,1.0545655E-2,2.3582092E-2,-5.168459E-3,1.3108178E-2,-6.2667755E-3],"split_indices":[16,0,42,29,0,26,25,42,42,25,0,0,0,0,0,0,0],"split_type":[0,0,0,0,0,0,0,0,0,0,0,0,0,0,0,0,0],"sum_hessian":[1.12650826E2,8.887779E0,1.0376305E2,9.895585E1,4.8072E0,8.6051544E1,1.2904304E1,4.4290424E1,4.176112E1,7.6822753E0,5.2220283E0,3.4121334E1,1.0169091E1,1.684628E1,2.4914843E1,4.662471E0,3.0198042E0],"tree_param":{"num_deleted":"0","num_feature":"43","num_nodes":"17","size_leaf_vector":"1"}},{"base_weights":[-1.2368844E-2,-2.9313192E-2,5.7691175E-2,1.4020517E-1,-4.2265415E-1,1.0119139E-1,3.5190556E-2,-2.7041296E-2,-0E0,1.3500413E-1,-1.8254735E-2,2.6873252E-3,2.3844242E-2],"categories":[],"categories_nodes":[],"categories_segments":[],"categories_sizes":[],"default_left":[0,0,0,0,0,0,0,0,0,0,0,0,0],"id":37,"left_children":[1,-1,3,5,7,9,-1,-1,-1,11,-1,-1,-1],"loss_changes":[5.8339295E0,0E0,4.159192E0,2.4042845E0,1.6161351E0,1.6615837E0,0E0,0E0,0E0,2.4755616E0,0E0,0E0,0E0],"parents":[2147483647,0,0,2,2,3,3,4,4,5,5,9,9],"right_children":[2,-1,4,6,8,10,-1,-1,-1,12,-1,-1,-1],"split_conditions":[4E0,-2.9313192E-2,6.16E2,8.1E1,1.9E1,5.9E1,3.5190556E-2,-2.7041296E-2,-0E0,2.8E1,-1.8254735E-2,2.6873252E-3,2.3844242E-2],"split_indices":[16,0,30,30,21,39,0,0,0,29,0,0,0],"split_type":[0,0,0,0,0,0,0,0,0,0,0,0,0],"sum_hessian":[1.1240426E2,9.249944E0,1.0315431E2,8.881408E1,1.4340235E1,8.557196E1,3.242118E0,8.532324E0,5.807911E0,8.1562874E1,4.009093E0,7.229235E1,9.270519E0],"tree_param":{"num_deleted":"0","num_feature":"43","num_nodes":"13","size_leaf_vector":"1"}},{"base_weights":[-2.8425853E-3,-2.4796452E-2,5.0085288E-2,1.0001093E-1,-6.1849964E-1,4.316487E-2,5.870118E-1,-1.0999136E-2,-3.1930532E-2,-4.507163E-2,2.746086E-1,4.3173894E-2,4.11805E-3,-3.957977E-3,2.7790114E-2,2.1967633E-2,-6.2337643E-3],"categories":[],"categories_nodes":[],"categories_segments":[],"categories_sizes":[],"default_left":[0,0,0,0,0,0,0,0,0,0,0,0,0,0,0,0,0],"id":38,"left_children":[1,-1,3,5,7,9,11,-1,-1,13,15,-1,-1,-1,-1,-1,-1],"loss_changes":[3.7357185E0,0E0,3.46944E0,2.6091232E0,1.1787534E-1,1.8429936E0,2.1351528E0,0E0,0E0,2.5853543E0,3.0662737E0,0E0,0E0,0E0,0E0,0E0,0E0],"parents":[2147483647,0,0,2,2,3,3,4,4,5,5,6,6,9,9,10,10],"right_children":[2,-1,4,6,8,10,12,-1,-1,14,16,-1,-1,-1,-1,-1,-1],"split_conditions":[4E0,-2.4796452E-2,6.303832E-1,4.3040466E1,1.4191E2,4.5960647E-1,4.494852E1,-1.0999136E-2,-3.1930532E-2,5.0478506E-1,5.09E2,4.3173894E-2,4.11805E-3,-3.957977E-3,2.7790114E-2,2.1967633E-2,-6.2337643E-3],"split_indices":[16,0,42,25,7,7,25,0,0,42,30,0,0,0,0,0,0],"split_type":[0,0,0,0,0,0,0,0,0,0,0,0,0,0,0,0,0],"sum_hessian":[1.10686226E2,8.046911E0,1.0263932E2,9.6437935E1,6.2013836E0,8.7516396E1,8.921537E0,3.1904716E0,3.010912E0,6.3630753E1,2.3885647E1,3.7108681E0,5.210669E0,6.0244835E1,3.3859167E0,1.4556588E1,9.329058E0],"tree_param":{"num_deleted":"0","num_feature":"43","num_nodes":"17","size_leaf_vector":"1"}},{"base_weights":[-5.5988707E-2,-2.1207713E-1,1.9542255E-1,-1.4402466E-1,-3.0516395E-2,5.096144E-1,4.0367585E-2,-7.534189E-2,-2.6841799E-2,3.156679E-2,2.1217562E-1,-2.2986214E-1,2.844734E-1,-4.6694025E-1,2.9329378E-2,4.6586167E-4,1.3128994E-2,4.681508E-2,-2.1998571E-2,-1.3586477E-3,4.837987E-1,-1.1203609E-2,-2.9267857E-2,-4.9705314E-3,1.2841491E-2,-1.4438239E-2,1.8326398E-2,3.6671143E-2,5.213713E-3],"categories":[],"categories_nodes":[],"categories_segments":[],"categories_sizes":[],"default_left":[0,0,0,0,0,0,0,0,0,0,0,0,0,0,0,0,0,0,0,0,0,0,0,0,0,0,0,0,0],"id":39,"left_children":[1,3,5,7,-1,9,11,13,-1,-1,15,17,19,21,23,-1,-1,25,-1,-1,27,-1,-1,-1,-1,-1,-1,-1,-1],"loss_changes":[4.425822E0,2.4095104E0,2.021895E0,2.168511E0,0E0,8.904934E-1,2.0581467E0,2.4083974E0,0E0,0E0,1.5508309E-1,1.3741509E0,1.1068033E0,3.0521488E-1,2.1204524E0,0E0,0E0,1.620247E0,0E0,0E0,1.3655794E0,0E0,0E0,0E0,0E0,0E0,0E0,0E0,0E0],"parents":[2147483647,0,0,1,1,2,2,3,3,5,5,6,6,7,7,10,10,11,11,12,12,13,13,14,14,17,17,20,20],"right_children":[2,4,6,8,-1,10,12,14,-1,-1,16,18,20,22,24,-1,-1,26,-1,-1,28,-1,-1,-1,-1,-1,-1,-1,-1],"split_conditions":[9.359643E-1,6.1589617E-1,2.2719567E-1,6E1,-3.0516395E-2,-8.766495E1,3.1674662E-1,1E0,-2.6841799E-2,3.156679E-2,1.8E1,4E0,3.2E1,-8.07396E1,-8.366516E1,4.6586167E-4,1.3128994E-2,-9.395905E1,-2.1998571E-2,-1.3586477E-3,8.1E1,-1.1203609E-2,-2.9267857E-2,-4.9705314E-3,1.2841491E-2,-1.4438239E-2,1.8326398E-2,3.6671143E-2,5.213713E-3],"split_indices":[5,42,42,39,0,26,42,10,0,0,21,14,28,26,26,0,0,26,0,0,28,0,0,0,0,0,0,0,0],"split_type":[0,0,0,0,0,0,0,0,0,0,0,0,0,0,0,0,0,0,0,0,0,0,0,0,0,0,0,0,0],"sum_hessian":[1.1068312E2,6.862905E1,4.205407E1,6.2366955E1,6.262096E0,1.29273815E1,2.9126688E1,5.635528E1,6.011674E0,5.6384854E0,7.288896E0,1.3656916E1,1.5469771E1,1.1357758E1,4.4997524E1,3.3911564E0,3.8977394E0,7.615704E0,6.041211E0,6.081672E0,9.388099E0,8.086432E0,3.2713249E0,2.9628479E1,1.5369047E1,3.7638993E0,3.851805E0,3.3759356E0,6.0121636E0],"tree_param":{"num_deleted":"0","num_feature":"43","num_nodes":"29","size_leaf_vector":"1"}},{"base_weights":[4.2409725E-2,-2.3870315E-2,1.0211485E-1,1.4779519E-1,-2.6099201E-2,1.9432604E-1,-2.4271986E-2,1.0707283E-1,5.073566E-1,1.2367828E-2,-6.620237E-3,-7.744034E-4,2.7186627E-2],"categories":[],"categories_nodes":[],"categories_segments":[],"categories_sizes":[],"default_left":[0,0,0,0,0,0,0,0,0,0,0,0,0],"id":40,"left_children":[1,-1,3,5,-1,7,-1,9,11,-1,-1,-1,-1],"loss_changes":[4.1382494E0,0E0,3.489467E0,3.4170837E0,0E0,2.3558524E0,0E0,4.048017E0,1.8224826E0,0E0,0E0,0E0,0E0],"parents":[2147483647,0,0,2,2,3,3,5,5,7,7,8,8],"right_children":[2,-1,4,6,-1,8,-1,10,12,-1,-1,-1,-1],"split_conditions":[4E0,-2.3870315E-2,6.3611215E-1,6E1,-2.6099201E-2,3.8792813E-1,-2.4271986E-2,2.6994225E-1,1.2E1,1.2367828E-2,-6.620237E-3,-7.744034E-4,2.7186627E-2],"split_indices":[16,0,42,39,0,42,0,42,21,0,0,0,0],"split_type":[0,0,0,0,0,0,0,0,0,0,0,0,0],"sum_hessian":[1.0713954E2,8.241453E0,9.889809E1,9.413611E1,4.761984E0,8.949268E1,4.6434226E0,7.1284546E1,1.8208136E1,4.1065872E1,3.0218674E1,4.564033E0,1.3644102E1],"tree_param":{"num_deleted":"0","num_feature":"43","num_nodes":"13","size_leaf_vector":"1"}},{"base_weights":[3.8311116E-2,-1.4961338E-1,2.4674544E-1,-3.2307982E-2,-7.712224E-2,5.145329E-1,1.5287586E-2,-2.464839E-1,1.4794424E-1,4.1443363E-4,6.0070777E-1,2.892945E-2,-9.112895E-2,2.355002E-2,-4.225167E-1,4.0940973E-1,-1.3663466E-1,2.0491613E-1,7.8642803E-1,-2.2786504E-1,1.2684845E-2,1.6827961E-2,-6.5772026E-3,-2.2101892E-2,2.6729974E-4,-0E0,3.2953E-2,1.0331939E-2,-1.4513497E-2,1.3484734E-2,9.837364E-4,3.6948778E-2,1.4405162E-2,-3.4934825E-3,-2.6383867E-2],"categories":[],"categories_nodes":[],"categories_segments":[],"categories_sizes":[],"default_left":[0,0,0,0,0,0,0,0,0,0,0,0,0,0,0,0,0,0,0,0,0,0,0,0,0,0,0,0,0,0,0,0,0,0,0],"id":41,"left_children":[1,3,5,-1,7,9,11,13,15,-1,17,-1,19,21,23,25,27,29,31,33,-1,-1,-1,-1,-1,-1,-1,-1,-1,-1,-1,-1,-1,-1,-1],"loss_changes":[4.3044186E0,2.5938559E0,3.1725802E0,0E0,2.069095E0,9.7343254E-1,2.329939E0,1.5191112E0,1.8063045E0,0E0,1.2297711E0,0E0,1.5236955E0,1.0594215E0,1.1180024E0,2.0503058E0,1.1453943E0,1.462129E-1,3.1577015E-1,1.1030974E0,0E0,0E0,0E0,0E0,0E0,0E0,0E0,0E0,0E0,0E0,0E0,0E0,0E0,0E0,0E0],"parents":[2147483647,0,0,1,1,2,2,4,4,5,5,6,6,7,7,8,8,10,10,12,12,13,13,14,14,15,15,16,16,17,17,18,18,19,19],"right_children":[2,4,6,-1,8,10,12,14,16,-1,18,-1,20,22,24,26,28,30,32,34,-1,-1,-1,-1,-1,-1,-1,-1,-1,-1,-1,-1,-1,-1,-1],"split_conditions":[9.047849E-1,1E0,2.9478368E-1,-3.2307982E-2,-8.68664E1,3E1,2E1,2E0,3.142944E-1,4.1443363E-4,9.361702E-1,2.892945E-2,3.6958045E-1,-1.1201322E2,2.3E1,2E0,2E0,9.359643E-1,-8.130996E1,5.6E1,1.2684845E-2,1.6827961E-2,-6.5772026E-3,-2.2101892E-2,2.6729974E-4,-0E0,3.2953E-2,1.0331939E-2,-1.4513497E-2,1.3484734E-2,9.837364E-4,3.6948778E-2,1.4405162E-2,-3.4934825E-3,-2.6383867E-2],"split_indices":[0,20,42,0,26,28,28,27,42,0,5,0,7,26,21,27,27,0,26,6,0,0,0,0,0,0,0,0,0,0,0,0,0,0,0],"split_type":[0,0,0,0,0,0,0,0,0,0,0,0,0,0,0,0,0,0,0,0,0,0,0,0,0,0,0,0,0,0,0,0,0,0,0],"sum_hessian":[1.0770049E2,5.6532867E1,5.1167625E1,4.4662256E0,5.206664E1,2.2954794E1,2.8212831E1,2.990922E1,2.2157421E1,3.6837018E0,1.9271091E1,3.0520606E0,2.516077E1,1.1920831E1,1.7988388E1,1.1502185E1,1.0655235E1,6.998426E0,1.2272666E1,1.9362457E1,5.7983127E0,3.6028967E0,8.317934E0,1.3764026E1,4.224363E0,6.39352E0,5.108665E0,3.6677125E0,6.987523E0,3.216318E0,3.7821078E0,8.223001E0,4.0496655E0,1.5689477E1,3.6729805E0],"tree_param":{"num_deleted":"0","num_feature":"43","num_nodes":"35","size_leaf_vector":"1"}},{"base_weights":[-2.0522956E-2,-2.5563218E-2,3.3982523E-2,9.506491E-2,-1.8691714E-1,2.72825E-2,3.5378624E-2,-2.2539295E-2,6.3377336E-2,-2.2557212E-2,3.373584E-1,-1.1986011E-1,2.0411534E-2,1.0398724E-3,-1.585716E-2,-6.047111E-3,2.7629022E-2,8.213654E-3,-1.2142119E-2],"categories":[],"categories_nodes":[],"categories_segments":[],"categories_sizes":[],"default_left":[0,0,0,0,0,0,0,0,0,0,0,0,0,0,0,0,0,0,0],"id":42,"left_children":[1,-1,3,5,7,9,-1,-1,11,13,15,17,-1,-1,-1,-1,-1,-1,-1],"loss_changes":[3.8182518E0,0E0,1.3935119E0,4.2414722E0,2.1796427E0,1.2156651E0,0E0,0E0,1.2536372E0,1.2499908E0,2.0371728E0,7.077798E-1,0E0,0E0,0E0,0E0,0E0,0E0,0E0],"parents":[2147483647,0,0,2,2,3,3,4,4,5,5,8,8,9,9,10,10,11,11],"right_children":[2,-1,4,6,8,10,-1,-1,12,14,16,18,-1,-1,-1,-1,-1,-1,-1],"split_conditions":[4E0,-2.5563218E-2,6.14E2,9.7E1,1.3E1,2.8E1,3.5378624E-2,-2.2539295E-2,1.313E3,4.2549557E1,1.6E1,1.5E1,2.0411534E-2,1.0398724E-3,-1.585716E-2,-6.047111E-3,2.7629022E-2,8.213654E-3,-1.2142119E-2],"split_indices":[16,0,6,6,21,29,0,0,32,25,21,29,0,0,0,0,0,0,0],"split_type":[0,0,0,0,0,0,0,0,0,0,0,0,0,0,0,0,0,0,0],"sum_hessian":[1.09812675E2,8.1728115E0,1.0163986E2,8.042372E1,2.1216139E1,7.513357E1,5.290154E0,8.131156E0,1.3084983E1,6.5250374E1,9.883198E0,9.640386E0,3.4445975E0,5.8337223E1,6.91315E0,4.269596E0,5.613601E0,3.2407937E0,6.3995914E0],"tree_param":{"num_deleted":"0","num_feature":"43","num_nodes":"19","size_leaf_vector":"1"}},{"base_weights":[4.207246E-2,8.819579E-2,-2.8909283E-2,-2.2149302E-2,1.4542244E-1,7.121864E-2,4.1064802E-1,2.3213491E-1,-1.628954E-1,8.423063E-1,1.3422227E-1,-3.43969E-4,2.228876E-2,-1.2799609E-2,1.0098098E-2,4.4618957E-2,1.3802914E-2,-1.8283E-2,1.4675086E-2],"categories":[],"categories_nodes":[],"categories_segments":[],"categories_sizes":[],"default_left":[0,0,0,0,0,0,0,0,0,0,0,0,0,0,0,0,0,0,0],"id":43,"left_children":[1,3,-1,-1,5,7,9,11,13,15,17,-1,-1,-1,-1,-1,-1,-1,-1],"loss_changes":[3.8211057E0,3.829615E0,0E0,0E0,1.8052022E0,2.9173174E0,2.2243836E0,3.6482475E0,2.1360552E0,5.062275E-1,2.0532181E0,0E0,0E0,0E0,0E0,0E0,0E0,0E0,0E0],"parents":[2147483647,0,0,1,1,4,4,5,5,6,6,7,7,8,8,9,9,10,10],"right_children":[2,4,-1,-1,6,8,10,12,14,16,18,-1,-1,-1,-1,-1,-1,-1,-1],"split_conditions":[6.3611215E-1,4E0,-2.8909283E-2,-2.2149302E-2,3.8792813E-1,2.6994225E-1,-9.3096245E1,-8.7620544E1,4.0748614E-1,4.8344526E-1,-8.724792E1,-3.43969E-4,2.228876E-2,-1.2799609E-2,1.0098098E-2,4.4618957E-2,1.3802914E-2,-1.8283E-2,1.4675086E-2],"split_indices":[42,16,0,0,42,42,26,26,7,42,26,0,0,0,0,0,0,0,0],"split_type":[0,0,0,0,0,0,0,0,0,0,0,0,0,0,0,0,0,0,0],"sum_hessian":[1.0731413E2,1.0216808E2,5.146052E0,7.5093937E0,9.465869E1,7.5250854E1,1.9407835E1,4.4855446E1,3.0395409E1,6.6361403E0,1.2771695E1,2.6153765E1,1.8701681E1,2.2395298E1,8.00011E0,3.3508136E0,3.2853267E0,3.2125378E0,9.559157E0],"tree_param":{"num_deleted":"0","num_feature":"43","num_nodes":"19","size_leaf_vector":"1"}},{"base_weights":[-2.7754098E-2,-4.4821036E-1,5.1477414E-2,6.449206E-4,-6.7412955E-1,-5.0048092E-3,4.7019985E-1,-3.2186583E-2,-7.879138E-3,3.0263412E-1,-7.007423E-2,2.3123825E-2,5.973802E-3,1.4906391E-2,3.1792838E-2,-2.800479E-1,6.767644E-2,9.125351E-3,-1.2433563E-2,-3.2458566E-3,-2.6498592E-2,9.634336E-3,-6.660735E-3],"categories":[],"categories_nodes":[],"categories_segments":[],"categories_sizes":[],"default_left":[0,0,0,0,0,0,0,0,0,0,0,0,0,0,0,0,0,0,0,0,0,0,0],"id":44,"left_children":[1,3,5,-1,7,9,11,-1,-1,13,15,-1,-1,17,-1,19,21,-1,-1,-1,-1,-1,-1],"loss_changes":[3.6869237E0,1.91803E0,2.2303183E0,0E0,4.872756E-1,1.6404805E0,2.2810364E-1,0E0,0E0,1.9244926E0,2.0303965E0,0E0,0E0,7.667381E-1,0E0,1.9819138E0,1.753734E0,0E0,0E0,0E0,0E0,0E0,0E0],"parents":[2147483647,0,0,1,1,2,2,4,4,5,5,6,6,9,9,10,10,13,13,15,15,16,16],"right_children":[2,4,6,-1,8,10,12,-1,-1,14,16,-1,-1,18,-1,20,22,-1,-1,-1,-1,-1,-1],"split_conditions":[5.860215E-1,1.8E1,-7.5392E1,6.449206E-4,4.4E0,-1.1692836E2,9.6E1,-3.2186583E-2,-7.879138E-3,5.6E1,8.770556E-1,2.3123825E-2,5.973802E-3,4E0,3.1792838E-2,8.049327E-1,-8.395872E1,9.125351E-3,-1.2433563E-2,-3.2458566E-3,-2.6498592E-2,9.634336E-3,-6.660735E-3],"split_indices":[0,21,26,0,38,26,6,0,0,6,5,0,0,22,0,5,26,0,0,0,0,0,0],"split_type":[0,0,0,0,0,0,0,0,0,0,0,0,0,0,0,0,0,0,0,0,0,0,0],"sum_hessian":[1.0779044E2,1.6553179E1,9.123726E1,5.5769105E0,1.0976268E1,8.105309E1,1.0184172E1,7.914981E0,3.0612872E0,1.3244976E1,6.780811E1,6.788095E0,3.3960764E0,9.137021E0,4.107955E0,2.6740482E1,4.1067635E1,5.888896E0,3.2481253E0,1.8560526E1,8.1799555E0,2.3838282E1,1.7229351E1],"tree_param":{"num_deleted":"0","num_feature":"43","num_nodes":"23","size_leaf_vector":"1"}},{"base_weights":[-1.1898765E-2,-1.9092822E-1,1.7971621E-1,-2.8885068E-2,-1.1156456E-1,-9.710773E-2,3.08603E-1,-3.181707E-2,-2.885679E-2,2.3203927E-1,-5.5369824E-1,7.4641985E-1,1.7571863E-2,7.037698E-2,-2.9990652E-1,3.355917E-2,-8.223572E-3,-5.8957497E-3,-3.449406E-2,4.006018E-2,1.1124351E-2,-1.8167695E-2,1.608835E-1,-3.7611797E-3,3.769044E-2,-2.0723207E-2,1.713062E-3,1.3392165E-2,-9.735156E-3],"categories":[],"categories_nodes":[],"categories_segments":[],"categories_sizes":[],"default_left":[0,0,0,0,0,0,0,0,0,0,0,0,0,0,0,0,0,0,0,0,0,0,0,0,0,0,0,0,0],"id":45,"left_children":[1,3,5,-1,7,9,11,13,-1,15,17,19,21,23,25,-1,-1,-1,-1,-1,-1,-1,27,-1,-1,-1,-1,-1,-1],"loss_changes":[3.7908795E0,2.2538142E0,1.9464991E0,0E0,2.3938365E0,2.7741754E0,4.5909195E0,1.3182237E0,0E0,3.073373E0,7.3849297E-1,1.3264093E0,1.6140763E0,5.0774302E0,1.0638945E0,0E0,0E0,0E0,0E0,0E0,0E0,0E0,1.4065312E0,0E0,0E0,0E0,0E0,0E0,0E0],"parents":[2147483647,0,0,1,1,2,2,4,4,5,5,6,6,7,7,9,9,10,10,11,11,12,12,13,13,14,14,22,22],"right_children":[2,4,6,-1,8,10,12,14,-1,16,18,20,22,24,26,-1,-1,-1,-1,-1,-1,-1,28,-1,-1,-1,-1,-1,-1],"split_conditions":[9.047849E-1,4E0,3.9E1,-2.8885068E-2,6.303832E-1,9.8531914E-1,7.9E1,3.52E2,-2.885679E-2,2.1E1,1.6E1,9.7994614E-1,8.8E1,1E0,-8.812568E1,3.355917E-2,-8.223572E-3,-5.8957497E-3,-3.449406E-2,4.006018E-2,1.1124351E-2,-1.8167695E-2,-8.022646E1,-3.7611797E-3,3.769044E-2,-2.0723207E-2,1.713062E-3,1.3392165E-2,-9.735156E-3],"split_indices":[0,16,28,0,42,0,28,6,0,28,21,0,28,4,26,0,0,0,0,0,0,0,26,0,0,0,0,0,0],"split_type":[0,0,0,0,0,0,0,0,0,0,0,0,0,0,0,0,0,0,0,0,0,0,0,0,0,0,0,0,0],"sum_hessian":[1.0847312E2,5.634986E1,5.2123264E1,6.108089E0,5.024177E1,1.6390442E1,3.5732822E1,4.5507187E1,4.7345853E0,9.682968E0,6.707474E0,1.350621E1,2.222661E1,3.3211605E1,1.2295582E1,3.7682476E0,5.914721E0,3.6734073E0,3.0340667E0,7.8683267E0,5.6378837E0,4.5107465E0,1.7715864E1,2.8596731E1,4.6148725E0,7.378688E0,4.916894E0,1.2679922E1,5.0359416E0],"tree_param":{"num_deleted":"0","num_feature":"43","num_nodes":"29","size_leaf_vector":"1"}},{"base_weights":[-3.5841286E-3,-3.4382617E-1,7.1566194E-2,7.4475415E-2,-5.3516716E-1,1.0965942E-1,-2.9819366E-2,-6.319742E-3,1.2441574E-2,-6.6455764E-1,-2.57142E-3,4.201586E-2,5.01292E-1,-3.2531284E-2,-7.676888E-3,1.5358572E-1,-3.708292E-1,3.582732E-2,-1.2229166E-2,2.3079144E-3,2.4808688E-2,-3.148921E-3,-2.6519716E-2],"categories":[],"categories_nodes":[],"categories_segments":[],"categories_sizes":[],"default_left":[0,0,0,0,0,0,0,0,0,0,0,0,0,0,0,0,0,0,0,0,0,0,0],"id":46,"left_children":[1,3,5,7,9,11,-1,-1,-1,13,-1,15,17,-1,-1,19,21,-1,-1,-1,-1,-1,-1],"loss_changes":[2.860201E0,1.7093794E0,2.8364573E0,4.5379883E-1,7.497816E-1,2.2427444E0,0E0,0E0,0E0,5.0734806E-1,0E0,3.5324807E0,4.33644E0,0E0,0E0,2.611095E0,1.2609348E0,0E0,0E0,0E0,0E0,0E0,0E0],"parents":[2147483647,0,0,1,1,2,2,3,3,4,4,5,5,9,9,11,11,12,12,15,15,16,16],"right_children":[2,4,6,8,10,12,-1,-1,-1,14,-1,16,18,-1,-1,20,22,-1,-1,-1,-1,-1,-1],"split_conditions":[7.5796664E-1,1.8E1,7.390754E-1,5.277778E1,3E1,1.09E2,-2.9819366E-2,-6.319742E-3,1.2441574E-2,4.4E0,-2.57142E-3,9.8E1,1.32E2,-3.2531284E-2,-7.676888E-3,2.7E1,2.3E1,3.582732E-2,-1.2229166E-2,2.3079144E-3,2.4808688E-2,-3.148921E-3,-2.6519716E-2],"split_indices":[0,21,42,35,21,28,0,0,0,38,0,28,28,0,0,21,21,0,0,0,0,0,0],"split_type":[0,0,0,0,0,0,0,0,0,0,0,0,0,0,0,0,0,0,0,0,0,0,0],"sum_hessian":[1.08833626E2,1.928347E1,8.9550156E1,6.0799294E0,1.320354E1,8.650521E1,3.0449426E0,3.0208166E0,3.0591125E0,9.868239E0,3.335301E0,7.49264E1,1.1578812E1,6.79708E0,3.0711591E0,5.967079E1,1.52556095E1,7.787239E0,3.7915723E0,5.0609104E1,9.061688E0,8.434497E0,6.821113E0],"tree_param":{"num_deleted":"0","num_feature":"43","num_nodes":"23","size_leaf_vector":"1"}},{"base_weights":[-3.778583E-2,-2.3861336E-2,1.1054712E-2,7.524001E-2,-3.370196E-1,-1.2732599E-2,4.404554E-1,-0E0,-6.043204E-1,1.4005658E-1,-1.7083867E-1,7.512552E-1,-0E0,1.3604974E-2,-1.7569669E-2,-2.9921336E-2,-9.775384E-3,-3.3984073E-3,1.492476E-2,-1.7608345E-2,3.918409E-3,1.6179298E-3,4.1981865E-2,-1.787822E-2,1.8131318E-2],"categories":[],"categories_nodes":[],"categories_segments":[],"categories_sizes":[],"default_left":[0,0,0,0,0,0,0,0,0,0,0,0,0,0,0,0,0,0,0,0,0,0,0,0,0],"id":47,"left_children":[1,-1,3,5,7,9,11,13,15,17,19,21,23,-1,-1,-1,-1,-1,-1,-1,-1,-1,-1,-1,-1],"loss_changes":[3.0639923E0,0E0,2.2751696E0,2.8459463E0,1.3808774E0,1.7402539E0,2.4209864E0,1.3673085E0,1.6773915E-1,1.9639418E0,2.6569366E0,2.008089E0,1.8159007E0,0E0,0E0,0E0,0E0,0E0,0E0,0E0,0E0,0E0,0E0,0E0,0E0],"parents":[2147483647,0,0,2,2,3,3,4,4,5,5,6,6,7,7,8,8,9,9,10,10,11,11,12,12],"right_children":[2,-1,4,6,8,10,12,14,16,18,20,22,24,-1,-1,-1,-1,-1,-1,-1,-1,-1,-1,-1,-1],"split_conditions":[4E0,-2.3861336E-2,7.659E1,4.5960647E-1,3.973621E1,2.9478368E-1,6.14E2,4.8344526E-1,4.2049538E1,1.7516133E-1,3.785888E-1,3.3605293E1,1.678E3,1.3604974E-2,-1.7569669E-2,-2.9921336E-2,-9.775384E-3,-3.3984073E-3,1.492476E-2,-1.7608345E-2,3.918409E-3,1.6179298E-3,4.1981865E-2,-1.787822E-2,1.8131318E-2],"split_indices":[16,0,7,7,25,42,31,42,25,42,42,25,32,0,0,0,0,0,0,0,0,0,0,0,0],"split_type":[0,0,0,0,0,0,0,0,0,0,0,0,0,0,0,0,0,0,0,0,0,0,0,0,0],"sum_hessian":[1.088901E2,8.016218E0,1.0087388E2,8.607305E1,1.4800835E1,6.992172E1,1.6151327E1,7.1054792E0,7.695355E0,3.5295162E1,3.462656E1,9.185186E0,6.9661417E0,4.0414004E0,3.064079E0,4.5304112E0,3.1649437E0,1.806255E1,1.723261E1,1.7162218E1,1.746434E1,3.1499422E0,6.035244E0,3.6226406E0,3.343501E0],"tree_param":{"num_deleted":"0","num_feature":"43","num_nodes":"25",